SVM-light Version V5.01-TK-1.5
5 # kernel type
3 # kernel parameter -d 
1 # kernel parameter -g 
1 # kernel parameter -s 
1 # kernel parameter -r 
empty# kernel parameter -u 
0.4 # kernel parameter -L 
1 # kernel parameter -T 
T # kernel parameter -C 
1 # kernel parameter -F 
1 # kernel parameter -S 
0.400000 # kernel parameter -M 
3 # kernel parameter -N 
S # kernel parameter -V 
S # kernel parameter -W 
0 # kernel parameter -U 
60 # highest feature index 
178 # number of training documents 
178 # number of support vectors plus 1 
-0.23260016 # threshold b, each following line is a SV (starting with alpha*y)
-1  |BT| (ROOT (FRAG (NP (NNP (CONCLUSION)))(: (:))(S (NP (PRP$ (Our))(NNS (findings)))(VP (VBP (indicate))(SBAR (IN (that))(S (NP (JJ (canakinumab))(CD (150))(NN (mg)))(VP (VP (VBZ (provides))(NP (JJ (rapid))(CC (and))(JJ (sustained))(NN (pain))(NN (relief)))(PP (IN (in))(NP (NP (NNS (patients)))(PP (IN (with))(NP (JJ (acute))(JJ (gouty))(NN (arthritis)))))))(, (,))(CC (and))(VP (ADVP (RB (significantly)))(VBZ (reduces))(NP (NP (DT (the))(NN (risk)))(PP (IN (of))(NP (NP (JJ (recurrent))(NNS (flares)))(PP (VBN (compared))(PP (IN (with))(NP (JJ (triamcinolone))(NN (acetonide))))))))))))))(. (.)))) |ET|  |BV| 1:-0.70107085 2:-0.67142344 3:-0.99821794 4:-0.27082878 5:0.96723515 6:-0.90341014 7:-0.21741243 8:0.17161171 9:0.18283898 10:0.35798311 11:-0.3414588 12:-0.28059736 13:-0.21575037 14:0.80553985 15:-0.29131484 16:0.31853765 17:-0.01406425 18:-0.62460804 19:-2.1282365 20:-0.86754268 21:-0.5073027 22:-0.46654549 23:-0.19207969 24:-0.18477006 25:0.48602673 26:0.0095923962 27:-0.15957986 28:-0.66272211 29:-0.11714134 30:-0.083451219 31:-0.2927314 32:-0.002590975 33:0.99936646 34:0.77390444 35:0.61782748 36:0.65482217 37:0.43461204 38:-0.63503081 39:0.77378172 40:0.27871394 41:-0.23816001 42:0.49596485 43:0.24029925 44:0.34273428 45:-0.10382351 46:0.1243526 47:0.22147045 48:-0.12639189 49:0.085527204 50:0.10854711 51:-0.05201349 52:0.33668953 53:-0.027487827 54:0.24325944 55:-0.12473096 56:-0.14732218 57:0.414942 58:0.085233316 59:0.43200132 60:-0.074566804  |EV| 
-0.81741506558620136146942058985587  |BT| (ROOT (S (NP (DT (The))(NN (plasma))(NN (lipid))(NN (peroxidation)))(VP (VP (VBD (was))(VP (VBN (determined))(CC (and))(VBN (reported))(PP (IN (as))(NP (JJ (thiobarbituric))(NN (acid))(NN (reactive))(NN (substance))))))(CC (and))(VP (VBD (was))(ADJP (ADJP (ADJP (RB (significantly))(JJ (increased)))(PRN (-LRB- (-LRB-))(NP (CD (+21))(NN (%)))(-RRB- (-RRB-))))(, (,))(SBAR (IN (whereas))(S (NP (NP (DT (the))(NNS (activities)))(PP (IN (of))(NP (NP (DT (the))(JJ (erythrocyte))(JJ (antioxidant))(NNS (enzymes))(NN (glutathione)))(ADJP (JJ (peroxidase))(, (,))(JJ (catalase))(, (,))(CC (and))(JJ (superoxide))(JJ (dismutase))))))(VP (VBD (were))(ADVP (RB (significantly)))(VP (VBN (decreased))(PRN (-LRB- (-LRB-))(NP (NP (NP (CD (-32))(NN (%)))(, (,))(NP (CD (-14))(NN (%)))(CC (and))(NP (CD (-31))(NN (%))))(, (,))(ADVP (RB (respectively))))(-RRB- (-RRB-))))))))(PP (IN (in))(NP (JJ (amphetamine))(NNS (users))))))(. (.)))) |ET|  |BV| 1:-0.51009583 2:-0.56838346 3:0.018959643 4:-0.80733913 5:-0.028113127 6:-0.51623201 7:0.14834246 8:-0.50347131 9:0.91042084 10:0.16682194 11:0.37457371 12:-0.095307551 13:0.23110786 14:-0.50809145 15:-0.5548557 16:-0.40123346 17:0.65094382 18:-0.02916215 19:0.42906675 20:1.1775618 21:-2.1319661 22:1.0506796 23:0.8612175 24:-0.52978295 25:-0.84027267 26:-0.48896053 27:-0.34385866 28:0.59534967 29:-0.29902795 30:0.96731508 31:0.075172231 32:0.12474465 33:1.6130536 34:0.37658465 35:-0.24996969 36:-1.5141646 37:-1.6431141 38:-0.34250835 39:0.28368518 40:-1.1796204 41:0.36493894 42:-0.12623131 43:0.23646332 44:-0.0021588178 45:-0.22519679 46:-0.017826512 47:-0.76105434 48:-0.16577321 49:0.093279012 50:-0.21217889 51:0.42986286 52:0.47051576 53:0.11429661 54:-0.94374698 55:-0.17818514 56:0.49227211 57:0.39937896 58:0.26278988 59:-0.57860619 60:0.089267962  |EV| 
-0.74266375944521589858027255104389  |BT| (ROOT (S (NP (NP (NNS (Millions)))(PP (IN (of))(NP (NNS (individuals)))))(VP (VBP (are))(VP (VBN (prescribed))(S (NP (NP (JJ (platelet))(NNS (inhibitors)))(, (,))(PP (JJ (such))(IN (as))(NP (NN (aspirin))(CC (and))(NN (clopidogrel))))(, (,)))(VP (TO (to))(VP (VB (reduce))(NP (NP (PRP$ (their))(NN (risk)))(PP (IN (of))(NP (JJ (thrombosis-related))(JJ (clinical))(NNS (events))))))))))(. (.)))) |ET|  |BV| 1:-0.15856889 2:0.3293196 3:-0.6357854 4:-0.037901204 5:0.4094055 6:0.16079946 7:-0.40807116 8:-0.96301061 9:0.22807567 10:0.12053797 11:-0.31293467 12:0.17092253 13:0.28423032 14:0.14488637 15:-0.22898345 16:1.0369015 17:-0.058853254 18:-0.22417794 19:0.88311076 20:0.051908705 21:-0.45031631 22:0.15654109 23:-0.14055742 24:0.57517284 25:0.1998097 26:-0.003260914 27:-0.33045915 28:-0.79845482 29:0.2162341 30:-0.19117653 31:-0.26789901 32:0.13184972 33:0.5689823 34:-0.53675497 35:-0.25804719 36:0.65332514 37:-0.48971584 38:-0.86091042 39:0.14939134 40:-0.01000188 41:-0.13894668 42:0.14867257 43:0.25275663 44:-0.074380524 45:0.30145276 46:0.16982481 47:-0.15957671 48:-0.15784621 49:0.24943964 50:0.31978816 51:0.12373658 52:0.019082075 53:-0.40232769 54:-0.062541299 55:0.2235852 56:0.38597289 57:0.33574659 58:0.14232403 59:0.31984273 60:-0.35995016  |EV| 
-1  |BT| (ROOT (S (S (NP (DT (The))(JJ (cyclooxygenase))(NN (inhibitor))(NN (indomethacin)))(VP (VBD (normalized))(NP (DT (this))(NN (response)))))(, (,))(CC (and))(S (NP (NP (DT (the))(NN (concentration)))(PP (IN (of))(NP (NP (DT (the))(JJ (stable))(NN (metabolite)))(PP (IN (of))(NP (NP (NN (prostacyclin)))(PP (IN (in))(NP (NP (DT (the))(NN (aorta)))(PP (IN (of))(NP (NNP (CLP))(NNS (rats)))))))))))(VP (VBD (increased))(PP (PP (IN (in))(NP (JJ (basal))(NNS (conditions))))(CC (and))(PP (IN (after))(NP (NN (stimulation)))))(PP (IN (with))(NP (NN (acetylcholine))))))(. (.)))) |ET|  |BV| 1:-0.6964218 2:0.36328217 3:0.839136 4:-0.91466933 5:-0.27204117 6:-0.37875962 7:0.44033417 8:0.29511434 9:0.8904736 10:-0.26710111 11:0.88625318 12:-0.29589823 13:0.97394598 14:-0.12877832 15:-0.10586167 16:0.56494546 17:0.2942304 18:0.2748687 19:0.5583688 20:-0.16265568 21:-0.26775089 22:-0.17085113 23:-0.28042009 24:-0.11034966 25:-0.097754493 26:0.26364118 27:0.064379074 28:-0.10352088 29:0.47721407 30:0.8950026 31:-0.43930519 32:-0.32465222 33:-0.036774006 34:-0.44432601 35:-0.21733296 36:-0.36880413 37:-0.047921028 38:-0.76586854 39:-0.049508598 40:0.055001814 41:-0.42306143 42:-0.21677443 43:0.13826723 44:-0.37169611 45:0.14014922 46:-0.23866676 47:-0.11636898 48:-0.23296531 49:0.15913241 50:0.11641513 51:0.020793764 52:-0.3296493 53:0.1054501 54:-0.60931742 55:0.15935853 56:0.15040198 57:-0.23283552 58:-0.036179513 59:-0.10597014 60:0.35070109  |EV| 
-1  |BT| (ROOT (S (S (NP (NNP (Plasma))(NNP (calcium)))(VP (VBD (did))(RB (not))(VP (VB (change)))))(, (,))(CC (but))(S (NP (NNS (concentrations)))(VP (ADVP (IN (of)))(VBZ (insulin))(-LRB- (-LRB-))(NP (NNP (P)))))(. (?)))) |ET|  |BV| 1:-0.76733154 2:0.2460794 3:-0.36372909 4:-0.26238525 5:-0.33067521 6:-0.33500141 7:-0.089534409 8:0.13414255 9:0.37700409 10:0.26008978 11:-0.075949982 12:-0.24670501 13:0.17961161 14:-0.15187471 15:-1.0580264 16:-0.25400683 17:-0.31937048 18:0.033552781 19:0.48308486 20:-0.69982004 21:0.11782391 22:-0.11326382 23:-0.45559829 24:0.23644729 25:0.76049387 26:-0.59329844 27:0.54228014 28:0.41613418 29:0.040011354 30:-0.32132769 31:0.92303711 32:0.70906955 33:-0.073625803 34:0.061595749 35:0.56586367 36:0.75466645 37:-0.81484872 38:-0.17582589 39:0.64058375 40:-0.051477093 41:-0.16284072 42:-0.36576149 43:0.41856998 44:0.28824455 45:-0.011221407 46:0.47739005 47:-0.45349297 48:-0.14012027 49:-0.14517677 50:-0.03136408 51:0.28500482 52:-0.091129169 53:0.27687401 54:-0.34755701 55:-0.0070933066 56:0.38126776 57:0.81831282 58:0.048237447 59:0.50520217 60:0.33657447  |EV| 
1  |BT| (ROOT (S (NP (NP (NP (NN (Monitoring))(NNS (patients)))(PP (IN (for))(NP (JJ (adverse))(NNS (events)))))(, (,))(NP (NP (DT (the))(NN (need)))(PP (IN (for))(NP (NN (dose))(NNS (adjustments)))))(, (,))(CC (or))(NP (NP (DT (both)))(PP (IN (during))(NP (NP (NN (coadministration)))(PP (IN (with))(NP (NN (posaconazole))))))))(VP (MD (may))(VP (VB (be))(VP (VBN (warranted))(PP (IN (in))(NP (NP (NNS (patients)))(VP (VBG (being))(VP (VBN (treated))(PP (IN (with))(NP (NP (NNS (benzodiazepines)))(SBAR (WHNP (WDT (that)))(S (VP (VBP (are))(ADVP (RB (predominantly)))(VP (VBN (metabolized))(PP (IN (through))(NP (NNP (CYP3A4))))))))(PRN (-LRB- (-LRB-))(NP (NP (NN (eg)))(, (,))(NP (NN (midazolam))))(-RRB- (-RRB-))))))))))))(. (.)))) |ET|  |BV| 1:-0.78979158 2:-0.58866102 3:-0.50207615 4:0.22971973 5:1.023483 6:0.78828704 7:-0.15948094 8:-0.00097798009 9:0.73214215 10:-0.26119983 11:-1.1348884 12:0.0080271913 13:0.31622371 14:0.38099229 15:-0.98981839 16:-0.18961744 17:-0.79919237 18:-0.2080963 19:0.25636631 20:-0.37937513 21:-0.33319581 22:-0.9960075 23:-0.36023229 24:-0.92181027 25:0.70081371 26:0.13029915 27:-1.0233551 28:-0.3117902 29:-0.06793651 30:-0.072507545 31:0.083184622 32:-0.49804565 33:-0.0906666 34:-0.08099328 35:-0.43621778 36:0.82062733 37:-0.23244357 38:-0.10020839 39:0.24677145 40:-1.4766077 41:-0.16772039 42:0.27030492 43:0.035899766 44:-0.2042307 45:0.058817174 46:0.32141963 47:0.53227121 48:-0.34179607 49:0.23373675 50:0.39511076 51:0.062264528 52:0.5808931 53:0.009949795 54:0.80117011 55:-0.15728521 56:-0.39057025 57:0.083487339 58:0.54840708 59:0.52147019 60:-0.56140709  |EV| 
1  |BT| (ROOT (S (NP (NP (NP (NNS (CONCLUSIONS)))(: (:))(NP (NP (NP (JJ (High))(NN (clonidine))(NN (dose)))(PRN (-LRB- (-LRB-))(NP (CD (75))(NN (microg)))(-RRB- (-RRB-))))(VP (VBN (associated))(PP (TO (to))(NP (JJ (hyperbaric))(NN (bupivacaine))))(PP (IN (during))(NP (JJ (high-level))(JJ (spinal))(NN (anesthesia)))))))(PRN (-LRB- (-LRB-))(NP (NNP (T4)))(-RRB- (-RRB-))))(VP (VP (VBZ (induces))(NP (NP (DT (a))(JJR (higher))(NN (incidence)))(PP (IN (of))(NP (JJ (arterial))(NN (hypotension))))))(CC (but))(VP (VBZ (prolongs))(NP (NP (JJ (sensory))(NN (block))(CC (and))(NN (postoperative))(NN (analgesia)))(ADJP (JJ (similar))(PP (TO (to))(NP (JJR (lower))(NN (clonidine))(NN (dose)))))(PRN (-LRB- (-LRB-))(NP (CD (45))(NN (microg)))(-RRB- (-RRB-))))(PP (IN (during))(NP (JJ (upper))(JJ (spinal))(NN (anesthesia))))))(. (.)))) |ET|  |BV| 1:-0.34696582 2:-0.0097431345 3:-0.23105963 4:-0.50302809 5:-0.020926366 6:0.2870712 7:-0.036876835 8:-0.00093980529 9:0.57171631 10:-0.061133616 11:0.5594151 12:-0.38323382 13:0.034318916 14:-0.24120934 15:-0.67039001 16:0.42504683 17:0.50754982 18:0.30065629 19:-0.016009297 20:-0.086647823 21:-0.8905074 22:-0.068780981 23:-0.47116345 24:-0.32579431 25:-0.21974571 26:-0.086479373 27:0.31466416 28:-0.11319269 29:0.079392374 30:0.18790373 31:0.23570172 32:-0.12637585 33:0.10259232 34:-0.49600062 35:-0.2559278 36:0.32329068 37:0.42616135 38:0.28018206 39:-0.7610113 40:0.10418049 41:-0.76491618 42:0.24518801 43:0.17853083 44:-0.23840232 45:0.34070531 46:-0.064233221 47:-0.65283954 48:0.11207738 49:0.090207815 50:-0.27262828 51:-0.45396826 52:-0.46814615 53:-0.5591079 54:0.023902979 55:-0.26819465 56:-0.20253927 57:-0.18586649 58:0.19122948 59:-0.16243209 60:0.14149334  |EV| 
1  |BT| (ROOT (S (S (VP (VBG (Examining))(NP (NP (DT (the))(NNS (details)))(PP (IN (of))(NP (NP (DT (the))(JJ (temporal))(NNS (features)))(PP (IN (of))(NP (DT (the))(JJ (evoked))(NNS (profiles)))))))))(VP (VBZ (reveals))(NP (NP (DT (no))(JJ (clear))(NN (evidence)))(PP (IN (for))(NP (NP (JJ (long-distance))(NN (diffusion)))(PP (IN (of))(NP (NP (NN (dopamine)))(PP (IN (between))(NP (ADJP (JJ (fast))(CC (and))(JJ (slow)))(NNS (domains)))))))))(, (,))(SBAR (RB (even))(IN (though))(S (NP (NP (JJ (uptake))(NN (inhibition)))(PP (IN (by))(NP (NN (nomifensine)))))(VP (ADVP (RB (clearly)))(VBZ (prolongs))(NP (DT (the))(NN (time)))(SBAR (IN (that))(S (NP (NN (dopamine)))(VP (VBZ (resides))(PP (IN (in))(NP (DT (the))(NN (extracellular))(NN (space)))))))))))(. (.)))) |ET|  |BV| 1:-1.4352882 2:0.23550102 3:0.28739452 4:-1.6928145 5:-0.10965688 6:-0.60174739 7:0.74265701 8:-0.91238713 9:0.85570979 10:0.393821 11:0.48118779 12:-0.74184155 13:1.2862357 14:-0.52537066 15:0.68416065 16:0.93611735 17:0.4934338 18:0.52505773 19:-0.21933049 20:1.0926528 21:-0.52288628 22:0.064634569 23:0.43291721 24:-0.5993492 25:0.067319103 26:-0.54065132 27:0.75569421 28:0.22499478 29:0.7509374 30:0.50299102 31:0.66871351 32:-0.46396655 33:0.70376694 34:0.35963044 35:0.027474603 36:0.40848967 37:0.32412928 38:-0.051923949 39:0.47423962 40:0.30214891 41:-0.18680191 42:0.031823594 43:-0.066329129 44:-0.16584101 45:0.43341047 46:-0.64443189 47:0.049082715 48:0.018523032 49:-0.28769046 50:0.57131511 51:-0.10905656 52:0.061138332 53:0.10274614 54:-0.22704844 55:-0.087608151 56:0.10404284 57:0.34588921 58:0.22590666 59:-0.4927125 60:0.060855482  |EV| 
1  |BT| (ROOT (S (NP (NNP (Chlordiazepoxide)))(VP (VBD (produced))(NP (JJ (significant))(NNS (decreases)))(PP (PP (IN (in))(NP (NP (JJ (food-maintained))(VBG (responding)))(CC (and))(NP (NP (DT (the))(NN (dose)))(PP (IN (of))(NP (NP (NN (ethanol)))(VP (VBN (presented))))))))(, (,))(CONJP (CC (but))(RB (only)))(PP (IN (at))(NP (NP (DT (the))(JJS (highest))(NN (dose)))(VP (VBN (tested)))))))(. (.)))) |ET|  |BV| 1:-0.18262425 2:-0.27455565 3:-0.63187039 4:-0.20303082 5:-0.49805775 6:-0.36358526 7:-0.67585135 8:-0.18507487 9:0.57143605 10:-0.13132448 11:0.033105545 12:0.39477274 13:0.01403023 14:-0.085290499 15:0.069696143 16:0.078646556 17:-0.2542069 18:-0.099925838 19:0.45036244 20:0.57571846 21:-1.1399069 22:-0.051731899 23:-1.3472413 24:-0.11247903 25:0.35895267 26:-0.78500241 27:-1.8944215 28:0.49661213 29:1.8387921 30:0.36294636 31:-0.65767848 32:0.029336948 33:0.013183736 34:0.34426984 35:-0.32096601 36:-0.17584008 37:0.018173909 38:0.39964738 39:0.34451035 40:0.53582203 41:-0.22235754 42:-0.35752195 43:0.10931377 44:0.3466202 45:0.19532886 46:-0.18904051 47:0.20533572 48:-0.43493101 49:-0.43030122 50:-0.039110955 51:0.17364885 52:0.36153713 53:0.076109618 54:0.093946531 55:-0.16439913 56:0.091444574 57:0.72916645 58:0.14645554 59:0.23365995 60:0.29246813  |EV| 
1  |BT| (ROOT (NP (NP (NNS (CONCLUSIONS)))(: (:))(NP (NP (DT (The))(NN (combination)))(PP (IN (of))(NP (NP (JJ (chronic))(ADJP (JJ (amiodarone))(CC (and))(JJ (acute)))(NN (ranolazine)))(SBAR (S (VP (VBZ (produces))(NP (NP (DT (a))(JJ (synergistic))(JJ (use-dependent))(NN (depression)))(PP (IN (of))(NP (NP (PRP (I)))(PRN (-LRB- (-LRB-))(NP (NNP (Na)))(-RRB- (-RRB-))))))))))))(: (-))(NP (NP (JJ (dependent))(NNS (parameters)))(PP (IN (in))(NP (JJ (isolated))(JJ (canine))(NN (atria)))))(, (,))(VP (VBG (leading))(PP (TO (to))(NP (NP (DT (a))(JJ (potent))(NN (effect)))(PP (IN (of))(NP (DT (the))(NN (drug))(NN (combination))))))(S (VP (TO (to))(VP (VB (prevent))(NP (NP (DT (the))(NN (induction)))(PP (IN (of))(NP (JJ (atrial))(NN (fibrillation)))))))))(. (.)))) |ET|  |BV| 1:-0.16469966 2:0.022516429 3:-0.73193413 4:0.045193154 5:0.4222194 6:0.036796849 7:0.2352435 8:-0.27031907 9:0.41419598 10:0.20313478 11:-0.29296407 12:-0.33279586 13:0.23716505 14:-0.20832293 15:-0.14375141 16:-0.043305229 17:-0.10976048 18:-0.43185729 19:0.685583 20:0.18347895 21:-0.50797927 22:0.22242394 23:-0.58503681 24:-1.1161242 25:0.29811209 26:-0.20458293 27:0.28309065 28:-0.53003603 29:1.2892283 30:1.1058322 31:-0.64361739 32:-1.1454899 33:-0.1349261 34:0.29871371 35:-0.53236902 36:-0.15928262 37:-0.58320421 38:-0.17344429 39:0.83502084 40:-0.2206724 41:-0.6961236 42:-0.22058751 43:0.068752035 44:-0.25931942 45:0.30157036 46:-0.22566921 47:0.26623222 48:0.11536221 49:0.32593679 50:-0.13486694 51:-0.054787338 52:-0.90097779 53:0.12251316 54:0.44120902 55:0.020446632 56:0.27535501 57:0.22570048 58:0.21483344 59:0.18371722 60:-0.27874658  |EV| 
-0.847073662740129185166892966663  |BT| (ROOT (S (NP (NP (DT (The))(NN (purpose)))(PP (IN (of))(NP (DT (this))(NN (study)))))(VP (VBD (was))(S (VP (TO (to))(VP (VB (evaluate))(NP (NP (DT (the))(NN (efficacy)))(PP (IN (of))(NP (NP (NP (NN (lamivudine)))(PRN (-LRB- (-LRB-))(NP (NNP (LAM)))(-RRB- (-RRB-))))(PP (IN (versus))(NP (NP (NN (telbivudine)))(PRN (-LRB- (-LRB-))(NP (NNP (LdT)))(-RRB- (-RRB-))))))))(PP (IN (in))(NP (NP (DT (the))(NN (treatment)))(PP (IN (of))(NP (JJ (chronic))(NNP (hepatitis))(NNP (B))(PRN (-LRB- (-LRB-))(NP (NNP (CHB)))(-RRB- (-RRB-)))))))))))(. (.)))) |ET|  |BV| 1:0.21777214 2:-0.48387641 3:-0.78525078 4:0.066077396 5:-0.2437056 6:0.50630271 7:0.45234659 8:-0.72379816 9:0.11202154 10:1.3632783 11:-0.27164024 12:0.62322271 13:-0.63029885 14:1.0705799 15:-0.82747239 16:0.73803794 17:-0.62852734 18:-0.7533195 19:-0.038409524 20:-0.18720534 21:0.23779199 22:-1.6707587 23:0.010241315 24:-0.12289868 25:-0.35425296 26:1.0315037 27:0.74759912 28:0.13548201 29:-0.56741869 30:0.92076725 31:0.26983118 32:0.18860863 33:-0.27637884 34:0.73069203 35:-1.13779 36:0.32787588 37:-0.94376045 38:-0.91430557 39:0.36018893 40:-1.2165726 41:-0.024095088 42:-0.20915298 43:0.26553917 44:-0.046438165 45:-0.22937129 46:-0.028843738 47:0.251798 48:-0.029212222 49:-0.14888071 50:-0.092224009 51:0.011975461 52:-0.32317951 53:-0.16132723 54:0.58817178 55:-0.19626126 56:0.41344604 57:0.2396934 58:0.19986278 59:-0.090092249 60:-0.12889434  |EV| 
-0.62587018746919120815164205851033  |BT| (ROOT (S (NP (NP (JJ (Dexmedetomidine))(NN (infusion)))(PP (IN (without))(NP (DT (a))(NNS (bolus)))))(VP (VBZ (appears))(S (VP (TO (to))(VP (VB (be))(NP (DT (an))(JJ (effective))(NN (adjunct))(S (VP (TO (to))(VP (VB (fentanyl))(NP (NP (NN (anesthesia)))(PP (IN (in))(NP (NP (NN (control)))(PP (IN (of))(NP (JJ (hemodynamic))(NNS (responses)))))))(PP (TO (to))(NP (NP (NN (surgery)))(PP (IN (for))(NP (NP (NN (repair)))(PP (IN (of))(NP (NNP (CHD))))))))(PP (IN (in))(NP (NNS (children))))))))))))(. (.)))) |ET|  |BV| 1:-0.77053291 2:-0.48575148 3:-0.84432662 4:-1.0948236 5:0.79077691 6:-0.38421625 7:-0.094402462 8:-0.76336622 9:-0.38017043 10:0.042292215 11:-0.44345054 12:-0.75959682 13:-0.44020325 14:-0.11750142 15:0.36356458 16:1.1747187 17:0.36346835 18:0.23654294 19:-0.10545375 20:-0.92121631 21:-0.5965603 22:-0.60173035 23:-0.5637145 24:-0.742405 25:0.11047246 26:-0.63334364 27:-0.39095229 28:-0.11231483 29:0.08078523 30:0.339479 31:0.24232866 32:-0.4889521 33:0.044322167 34:-0.77776569 35:-0.32153225 36:0.4958865 37:0.6283139 38:-0.012034352 39:-0.66721821 40:-1.0869571 41:0.034788929 42:0.1428165 43:-0.15560913 44:0.034237575 45:0.36357898 46:-0.43612674 47:-0.54494858 48:-0.4042058 49:0.23585364 50:0.0031713275 51:-0.4113718 52:-0.087790638 53:-0.45852062 54:0.012386788 55:-0.44590914 56:-0.43328649 57:0.41290116 58:-0.16389251 59:-0.031090358 60:-0.19744091  |EV| 
-0.83788099334336840762205156352138  |BT| (ROOT (S (NP (NP (DT (The))(JJ (cysteine))(NN (prodrug))(NN (N-acetylcysteine)))(PRN (-LRB- (-LRB-))(NP (NNP (NAC)))(-RRB- (-RRB-))))(VP (VBZ (has))(VP (VBN (been))(VP (VBN (shown))(S (VP (TO (to))(VP (VB (reduce))(NP (NP (NN (reinstatement)))(PP (IN (of))(NP (NP (NN (cocaine)))(VP (VBG (seeking))(PP (IN (by))(NP (NP (NN (normalization)))(PP (IN (of))(NP (JJ (glutamatergic))(NN (tone))))))))))))))))(. (.)))) |ET|  |BV| 1:0.04645972 2:-0.243412 3:-0.12847507 4:-0.020735495 5:0.046708986 6:-0.63118833 7:-0.37865597 8:-0.77093482 9:0.74587637 10:-0.46059707 11:0.0066282842 12:-0.22267382 13:-0.17692463 14:-0.36518228 15:-0.20190102 16:0.29322821 17:-0.080923498 18:-0.18870497 19:0.15922587 20:0.54918379 41:0.062842861 42:-0.33100313 43:0.066658333 44:-0.22510052 45:0.47421774 46:-0.48099273 47:-0.53954118 48:-0.15290162 49:0.10567547 50:0.27469495 51:0.12800848 52:-0.040627558 53:0.053304292 54:0.30889568 55:0.15100461 56:0.25580519 57:0.25999257 58:-0.26079535 59:0.57520294 60:0.28164241  |EV| 
1  |BT| (ROOT (S (NP (NP (JJ (Several))(NNS (drugs)))(, (,))(PP (VBG (including))(NP (NP (NN (sucralfate)))(, (,))(NP (NN (acarbose)))(, (,))(NP (JJ (cytotoxic))(NNS (agents)))(, (,))(CC (and))(NP (JJ (enzyme))(NNS (inducers)))))(, (,)))(VP (MD (can))(VP (VB (reduce))(NP (JJ (digoxin))(NN (plasma))(NNS (concentrations)))))(. (.)))) |ET|  |BV| 1:-1.0121845 2:0.14595585 3:0.44600824 4:-0.25769731 5:-0.37429839 6:0.023680463 7:0.67091608 8:0.20296322 9:1.6607677 10:0.61272508 11:-0.86790186 12:0.55626851 13:0.33811837 14:-1.0848907 15:-0.81710273 16:0.16831641 17:-0.089263283 18:-0.56630611 19:0.69577777 20:-0.74892586 21:-0.60551023 22:0.79024237 23:-1.4789503 24:-0.063694231 25:0.52428079 26:0.011539915 27:-0.44888067 28:-0.2874338 29:1.0391918 30:0.14282526 31:-0.64101034 32:0.20663229 33:0.57818228 34:-0.28894764 35:-0.11183441 36:0.23218049 37:0.074597076 38:-0.25530753 39:0.13733175 40:-0.53306454 41:-0.31519055 42:-0.1250736 43:0.45796633 44:0.46528739 45:0.23173526 46:0.20864008 47:-0.029604094 48:-0.35758504 49:0.55659491 50:0.073550396 51:0.41324598 52:0.21355695 53:0.028693797 54:-0.14827161 55:0.2351398 56:0.043548752 57:0.13677995 58:0.40026498 59:0.22347628 60:-0.27246344  |EV| 
0.71978066210920055301158981819754  |BT| (ROOT (S (NP (DT (A))(JJ (recent))(NN (study)))(VP (VBD (reported))(SBAR (IN (that))(S (NP (NN (resveratrol)))(VP (VP (ADVP (RB (directly)))(VBZ (inhibits))(NP (JJ (cyclic))(JJ (adenosine))(JJ (monophosphate-specific))(NNS (phosphodiesterases))))(CC (and))(VP (ADVP (RB (then)))(VBZ (activates))(NP (JJ (5cyclic))(JJ (adenosine))(JJ (monophosphate-specific))(NNS (phosphodiesterases)))))))))) |ET|  |BV| 1:-0.58411968 2:-0.47265872 3:-0.15236552 4:-0.015359038 5:0.10891268 6:-1.0250098 7:-1.6109728 8:1.0500451 9:0.05216353 10:0.89534938 11:-0.62225813 12:-0.0080696652 13:0.03575068 14:1.3001171 15:-1.4801602 16:0.8895095 17:-0.50203562 18:-0.24404615 19:-0.24035545 20:-1.487729 21:-0.30830941 22:-0.31597814 23:-0.25802624 24:-0.078292951 25:-0.31885257 26:-0.063564442 27:0.36135384 28:0.29760718 29:0.16068318 30:-0.050796911 31:0.11653323 32:-0.021431386 33:0.75684661 34:0.10787389 35:-0.20611054 36:-0.0290264 37:0.26027101 38:0.0347443 39:0.19359428 40:0.22078773 41:0.0084029417 42:0.017400514 43:0.012152082 44:-0.020999137 45:0.014177808 46:0.020954652 47:-0.0048795589 48:-0.0010717437 49:-0.0050756452 50:-0.011515853 51:0.01602816 52:0.018754518 53:-0.023977019 54:0.0090801353 55:-0.0075581134 56:0.022889582 57:0.0042083976 58:0.017112264 59:-0.00077992986 60:-0.021568734  |EV| 
1  |BT| (ROOT (FRAG (NP (NNP (Conclusion)))(: (:))(S (S (NP (NNP (Etanercept))(CC (and))(NN (anakinra))(NNS (efficiently))(CC (and))(NN (dose-dependently)))(VP (VBP (prevent))(NP (JJ (cytokine-induced))(NN (bone))(NN (growth))(NN (impairment)))))(, (,))(CC (and))(S (NP (NP (NN (combination)))(PP (IN (with))(NP (NNP (IGF-I)))))(VP (ADVP (RBR (further)))(VBZ (improves))(NP (NN (bone))(NN (growth))))))(. (.)))) |ET|  |BV| 1:-0.9448337 2:-1.1720799 3:-0.21976928 4:0.053598132 5:-1.6204743 6:-1.8191205 7:-0.45569769 8:-0.55438995 9:-0.76254988 10:-0.47779968 11:0.20224361 12:-0.88376659 13:0.32213646 14:1.1307764 15:-0.023874465 16:0.9223147 17:-0.80786711 18:-0.86718744 19:0.15088288 20:-0.25309196 21:-1.596894 22:-0.78697842 23:-1.510949 24:0.5172174 25:-1.4647456 26:-0.55207968 27:-0.41307622 28:-1.0079505 29:0.016854065 30:-0.058697954 31:-0.034399349 32:-1.0416425 33:0.41075316 34:0.81969017 35:0.35323617 36:1.1244911 37:-0.28098848 38:-0.24923591 39:0.20871326 40:0.1986725 41:-0.3441565 42:-0.2785342 43:0.10139197 44:0.11196058 45:0.27015987 46:-0.24094439 47:-0.078733921 48:-0.32805887 49:0.025581963 50:-0.0038116053 51:0.29081509 52:0.068547443 53:0.64466673 54:0.50583422 55:0.35711536 56:0.030563382 57:0.50197816 58:0.52946103 59:-0.18454069 60:-0.63856828  |EV| 
-0.76261964082057986935581084253499  |BT| (ROOT (S (NP (NNP (Bosutinib)))(ADVP (RB (effectively)))(VP (VBZ (inhibits))(NP (NP (JJ (wild-type))(NNS (BCR-ABL)))(CC (and))(NP (ADJP (RBS (most))(JJ (imatinib-resistant)))(JJ (BCR-ABL))(NNS (mutations))))(PP (IN (except))(PP (IN (for))(NP (NNP (V299L))(CC (and))(NNP (T315I))))))(. (.)))) |ET|  |BV| 1:-1.4150195 2:-0.75379562 3:-0.30274698 4:0.41086516 5:0.87304497 6:-0.13760939 7:-0.1161086 8:0.54664403 9:0.4185783 10:-1.0666376 11:0.37693745 12:0.044920638 13:-0.58525449 14:1.8035409 15:-0.19468595 16:0.43577275 17:-0.24823987 18:-0.38447586 19:0.87542605 20:-0.57449919 21:-0.33851308 22:-1.7168829 23:0.14864606 24:-0.79962552 25:0.091452621 26:0.71990466 27:-0.19070913 28:1.004841 29:0.15158902 30:-0.040196452 31:-0.73503423 32:0.24747746 33:1.0172499 34:0.75858974 35:0.045884404 36:0.86002636 37:-0.5267238 38:0.35932794 39:0.27222681 40:-0.44760516 41:-0.36382547 42:-0.41348338 43:0.14345749 44:-0.148377 45:0.22420827 46:0.0034748192 47:-0.12785278 48:-0.28102565 49:0.17195584 50:0.44904375 51:0.066136934 52:0.048695061 53:-0.46924067 54:0.35670757 55:-0.11258142 56:-0.0038496205 57:0.37719911 58:0.36941379 59:-0.39937991 60:0.34766871  |EV| 
-0.73530013286055462273793636995833  |BT| (ROOT (FRAG (NP (NNP (CONCLUSION)))(: (:))(S (SBAR (IN (In))(NN (order))(S (VP (TO (to))(VP (VB (prevent))(NP (NN (rebound))(CC (or))(NN (relapse)))))))(, (,))(NP (JJ (various))(NNS (approaches)))(VP (VBP (are))(ADJP (JJ (available)))(, (,))(PP (VBG (including))(NP (JJ (cyclosporine))(, (,))(JJ (methotrexate))(CC (and))(JJ (biologic))(NNS (therapies))))))(. (.)))) |ET|  |BV| 1:0.024814399 2:-0.24871032 3:-0.10679194 4:-0.10794007 5:-0.59986538 6:-0.27684015 7:0.73448992 8:-0.19402602 9:-0.28890821 10:0.75778615 11:-0.25642815 12:-0.42810559 13:-0.66437232 14:-0.12065995 15:0.10851625 16:0.92460924 17:-0.29851535 18:-0.28599888 19:0.86515802 20:-0.39470315 21:0.22973515 22:0.19648084 23:0.55181855 24:0.1875837 25:0.38749653 26:0.022247471 27:0.38784403 28:-0.22101809 29:-0.2505368 30:0.63505775 31:-0.84504056 32:-0.38331211 33:-0.28157818 34:0.26864225 35:-0.5905841 36:0.14444742 37:0.25645807 38:-0.067241907 39:-0.22094773 40:-0.84235156 41:0.17405927 42:-0.20791538 43:0.18546791 44:0.12403602 45:0.27035078 46:-0.35232466 47:0.30350289 48:-0.31708738 49:0.19726326 50:0.11050511 51:0.29948801 52:0.050592054 53:-0.32458326 54:0.30495605 55:0.30676445 56:-0.087085158 57:0.20142482 58:-0.026089739 59:0.19592059 60:0.21563217  |EV| 
-1  |BT| (ROOT (S (NP (NP (NNP (Tiagabine)))(PRN (-LRB- (-LRB-))(NP (NNP (Gabitril)))(-RRB- (-RRB-))))(VP (VBZ (is))(NP (NP (DT (an))(JJ (anticonvulsive))(NN (drug)))(SBAR (WHNP (WDT (that)))(S (VP (VP (VBZ (binds))(ADVP (RB (selectively)))(PP (TO (to))(NP (NNP (GABA))(CD (transporter-1)))))(CC (and))(VP (ADVP (RB (thereby)))(VBZ (inhibits))(NP (NNP (GABA))(NN (uptake)))))))))(. (.)))) |ET|  |BV| 1:-0.83241612 2:-1.1449342 3:0.95080703 4:-1.0274135 5:0.22716926 6:-0.14663307 7:0.78738421 8:-0.55017918 9:2.0051949 10:-0.043764744 11:0.29244024 12:0.74981308 13:0.57963634 14:-0.47093388 15:0.61563385 16:-0.25871527 17:-0.69366622 18:-1.0949746 19:0.0025397066 20:0.61486751 21:-0.27307969 22:-0.63439894 23:0.67877787 24:-0.37401637 25:0.30667624 26:0.0076121525 27:0.36643663 28:0.4661926 29:0.9620142 30:-0.15649326 31:0.58691895 32:0.85801345 33:-0.23444062 34:-0.29673785 35:-0.33163401 36:0.12373613 37:-0.59513187 38:-1.4145489 39:0.45294952 40:0.48181862 41:0.13987552 42:-0.12864909 43:0.25546247 44:-0.28174827 45:-0.041111976 46:-0.32483268 47:-0.029574873 48:0.14357752 49:-0.061583485 50:0.24860196 51:0.01839046 52:0.12885794 53:0.30713049 54:-0.26737991 55:0.033892825 56:0.34236515 57:0.13177383 58:0.1335682 59:-0.26608232 60:-0.13616437  |EV| 
1  |BT| (ROOT (S (NP (NP (DT (The))(NN (attenuation)))(PP (IN (of))(NP (NP (JJ (mossy))(NN (fiber))(NN (LTP)))(PP (IN (by))(NP (JJ (tail))(NN (suspension)))))))(VP (VBD (was))(ADVP (RB (completely)))(VP (VBN (restored))(SBAR (WHADVP (WRB (when)))(S (NP (NNS (rats)))(VP (VBD (were))(VP (VBN (pretreated))(PP (IN (with))(NP (NN (clioquinol))(PRN (-LRB- (-LRB-))(NP (CD (30))(NN (mg/kg)))(-RRB- (-RRB-)))(S (VP (TO (to))(VP (VB (block))(NP (NP (DT (the))(NN (action)))(PP (IN (of))(NP (JJ (chelatable))(NN (zinc))))))))))))))))(. (.)))) |ET|  |BV| 1:-0.09793371 2:-0.60528225 3:-0.024483999 4:-0.40964469 5:0.93276751 6:-0.79760659 7:0.40149951 8:0.029675951 9:0.12886706 10:0.73275822 11:-0.0099219996 12:0.40133649 13:-0.091869988 14:-0.28844568 15:-0.39580074 16:-0.78840023 17:0.068280049 18:0.14598976 19:0.33837888 20:0.084088556 21:0.11782391 22:-0.11326382 23:-0.45559829 24:0.23644729 25:0.76049387 26:-0.59329844 27:0.54228014 28:0.41613418 29:0.040011354 30:-0.32132769 31:0.92303711 32:0.70906955 33:-0.073625803 34:0.061595749 35:0.56586367 36:0.75466645 37:-0.81484872 38:-0.17582589 39:0.64058375 40:-0.051477093 41:-0.44955367 42:-0.30030286 43:0.11882168 44:-0.45189169 45:0.010749685 46:-0.8219229 47:-0.029807638 48:-0.17772147 49:-0.25201723 50:0.24559647 51:0.016874924 52:0.083186172 53:0.3055582 54:-0.30730185 55:-0.28739202 56:-0.17966278 57:-0.56990087 58:0.10578173 59:-0.00016746538 60:0.014165998  |EV| 
1  |BT| (ROOT (S (NP (PRP (We)))(VP (VBD (found))(SBAR (IN (that))(S (NP (NN (memantine)))(VP (VBZ (blocks))(NP (NP (JJ (extrasynaptic))(JJ (NMDAR-mediated))(NNS (currents)))(VP (VBN (induced))(PP (IN (by))(NP (NP (NN (bath))(NN (application)))(PP (IN (of))(NP (CD (100))(JJ (microM))(NNP (NMDA/10))(NN (microM))(NN (glycine))))))(PP (IN (with))(NP (NP (DT (a))(ADJP (RB (twofold))(JJR (higher)))(NN (potency)))(PP (IN (than))(NP (NP (PRP$ (its))(NN (blockade)))(PP (IN (of))(NP (NP (DT (the))(JJ (NMDAR))(NN (component)))(PP (IN (of))(NP (NP (NP (JJ (evoked))(NNS (EPSCs)))(-LRB- (-LRB-))(NP (NNP (EPSCs)))(PRN (-LRB- (-LRB-))(NP (NNP (NMDAR)))(-RRB- (-RRB-)))(-RRB- (-RRB-)))(: (;))(S (NP (DT (this))(NN (effect)))(VP (VBZ (persists))(PP (IN (under))(NP (NP (NNS (conditions)))(PP (IN (of))(NP (JJ (pathological))(NN (depolarization))))))(PP (IN (in))(NP (NP (DT (the))(NN (presence)))(PP (IN (of))(NP (CD (1))(NN (mm))(NN (extracellular))(NNS (Mg))))))))))))))(PRN (-LRB- (-LRB-))(NP (QP (CD (2))(CD (+))))(-RRB- (-RRB-)))))))))))(. (.)))) |ET|  |BV| 1:0.037619635 2:-1.3707722 3:-0.78813481 4:0.11216474 5:-0.087420791 6:0.39344969 7:0.66902333 8:-0.39446059 9:0.6078822 10:1.2609564 11:0.59104782 12:0.5495742 13:-0.17848748 14:-0.89857042 15:-0.0059450157 16:0.21829332 17:-0.33531234 18:-0.43005264 19:0.40840954 20:-0.71890801 21:-1.219892 22:0.22954351 23:0.34183744 24:-0.32787293 25:-0.34051555 26:-0.81820977 27:1.0950845 28:0.30548695 29:0.53864843 30:-0.17523772 31:0.33607841 32:0.44189683 33:0.075850949 34:0.20910802 35:-1.0593969 36:0.53212762 37:-0.25781393 38:-0.43844366 39:1.098778 40:-0.21287422 41:-0.24275327 42:0.23940989 43:0.16326427 44:-0.68348515 45:-0.45819315 46:-0.7039308 47:0.064832881 48:-0.44956934 49:-0.080455489 50:-0.076916426 51:0.58827525 52:-0.026850931 53:0.30010059 54:-0.070069924 55:-0.47175941 56:0.3185094 57:-0.036001243 58:0.034302302 59:0.0715013 60:0.070368357  |EV| 
1  |BT| (ROOT (FRAG (NP (NNP (CONCLUSIONS)))(: (:))(S (NP (PRP$ (Our))(NNS (findings)))(ADVP (RB (further)))(VP (VP (VBP (support))(NP (DT (the))(NNS (hypothesis)))(SBAR (IN (that))(S (NP (NP (DT (the))(JJ (synergistic))(NN (effect)))(PP (IN (of))(NP (NP (NN (olanzapine))(CC (and))(NN (fluoxetine)))(PP (IN (on))(NP (NP (JJ (prefrontal))(JJ (cortical))(NNS (levels)))(PP (IN (of))(NP (NN (norepinephrine))(CC (and))(NN (dopamine)))))))))(VP (MD (might))(VP (VB (be))(NP (NP (DT (an))(VBG (underlying))(NN (mechanism)))(PP (IN (for))(NP (NP (DT (the))(NN (efficacy)))(PP (IN (of))(NP (NP (JJ (olanzapine-fluoxetine))(NN (combination)))(PP (IN (in))(NP (NP (DT (the))(NN (treatment)))(PP (IN (of))(NP (JJ (treatment-resistant))(NN (depression))))))))))))))))(CC (and))(VP (PRN (, (,))(SBAR (IN (if))(FRAG (ADJP (JJ (replicated)))))(, (,)))(MD (may))(VP (VB (form))(NP (NP (DT (a))(NN (basis)))(SBAR (WHPP (IN (on))(WHNP (WDT (which))))(S (NP (NP (NN (response)))(PP (TO (to))(NP (NP (JJ (olanzapine-fluoxetine))(NN (combination)))(PP (IN (versus))(NP (JJ (continued))(NN (fluoxetine)))))))(VP (MD (can))(VP (VB (be))(VP (VBN (predicted))(PP (VBN (based))(PP (IN (on))(NP (NP (NNS (variants)))(PP (IN (in))(NP (NNP (SLC6A2)))))))))))))))))(. (.)))) |ET|  |BV| 1:0.13194823 2:0.34916896 3:-0.7530095 4:-0.43338528 5:0.26798153 6:1.1201754 7:0.013825226 8:-0.61208022 9:0.21881662 10:0.5256815 11:0.8308621 12:1.0212096 13:0.50689417 14:0.013927326 15:-0.75837433 16:-0.09899047 17:0.54053074 18:-0.78683519 19:0.3812432 20:0.087259933 21:-0.18715255 22:0.066955015 23:-0.46771184 24:-0.07208021 25:1.0176843 26:-0.45238835 27:-0.38410947 28:-0.28686091 29:0.14154397 30:0.53410459 31:0.60740608 32:-0.097546875 33:0.41103497 34:0.25003383 35:0.22044036 36:0.19254863 37:-0.37296125 38:-0.78279614 39:0.89931923 40:-0.091693178 41:-0.18657164 42:0.18919772 43:-0.018889196 44:-0.015345511 45:0.45200348 46:-0.095505856 47:-0.35578388 48:0.32600135 49:-0.11797196 50:0.57004982 51:0.093005627 52:-0.31196856 53:-0.039651092 54:0.38389194 55:-0.14716217 56:0.20236784 57:-0.18913902 58:0.084636077 59:-0.10934187 60:-0.023350189  |EV| 
-1  |BT| (ROOT (S (NP (NP (DT (The))(NNS (pharmacokinetics))(CC (and))(NNS (pharmacodynamics)))(PP (IN (of))(NP (JJ (porcine))(NN (insulin))(NN (zinc))(NN (suspension)))))(VP (VBD (were))(VP (VP (VBN (studied))(PP (IN (in))(NP (NP (NP (CD (eight))(NNS (dogs)))(PP (IN (with))(NP (JJ (spontaneous))(NN (diabetes))(NNS (mellitus)))))(CC (and))(NP (NP (DT (a))(NN (lack)))(PP (IN (of))(NP (JJ (endogenous))(NN (insulin))))))))(, (,))(VP (VBN (demonstrated))(PP (IN (by))(NP (NP (DT (the))(NN (lack)))(PP (IN (of))(NP (NN (insulin))(NN (secretion))))))(PP (IN (after))(NP (NP (DT (an))(NN (injection)))(PP (IN (of))(NP (NN (glucagon)))))))(CC (and))(VP (VBN (confirmed))(PP (IN (by))(NP (NP (NN (measurement)))(PP (IN (of))(NP (NP (DT (the))(NN (concentration)))(PP (IN (of))(NP (NNP (C-peptide))))))))(PP (IN (during))(NP (DT (the))(JJ (pharmacokinetic))(NNS (assessments)))))))(. (.)))) |ET|  |BV| 1:0.20189296 2:0.27777377 3:-0.60384792 4:0.37231353 5:0.19332364 6:-0.32141238 7:0.44214949 8:0.12248313 9:0.49692559 10:0.21804628 11:0.72888732 12:0.6371491 13:-0.18561436 14:0.35771164 15:-0.11597318 16:0.55502707 17:-0.78332585 18:-0.25377184 19:0.27052855 20:-0.13939533 21:-1.4067736 22:0.40916508 23:-0.93048185 24:-0.90124398 25:-1.139022 26:-0.90997916 27:-0.1367933 28:-0.45856705 29:0.20126998 30:0.44320375 31:0.17076015 32:0.13942185 33:0.59822404 34:0.28471127 35:0.47598884 36:-0.066112466 37:-1.2346281 38:0.26826265 39:0.56514877 40:-0.93853712 41:-0.24873205 42:-0.37741387 43:-0.13749911 44:-0.16866711 45:-0.02013343 46:-0.26543555 47:-0.11520155 48:-0.60198617 49:-0.21114011 50:0.502029 51:-0.20637487 52:-0.65794069 53:-0.16405942 54:-0.16070814 55:-0.26654825 56:0.12435222 57:0.47522637 58:0.022032019 59:0.42957374 60:-0.0071422169  |EV| 
-0.63212225300481827972021164896432  |BT| (ROOT (S (PP (IN (In))(NP (NP (CD (one))(JJ (36-month))(NN (trial)))(PP (IN (of))(NP (NP (JJ (teriparatide))(NN (vs))(NN (alendronate)))(PP (IN (for))(NP (NP (NNP (GIOP)))(PP (IN (in))(NP (NNS (men))(CC (and))(NNS (women))))))))))(, (,))(NP (DT (the))(JJ (anabolic))(NN (agent)))(VP (VP (VBD (led))(PP (TO (to))(NP (NP (DT (a))(JJR (greater))(NN (increase)))(PP (IN (in))(NP (NN (bone))(NN (density)))))))(CC (and))(VP (VBD (was))(VP (VBN (associated))(PP (IN (with))(NP (NP (DT (a))(JJR (lower))(NN (incidence)))(PP (IN (of))(NP (JJ (morphologic))(JJ (vertebral))(NNS (fractures)))))))))(. (.)))) |ET|  |BV| 1:1.8555552 2:-1.2722206 3:-0.18031485 4:-0.79166538 5:-0.22769068 6:1.0953016 7:0.30920225 8:-0.21043386 9:0.39473754 10:0.42890215 11:0.5085026 12:0.30641097 13:1.6130884 14:0.42426801 15:-0.6740852 16:0.42879158 17:-0.2468079 18:-0.49778593 19:-0.23895197 20:-0.21471269 21:0.14559665 22:-0.96536797 23:-0.049320791 24:0.10797343 25:0.3003158 26:0.05989844 27:-0.20600575 28:-0.39199704 29:0.19992818 30:0.15507546 31:-0.0048865797 32:-0.33889413 33:0.55883229 34:-0.001611074 35:-0.50033373 36:-0.18548341 37:-0.46428102 38:-0.25024152 39:-0.046396352 40:-0.39793542 41:0.22779979 42:0.46281523 43:-0.13679771 44:0.27378795 45:0.13634209 46:0.070162185 47:0.0026049456 48:-0.30956495 49:-0.050599065 50:-0.0066138832 51:-0.036921434 52:-0.13931668 53:-0.062929444 54:0.18466379 55:0.16199456 56:-0.20060647 57:0.28610405 58:0.15790328 59:0.082400203 60:-0.14728466  |EV| 
-1  |BT| (ROOT (S (ADVP (RB (Interestingly)))(, (,))(NP (NP (DT (the))(NN (action)))(PP (IN (of))(NP (NN (amiodarone)))))(VP (VBZ (is))(ADJP (JJ (additive))(PP (IN (with))(NP (NP (DT (the))(NN (one)))(PP (IN (of))(NP (NP (NN (chloroquine)))(, (,))(NP (NP (DT (a))(VBN (known))(NN (inhibitor)))(PP (IN (of))(NP (NNP (ABC-transporters)))))))))))(. (.)))) |ET|  |BV| 1:-0.44465402 2:-0.32230401 3:-0.045599494 4:0.39940435 5:0.65570676 6:-0.75953043 7:-0.077495389 8:0.46600577 9:0.02426268 10:0.39012048 11:-1.4777908 12:0.13325724 13:0.47489363 14:0.99156183 15:-1.030862 16:0.12335151 17:-0.30270708 18:-0.059895068 19:-0.040842503 20:-0.3289873 21:-0.16469966 22:0.022516429 23:-0.73193413 24:0.045193154 25:0.4222194 26:0.036796849 27:0.2352435 28:-0.27031907 29:0.41419598 30:0.20313478 31:-0.29296407 32:-0.33279586 33:0.23716505 34:-0.20832293 35:-0.14375141 36:-0.043305229 37:-0.10976048 38:-0.43185729 39:0.685583 40:0.18347895 41:-0.10938887 42:-0.38245955 43:0.14321519 44:0.044857524 45:0.3669782 46:-0.29872188 47:0.23523457 48:0.17176935 49:0.098058701 50:0.28258982 51:0.40256479 52:0.017722167 53:-0.021063194 54:0.001281107 55:0.15073901 56:0.33263028 57:0.16956863 58:0.33415374 59:0.18496469 60:0.15551123  |EV| 
1  |BT| (ROOT (S (NP (NNP (Addition)))(VP (ADVP (IN (of)))(VBZ (L-NAME))(-LRB- (-LRB-))(NP (CD (10))))(. (?)))) |ET|  |BV| 1:-0.29991701 2:-0.32896069 3:-0.69324625 4:-1.0911616 5:0.35399058 6:-0.10250002 7:0.39163858 8:-0.35641289 9:0.19815752 10:0.13153271 11:0.585962 12:-0.79918879 13:-0.1041747 14:-0.49502534 15:0.46688238 16:0.2814571 17:-0.51942658 18:-0.21242213 19:-0.45488372 20:-0.35163856 21:-0.74559247 22:-0.92662257 23:-0.094804794 24:-1.0139915 25:-0.31690508 26:-0.21768261 27:0.49653453 28:0.90447181 29:0.071511663 30:-0.20202994 31:0.063019894 32:-0.83182251 33:-0.51941019 34:0.37375233 35:-0.06491974 36:-0.22771221 37:-0.74174893 38:-0.23774406 39:-0.24274755 40:-0.076648839 41:-0.5185281 42:-0.7219348 43:-0.26535568 44:-0.33659416 45:0.35703728 46:-0.56103665 47:-0.096939683 48:-0.013583369 49:-0.63936836 50:0.16969082 51:0.32175457 52:0.13346069 53:0.072000608 54:-0.037328582 55:0.0084037492 56:0.050877023 57:0.81833345 58:0.40231639 59:-0.10890339 60:0.091367833  |EV| 
1  |BT| (ROOT (S (NP (NP (NNP (Pretreatment)))(PP (IN (with))(NP (DT (the))(ADJP (ADJP (JJ (poly)))(PRN (-LRB- (-LRB-))(NP (NNP (ADP-ribose)))(-RRB- (-RRB-))))(NN (polymerase))(PRN (-LRB- (-LRB-))(NP (NNP (PARP)))(-RRB- (-RRB-)))(JJ (inhibitor))(NN (nicotinamide)))))(VP (VBD (was))(ADJP (JJ (able))(S (VP (TO (to))(VP (VB (prevent))(NP (CD (HCN2))(NN (cell))(NN (death))))))))(. (.)))) |ET|  |BV| 1:-1.1993157 2:0.053196605 3:0.1224883 4:-1.9055474 5:-0.92909217 6:-0.64883864 7:0.30231109 8:1.3207569 9:-0.42110953 10:-0.78424996 11:-0.56691229 12:-0.42819503 13:0.48882344 14:0.77929699 15:-0.079202443 16:0.58030307 17:-1.0447642 18:0.72934699 19:0.48482397 20:-1.1021204 21:-0.16018865 22:-0.20164067 23:0.48393661 24:-0.3548536 25:-0.29586497 26:-0.69610828 27:0.59243101 28:0.71105278 29:-0.2180766 30:-0.076776206 31:0.18077846 32:0.11973686 33:-0.23570934 34:1.1153556 35:-0.10737976 36:0.15242311 37:-0.40505868 38:0.15672459 39:-0.11915537 40:-0.34048092 41:-0.18662667 42:-0.46376848 43:0.062977754 44:-0.4639048 45:0.15059537 46:-0.092401959 47:0.25971705 48:0.0075230338 49:0.0033323055 50:-0.32721618 51:0.19921748 52:0.028093984 53:0.11199475 54:0.16654766 55:-0.083239749 56:0.34423569 57:0.61986649 58:0.013610451 59:-0.0072255651 60:-0.14489049  |EV| 
1  |BT| (ROOT (NP (NP (NNS (CONCLUSIONS)))(: (:))(S (NP (NNP (Celecoxib)))(VP (MD (can))(VP (VB (be))(VP (VBN (used))(ADVP (ADVP (RB (effectively)))(CC (and))(ADVP (RB (safely))))(S (VP (TO (to))(VP (VB (prevent))(NP (JJ (capecitabine-related))(NN (HFS))))))))))(. (.)))) |ET|  |BV| 1:-0.56679702 2:-0.62543494 3:-0.5860247 4:-0.072349876 5:0.2914542 6:0.039748844 7:0.12966907 8:-0.46064526 9:0.56549722 10:0.089931421 11:-0.20305611 12:0.38930008 13:0.12347036 14:-0.012362192 15:-0.31148207 16:0.74294347 17:0.21108854 18:-0.91415018 19:-0.47628018 20:-1.0190288 21:-0.32796666 22:-0.25613049 23:-0.52632725 24:0.24094534 25:-0.26407838 26:-0.0081087351 27:-0.25522965 28:-0.014294713 29:0.8821184 30:-0.31850836 31:-0.75686383 32:1.0172775 33:0.68566597 34:-0.8547563 35:-0.31067047 36:0.78766519 37:0.16948181 38:-1.0481271 39:-0.16115592 40:-0.68791288 41:-0.22668482 42:0.12565137 43:-0.1324587 44:0.0024048779 45:0.26116794 46:-0.24280791 47:-0.20895852 48:-0.51180321 49:-0.079732776 50:0.092892893 51:0.31995887 52:-0.010705335 53:-0.14677839 54:0.42625371 55:0.28632826 56:-0.25836739 57:0.35476696 58:-0.16922681 59:-0.16634247 60:-0.11811004  |EV| 
-1  |BT| (ROOT (S (NP (NN (Tobramycin))(CC (and))(NN (gentamicin)))(VP (MD (can))(ADVP (RB (safely)))(VP (VB (be))(VP (VBN (given))(PP (IN (by))(NP (JJ (slow))(NN (push)))))))(. (.)))) |ET|  |BV| 1:-0.90144736 2:-0.77357274 3:-0.98598629 4:0.32056946 5:0.56900829 6:-0.34711796 7:0.099613249 8:-0.91540295 9:-0.10529343 10:0.9992407 11:-1.3118937 12:0.25720066 13:-0.73304844 14:-0.50897765 15:-0.20677987 16:-0.022683533 17:-0.53631645 18:-0.83129674 19:-0.71905071 20:0.53638476 21:-0.22913231 22:-1.2405342 23:-0.30050904 24:-0.14356558 25:0.29575044 26:0.11060968 27:0.20454697 28:0.017117478 29:0.074474417 30:0.250958 31:-0.43201312 32:-0.99625641 33:-0.28138539 34:0.76117563 35:-0.12153184 36:-0.056398768 37:-0.64857173 38:-0.27979827 39:-0.59806585 40:0.59601575 41:-0.13940489 42:-0.13985452 43:-0.037979092 44:-0.085790396 45:0.016450102 46:-0.58741885 47:0.060406182 48:-0.28220025 49:0.08495187 50:0.093223758 51:0.14306502 52:0.085696876 53:0.00018746342 54:0.40823203 55:0.35357884 56:-0.25287384 57:0.26182187 58:-0.045700382 59:-0.43640217 60:-0.43985346  |EV| 
-1  |BT| (ROOT (S (NP (PRP (It)))(VP (VBD (was))(VP (VBN (concluded))(SBAR (SBAR (IN (that))(S (NP (DT (all))(NNS (protocols)))(VP (VBD (provided))(NP (JJ (adequate))(NN (analgesia))))))(CC (and))(SBAR (WHADVP (WRB (when)))(S (S (VP (VBN (used))(PP (IN (with))(NP (NN (midazolam-medetomidine-ketamine))))))(VP (VBP (are))(ADJP (JJ (effective))(PP (IN (for))(NP (JJ (routine))(JJ (feline))(NN (ovariohysterectomy)))))))))))(. (.)))) |ET|  |BV| 1:-0.11668429 2:-0.74165034 3:-1.0241296 4:-0.74730933 5:0.10768051 6:-0.027183697 7:-0.3724331 8:0.063145764 9:0.61295736 10:0.35496283 11:0.77447647 12:-0.23379371 13:0.25274378 14:-0.1552559 15:-0.41261145 16:0.58029056 17:0.033387862 18:0.43734667 19:-0.18863106 20:-0.29837921 21:-0.33319581 22:-0.9960075 23:-0.36023229 24:-0.92181027 25:0.70081371 26:0.13029915 27:-1.0233551 28:-0.3117902 29:-0.06793651 30:-0.072507545 31:0.083184622 32:-0.49804565 33:-0.0906666 34:-0.08099328 35:-0.43621778 36:0.82062733 37:-0.23244357 38:-0.10020839 39:0.24677145 40:-1.4766077 41:-0.54253477 42:-0.099288113 43:0.35640484 44:0.086138047 45:0.17721993 46:-0.15654343 47:-0.10916232 48:0.1159996 49:0.39309952 50:0.26952156 51:0.12959385 52:0.4050242 53:-0.15491019 54:0.25288731 55:-0.1877137 56:-0.47574008 57:0.037227448 58:0.02224724 59:-0.22766301 60:0.068437144  |EV| 
-0.9867169898572910602396746071463  |BT| (ROOT (S (NP (PRP (It)))(VP (MD (may))(VP (VB (be))(VP (VBN (concluded))(SBAR (IN (that))(S (NP (NP (CD (40))(NN (mg))(NN (enalapril)))(CC (or))(NP (CD (200))(NN (mg))(NN (losartan))))(VP (VBP (are))(RB (not))(ADJP (JJ (sufficient))(S (VP (TO (to))(VP (VB (reduce))(NP (NN (proteinuria))(CC (and))(NN (blood))(NN (pressure)))(ADVP (RB (significantly)))(PP (IN (in))(NP (NP (ADJP (NN (type))(CD (2)))(JJ (proteinuric))(NNS (diabetics)))(PP (IN (with))(NP (JJ (renal))(NN (dysfunction))))))))))(SBAR (IN (although))(S (NP (DT (both))(NNS (drugs)))(VP (VBD (were))(ADVP (RB (well)))(VP (VBN (tolerated))(PP (IN (at))(NP (JJ (high))(NNS (doses))))))))))))))(. (.)))) |ET|  |BV| 1:-0.44045794 2:-0.20210637 3:-0.66858321 4:-0.20488085 5:0.19160648 6:-0.085578531 7:-0.041856848 8:0.2172731 9:-0.22746991 10:0.76215541 11:-0.25301582 12:-0.95776105 13:0.62736779 14:0.17984417 15:-0.50206578 16:-0.37004891 17:-0.029559879 18:-0.37207043 19:0.013137033 20:-0.36919877 21:-0.11989374 22:0.02275284 23:0.096252784 24:-0.10840993 25:0.091117181 26:0.54770023 27:-0.28366002 28:0.15614185 29:-0.042302072 30:1.256332 31:0.33538967 32:-0.49246866 33:0.067063369 34:0.1227378 35:-0.69925517 36:0.54223621 37:-1.0732445 38:-0.16988181 39:-0.29746479 40:-0.29228118 41:-0.4951438 42:-0.016866246 43:0.27956626 44:0.040818717 45:-0.14349174 46:-0.01564648 47:-0.48963043 48:0.21600883 49:0.1900941 50:0.14878403 51:0.19369347 52:-0.16875175 53:0.15268704 54:0.24139041 55:0.51968884 56:-0.28463146 57:-0.23024626 58:0.48723248 59:-0.22559986 60:-0.13642505  |EV| 
1  |BT| (ROOT (FRAG (NP (NNP (RESULTS)))(: (:))(S (NP (NP (DT (The))(JJS (highest))(NN (dose)))(PP (IN (of))(NP (NP (NN (estradiol)))(PP (IN (in))(NP (NP (NN (combination)))(PP (IN (with))(NP (NN (progesterone)))))))))(VP (VBD (was))(VP (VBN (associated))(PP (PP (IN (with))(NP (DT (the))(ADJP (RBS (most))(JJ (pronounced)))(NN (symptom))(NN (recurrence))))(, (,))(CC (both))(PP (IN (in))(NP (NP (NN (comparison)))(PP (IN (with))(NP (NP (DT (a))(JJR (lower))(NN (dose)))(PP (IN (of))(NP (NN (estradiol))))))))(ADVP (RB (together))))(PP (IN (with))(NP (JJ (progesterone))(CC (and))(JJ (estradiol-only))(NN (treatment)))))))(. (.)))) |ET|  |BV| 1:-0.85465068 2:-0.1223867 3:0.039865397 4:-0.019043626 5:0.45820934 6:-0.23349798 7:-0.055019416 8:-0.62751144 9:0.28472161 10:0.22962189 11:0.65343541 12:0.033011775 13:0.56688863 14:0.29359838 15:0.41499624 16:0.37236989 17:-0.36746573 18:0.17696653 19:0.45934385 20:0.74600995 21:-0.70291984 22:0.10596521 23:0.40353924 24:-0.0082024643 25:0.51516557 26:-0.4248296 27:0.15003122 28:0.1239915 29:0.20275137 30:0.48732561 31:0.47781709 32:-0.14894189 33:0.51152009 34:0.33163288 35:-0.5908134 36:0.57499492 37:0.029747412 38:0.11391607 39:0.40241897 40:0.6374259 41:-0.054782338 42:0.008420324 43:-0.086031243 44:0.35578576 45:0.33762404 46:-0.059868045 47:-0.62654752 48:-0.12100456 49:-0.034663845 50:0.26551086 51:0.038700636 52:-0.22988118 53:0.26230201 54:0.20914651 55:-0.28321511 56:0.20418559 57:0.98321259 58:0.61721301 59:0.22644742 60:-0.17938238  |EV| 
1  |BT| (ROOT (FRAG (NP (NNP (CONCLUSIONS)))(: (:))(S (NP (NP (DT (The))(NN (addition)))(PP (IN (of))(NP (NP (NN (dexamethasone)))(PP (TO (to))(NP (NN (mepivacaine)))))))(VP (VP (VBZ (prolongs))(NP (NP (DT (the))(NN (duration)))(PP (IN (of))(NP (NN (analgesia))))))(CC (but))(VP (VBZ (does))(RB (not))(VP (VB (reduce))(NP (NP (DT (the))(NN (onset)))(PP (IN (of))(NP (NP (JJ (sensory))(CC (and))(NN (motor))(NN (blockade)))(PP (IN (after))(NP (JJ (ultrasound-guided))(NN (supraclavicular))(NN (block)))))))(PP (VBN (compared))(PP (IN (with))(NP (NN (mepivacaine)))(ADVP (RB (alone)))))))))(. (.)))) |ET|  |BV| 1:-0.10846969 2:-1.1248966 3:-2.2123501 4:-0.45427525 5:-0.0025391362 6:-0.71695 7:0.98120749 8:0.085808828 9:-0.018116614 10:0.24273001 11:0.28299728 12:0.87854862 13:0.55519456 14:-0.51021361 15:0.35845408 16:0.48307443 17:1.2435056 18:0.4753606 19:0.85673851 20:0.015080235 21:-0.37860355 22:-0.77694696 23:0.15381135 24:-0.30914474 25:0.1739258 26:-0.038748726 27:-0.1213993 28:-0.30365685 29:-0.37887204 30:0.97536069 31:-0.10927109 32:-0.26525721 33:0.15702246 34:-0.080765247 35:0.04058389 36:0.47821069 37:-0.2975603 38:-0.32002869 39:-0.079881735 40:0.0094199497 41:-0.0069700577 42:0.62894666 43:-0.11931515 44:-0.095916934 45:0.6696977 46:-0.52859932 47:-0.38847485 48:-0.2709077 49:-0.022042869 50:0.079710484 51:-0.27185559 52:-0.3044467 53:-0.33029908 54:-0.063711867 55:-0.30507949 56:0.09436854 57:0.46872929 58:-0.17002775 59:-0.27465081 60:0.083312295  |EV| 
0.95661466710521958489721328078303  |BT| (ROOT (S (S (NP (NP (CD (One))(NN (interpretation)))(PP (IN (of))(NP (DT (the))(NNS (findings)))))(VP (VBZ (is))(SBAR (IN (that))(S (NP (NN (caffeine)))(VP (VBZ (reduces))(NP (NP (DT (the))(NN (binding)))(PP (IN (of))(NP (NN (calcium)))))(PP (DT (both))(PP (IN (in))(NP (DT (the))(NN (membrane))))(CC (and))(PP (IN (in))(NP (DT (the))(NN (myoplasm))))))))))(: (;))(S (NP (DT (this)))(VP (VBZ (increases))(NP (NP (NP (DT (the))(`` (``))(NN (permeability))('' ('')))(PP (TO (to))(NP (NN (calcium)))))(CC (and))(NP (NP (DT (the))(JJ (ionic))(NN (activity)))(PP (IN (of))(NP (NP (NN (calcium)))(PP (IN (in))(NP (NN (muscle))))))))))(. (.)))) |ET|  |BV| 1:-0.76733154 2:0.2460794 3:-0.36372909 4:-0.26238525 5:-0.33067521 6:-0.33500141 7:-0.089534409 8:0.13414255 9:0.37700409 10:0.26008978 11:-0.075949982 12:-0.24670501 13:0.17961161 14:-0.15187471 15:-1.0580264 16:-0.25400683 17:-0.31937048 18:0.033552781 19:0.48308486 20:-0.69982004 21:-0.2271708 22:-0.49435622 23:-0.40642983 24:-0.10535501 25:-0.27241275 26:0.051554579 27:-0.072615057 28:-0.48675424 29:0.82784843 30:0.19380833 31:0.63382119 32:0.076453894 33:-0.12286576 34:-0.33363119 35:-0.37121943 36:-0.018839749 37:0.16713631 38:0.24557871 39:0.4215138 40:0.49096838 41:-0.11066132 42:0.0085656494 43:0.36054519 44:0.40146816 45:-0.28329161 46:-0.017671164 47:-0.31622526 48:0.061480086 49:0.048572283 50:0.37426037 51:-0.18462184 52:0.25033173 53:-0.040978748 54:-0.098860085 55:-0.082847297 56:0.17607558 57:-0.36613628 58:0.16977058 59:-0.75163603 60:-0.013338619  |EV| 
-1  |BT| (ROOT (FRAG (NP (NNP (CONCLUSION)))(: (:))(S (NP (NP (DT (Both)))(ADJP (JJ (atropine))(CC (and))(JJ (labetalol))))(VP (VBD (were))(ADJP (JJ (able))(S (VP (TO (to))(VP (VB (lower))(NP (NP (DT (the))(NN (frequency)))(PP (IN (of))(NP (NN (bradycardia)))))))))))(. (.)))) |ET|  |BV| 1:-0.67935634 2:-0.76576102 3:-0.22106758 4:-0.57372367 5:0.28197569 6:0.20814733 7:0.15986425 8:-0.027409209 9:0.26356155 10:0.089581832 11:0.42520076 12:-0.090538852 13:0.23981953 14:-0.41005591 15:-0.60331243 16:0.26125708 17:0.019843308 18:-0.055050366 19:-0.095602602 20:-0.014820319 21:-0.58098125 22:-0.40042359 23:-1.5038909 24:-0.86171508 25:-0.49340943 26:0.017316615 27:0.43960094 28:-0.049376938 29:0.36283317 30:0.74861336 31:0.4021062 32:-0.69954503 33:0.42344731 34:-0.44488522 35:-0.40955183 36:0.91399258 37:-0.059419192 38:0.32290283 39:0.011256274 40:-0.64895022 41:-0.33024085 42:0.095193006 43:0.13546225 44:0.10700334 45:-0.020409832 46:-0.27642927 47:-0.40872547 48:-0.34815118 49:0.047458958 50:-0.034340546 51:0.090304479 52:0.013966616 53:-0.33480132 54:-0.064863056 55:-0.24053223 56:-0.16270885 57:0.16170947 58:0.17324926 59:-0.15239599 60:-0.17294192  |EV| 
-1  |BT| (ROOT (S (NP (PRP$ (Our))(NNS (studies)))(ADVP (RB (further)))(VP (VBP (support))(NP (DT (the))(NN (notion)))(SBAR (SBAR (IN (that))(S (NP (NP (JJ (1-phenylpropane-1))(CD (,2)))(: (-))(NP (NP (NN (dione)))(CC (and))(NP (-LRB- (-LRB-))(NNP (S))(-RRB- (-RRB-))))(: (-)))(ADVP (RB (cathinone)))(VP (VBP (are))(NP (NP (JJ (biosynthetic))(NNS (precursors)))(PP (IN (of))(NP (NP (DT (the))(JJ (ephedrine))(NNS (alkaloids)))(PP (IN (in))(NP (NP (NNP (E.))(NNP (sinica)))(VP (VBZ (stems)))))))))))(CC (and))(SBAR (IN (that))(S (NP (NP (DT (the))(NN (activity)))(PP (IN (of))(NP (NP (-LRB- (-LRB-))(NNP (S))(-RRB- (-RRB-)))(: (-))(NP (JJ (cathinone))(NNS (reductases))))))(VP (VBZ (directs))(CC (and))(VBZ (determines))(NP (NP (DT (the))(JJ (stereochemical))(NN (branching)))(PP (IN (of))(NP (DT (the))(NN (pathway))))))))))(. (.)))) |ET|  |BV| 21:-1.108264 22:-0.6469155 23:-0.76749939 24:-0.76419538 25:0.58523953 26:0.084061302 27:0.76048017 28:0.22806706 29:-0.064313509 30:0.57709318 31:0.2053308 32:0.34237215 33:-0.79073209 34:0.2953113 35:-0.21772186 36:0.94173443 37:0.2466367 38:-0.031097014 39:-0.45997047 40:-0.41981825 41:-0.35839799 42:-0.06994307 43:0.079077519 44:0.19737177 45:-0.23435576 46:-0.01649498 47:0.033517227 48:-0.02881957 49:0.1992152 50:0.069139674 51:0.24089955 52:0.13287215 53:0.15652777 54:0.034178816 55:-0.47532448 56:0.3159157 57:-0.011261834 58:-0.26447919 59:0.40172455 60:-0.061112583  |EV| 
-1  |BT| (ROOT (S (PP (IN (After))(S (VP (VBG (having))(VP (VBN (experienced))(NP (DT (a))(JJ (significant))(NN (stress)))(PP (IN (on))(NP (DT (a))(NN (job))))))))(NP (DT (the))(NN (patient)))(VP (VBD (ingested))(NP (NP (JJ (huge))(NN (amount)))(PP (IN (of))(NP (NP (NN (pregabalin)))(PRN (-LRB- (-LRB-))(NP (QP (CD (4,2))(CD (r))))(-RRB- (-RRB-))))))(PP (ADVP (RB (together)))(IN (with))(NP (NP (NN (bromazepam)))(PRN (-LRB- (-LRB-))(NP (QP (CD (21))(CD (mg))))(-RRB- (-RRB-)))(CC (and))(NP (NN (chlorimipramine)))(PRN (-LRB- (-LRB-))(NP (QP (CD (125))(CD (mg))))(-RRB- (-RRB-))))))(. (.)))) |ET|  |BV| 1:-0.3715277 2:0.87690616 3:-0.67786133 4:-1.0895817 5:-0.32238093 6:-0.30310103 7:0.74545997 8:1.0689116 9:-0.084735177 10:-0.13898903 11:-0.45417902 12:1.5356567 13:-1.1514781 14:0.3972005 15:-0.16190478 16:0.024553267 17:-1.1329116 18:0.32390153 19:0.3422752 20:-0.23198044 21:-0.15756521 22:-0.73500854 23:0.27732077 24:-1.1033922 25:-0.84908271 26:0.099410497 27:0.61854541 28:1.0471468 29:-0.79155123 30:1.0137994 31:-0.1654882 32:1.7841874 33:-0.058538508 34:-0.20666136 35:0.24202348 36:0.050779529 37:-0.47508377 38:0.21666744 39:0.5929929 40:-0.34812191 41:-0.27601537 42:-0.008309924 43:-0.18264793 44:-0.086053051 45:0.19646661 46:0.1656806 47:0.096765384 48:0.44792366 49:-0.010487107 50:-0.45661753 51:0.11046581 52:0.48861441 53:0.10922129 54:-0.11300386 55:-0.073537484 56:-0.08435002 57:0.72861916 58:0.090702914 59:0.074953854 60:-0.16789076  |EV| 
1  |BT| (ROOT (S (ADVP (RB (Therefore)))(, (,))(NP (NNS (clinicians)))(VP (MD (should))(VP (VB (be))(ADJP (JJ (aware))(PP (IN (of))(NP (NP (DT (the))(ADJP (RB (potentially))(JJ (severe)))(JJ (adverse))(NNS (reactions)))(SBAR (WHNP (WDT (that)))(S (VP (MD (might))(VP (VB (occur))(PP (IN (during))(NP (JJ (concomitant))(NN (treatment))))(PP (IN (with))(NP (NN (fluvoxamine))(CC (and))(NN (topiramate)))))))))))))(. (.)))) |ET|  |BV| 1:-0.40733424 2:0.088755883 3:0.10718788 4:0.013866344 5:1.3555768 6:0.27399254 7:0.03464178 8:-0.6104272 9:0.8449223 10:1.2903489 11:-0.54146254 12:0.1041882 13:0.42105645 14:-0.415142 15:0.24828853 16:0.62464571 17:0.32119453 18:-0.5138095 19:0.29288891 20:0.75004053 21:-0.60522342 22:0.27817166 23:-0.90040553 24:-0.31354764 25:0.31086519 26:-0.032624342 27:-0.59054387 28:-0.83233339 29:1.3101377 30:0.5389362 31:0.28208524 32:0.10082465 33:1.5436033 34:0.41065362 35:0.59445727 36:0.13318267 37:0.30581635 38:-1.0496583 39:0.307877 40:0.63569981 41:0.033959888 42:0.027510187 43:0.32678607 44:0.22634886 45:0.2587229 46:-0.077155985 47:0.068695538 48:-0.2624152 49:0.17027704 50:0.05064458 51:0.1582194 52:-0.51965088 53:-0.40854359 54:0.26124856 55:0.27135313 56:0.064434551 57:0.5344246 58:0.24181905 59:0.085832022 60:0.21217079  |EV| 
1  |BT| (ROOT (S (NP (NNP (Adenosine))(NNP (A2A))(NN (receptor))(NNS (activation)))(VP (VBZ (reduces))(NP (NN (recurrence))(CC (and))(NN (mortality)))(PP (IN (from))(NP (NP (NNP (Clostridium))(NN (difficile))(NN (infection)))(PP (IN (in))(NP (NP (NNS (mice)))(PP (VBG (following))(NP (NN (vancomycin))(NN (treatment)))))))))(. (.)))) |ET|  |BV| 1:-0.29975867 2:-0.90835148 3:-0.35928813 4:-0.40498751 5:-0.070239365 6:-0.54183668 7:-0.41281372 8:0.56097722 9:-0.59817785 10:0.68011802 11:-1.0664285 12:-0.33847964 13:-0.050172817 14:1.0202811 15:-0.51219434 16:0.73061973 17:-0.31654057 18:-0.64519918 19:-0.52202326 20:0.20618306 21:-0.6597845 22:-0.31617564 23:0.6121586 24:-0.20507358 25:-0.38477787 26:0.017386394 27:1.0120741 28:0.55528861 29:0.72523844 30:0.13058755 31:0.55353308 32:-0.43569505 33:1.548465 34:0.40420932 35:-0.14122428 36:0.4070124 37:0.362838 38:-0.28290966 39:0.32303816 40:-0.16674691 41:0.060000814 42:-0.26570427 43:0.29985878 44:0.32654765 45:0.082037985 46:-0.042080514 47:-0.31069604 48:-0.058550201 49:-0.54371661 50:0.34423864 51:-0.19239713 52:0.069108181 53:0.18452632 54:0.065499023 55:0.12032666 56:0.072963931 57:0.38348359 58:0.28043589 59:-0.10032836 60:-0.055832706  |EV| 
1  |BT| (ROOT (S (NP (NP (NNS (Suggestions)))(PP (IN (for))(NP (JJ (clinical))(NNS (trials)))))(VP (VBP (are))(VP (VBN (provided))(PP (IN (for))(NP (NP (NP (JJ (oral))(JJ (high-dose))(NN (dextromethorphan)))(CC (and))(NP (NNP (Nuedexta))))(PRN (-LRB- (-LRB-))(NP (NP (NN (dextromethorphan)))(VP (VBN (combined))(PP (IN (with))(NP (NN (quinidine))))(S (VP (TO (to))(VP (VB (block))(NP (NN (metabolism)))(PP (TO (to))(NP (NN (dextrorphan)))))))(, (,))(S (ADVP (RB (thereby)))(VP (VBG (increasing))(NP (JJ (dextromethorphan))(NN (plasma))(NNS (concentrations)))))))(-RRB- (-RRB-)))))))(. (.)))) |ET|  |BV| 1:-1.1707729 2:0.012263766 3:-0.84103411 4:-0.76736891 5:0.44781983 6:-0.33082962 7:1.1540477 8:0.75352329 9:0.52853262 10:-0.61968285 11:-0.39778149 12:0.53033823 13:1.3973336 14:-1.0261741 15:0.025873467 16:0.64448971 17:0.70441997 18:-0.43234247 19:1.7754222 20:-0.80212051 21:-1.0970409 22:0.2492929 23:-0.47835976 24:-0.75830764 25:0.21095426 26:-0.51516789 27:0.80864805 28:-0.71112651 29:0.26558745 30:0.61124283 31:0.57490146 32:-0.90374875 33:0.90670896 34:-0.12755761 35:-0.79162866 36:-0.15326242 37:0.75029796 38:-0.83412212 39:0.7489388 40:-0.039337046 41:0.25539193 42:-0.26039508 43:0.009961904 44:-0.085021324 45:0.019663984 46:0.077245846 47:-0.38111502 48:-0.58264321 49:0.089632101 50:-0.21255884 51:-0.070178941 52:-0.11987563 53:-0.0622679 54:-0.16256726 55:0.39346334 56:0.42196533 57:-0.33701015 58:0.02348353 59:0.031497933 60:0.00622425  |EV| 
-1  |BT| (ROOT (NP (NP (NNP (CONCLUSION)))(: (:))(NP (NP (NNP (Exposure)))(PP (TO (to))(NP (NP (NP (NN (ethanol)))(PP (IN (during))(NP (NN (pregnancy))(NNS (increases))(NNP (IGF-I))(CC (and))(NNP (IGF-II)))))(CC (and))(NP (NP (NNS (decreases)))(VP (VBN (leptin))(PP (IN (during))(NP (JJ (early))(NN (childhood)))))))))(. (.)))) |ET|  |BV| 1:-1.1923358 2:0.36651093 3:0.14956017 4:-0.25442144 5:-0.74738133 6:0.29904133 7:0.63527578 8:0.27886191 9:0.45418373 10:0.062229525 11:0.63828611 12:-0.17143264 13:0.40124375 14:0.10097073 15:0.77508128 16:-0.08437378 17:-1.0932121 18:0.10228246 19:1.0465006 20:-0.54566127 21:-0.18262425 22:-0.27455565 23:-0.63187039 24:-0.20303082 25:-0.49805775 26:-0.36358526 27:-0.67585135 28:-0.18507487 29:0.57143605 30:-0.13132448 31:0.033105545 32:0.39477274 33:0.01403023 34:-0.085290499 35:0.069696143 36:0.078646556 37:-0.2542069 38:-0.099925838 39:0.45036244 40:0.57571846 41:-0.055515446 42:-0.080653176 43:-0.070444487 44:0.22189337 45:0.13441584 46:0.095493071 47:0.12557183 48:-0.69311935 49:-0.11840862 50:0.16673094 51:0.16080832 52:0.23540422 53:0.26769853 54:0.20856482 55:0.022768565 56:0.3142567 57:0.6107133 58:0.19407818 59:-0.12783302 60:0.14827177  |EV| 
-1  |BT| (ROOT (S (NP (NP (NP (NNS (Studies)))(PP (IN (of))(NP (NP (VBN (combined))(NN (therapy)))(PP (IN (with))(NP (NN (pemetrexed)))))))(, (,))(CC (and))(NP (NP (NN (bevacizumab)))(PP (IN (beyond))(NP (NN (progression)))))(, (,)))(VP (VBP (are))(ADJP (JJ (ongoing))))(. (.)))) |ET|  |BV| 1:-1.3908824 2:-0.11869227 3:0.231677 4:0.20158879 5:0.51931131 6:0.15928105 7:-0.94721961 8:-0.71603251 9:0.53037298 10:0.30137166 11:-1.0751276 12:0.034899134 13:0.29326963 14:0.06090232 15:-0.11565398 16:0.021296026 17:0.44529137 18:-0.70981979 19:-0.15477675 20:-1.3002903 21:-1.2117177 22:-0.36075294 23:0.064280353 24:-0.16516033 25:0.2985073 26:-0.075363375 27:0.017898917 28:-0.7093007 29:0.69164449 30:0.64934754 31:-1.8740338 32:-0.71959877 33:1.7490357 34:-0.78083962 35:-0.57003623 36:1.059317 37:0.36552858 38:-0.48745784 39:0.57645863 40:-1.8443197 41:0.10336014 42:0.11610208 43:-0.12481127 44:0.21785234 45:-0.060024712 46:-0.078616686 47:-0.1064215 48:-0.18285896 49:0.29520079 50:0.21553503 51:0.39706475 52:0.045637619 53:0.073875763 54:-0.042854551 55:0.40837374 56:-0.060209844 57:0.16769862 58:0.05472903 59:0.21526819 60:-0.52857339  |EV| 
-1  |BT| (ROOT (FRAG (NP (NNP (CONCLUSION)))(: (:))(S (NP (NNP (Exenatide)))(VP (MD (can))(VP (VB (reduce))(NP (JJ (glycemic))(NN (variability)))(PP (VBN (compared))(PP (IN (with))(NP (NN (glimepiride)))))(, (,))(S (VP (VBG (providing))(NP (NP (JJ (additional))(JJ (beneficial))(NNS (effects)))(PP (IN (in))(NP (VBG (controlling))(NN (glucose))(NNS (homeostasis))))))))))(. (.)))) |ET|  |BV| 1:-0.93116724 2:0.16165628 3:-0.29050761 4:0.41528583 5:0.9210614 6:0.96246243 7:-0.45994931 8:-0.49726835 9:0.5069015 10:1.0611229 11:0.89072293 12:1.0179569 13:0.63718492 14:-0.57090878 15:-0.45598295 16:0.94798738 17:-0.31631407 18:0.37501788 19:-0.19825248 20:0.23595335 21:-0.81246877 22:0.21673532 23:-0.84179485 24:-0.22898389 25:0.069351196 26:0.11475291 27:-0.43084851 28:-0.72749895 29:-0.44754124 30:1.1456863 31:0.49666786 32:0.32925326 33:0.086216025 34:0.7848776 35:-0.070442803 36:1.7741995 37:-0.4424713 38:-0.19110917 39:-0.51957941 40:-0.075366549 41:-0.11285566 42:0.33559066 43:0.31283709 44:-0.093589649 45:0.060787041 46:-0.013190156 47:0.054832309 48:-0.85783446 49:0.038858727 50:-0.02937685 51:0.26014236 52:0.1090735 53:-0.091011293 54:-0.056013148 55:-0.099395066 56:0.46729338 57:0.30824614 58:0.16248286 59:0.2276943 60:0.404715  |EV| 
1  |BT| (ROOT (S (NP (NP (NN (Darifenacin))(, (,))(NN (oxybutynin))(, (,))(NN (tolterodine))(, (,))(CC (and))(NN (solifenacin)))(PRN (-LRB- (-LRB-))(NP (QP (CD (1))(CD (M))))(-RRB- (-RRB-))))(ADVP (RB (all))(RB (significantly)))(VP (VBD (depressed))(NP (DT (the))(NN (frequency))(NNS (responses)))(PP (TO (to))(NP (NP (NN (carbachol)))(PRN (-LRB- (-LRB-))(NP (QP (CD (1))(CD (M))))(-RRB- (-RRB-))))))(. (.)))) |ET|  |BV| 1:-0.96398121 2:-0.72986817 3:0.78382325 4:-0.23221229 5:-0.74379468 6:0.24420521 7:0.19699882 8:0.51081872 9:0.50388843 10:-0.3647604 11:0.34553966 12:-0.4490515 13:0.22615537 14:0.035029516 15:-0.70427251 16:0.34291399 17:-0.75787491 18:-0.66681296 19:0.059181526 20:-1.1488304 21:-0.65054059 22:-0.21124956 23:0.17133197 24:-0.061776195 25:-0.37753147 26:-0.6811325 27:0.42972559 28:-0.13692035 29:0.10174469 30:-0.54913765 31:0.49487802 32:-0.135359 33:-0.27002528 34:-0.52904797 35:-0.31652325 36:0.14843516 37:0.20821591 38:0.50349724 39:0.40614331 40:0.028209951 41:-0.46176362 42:0.22227135 43:-0.26102078 44:-0.22920193 45:0.33080167 46:-0.10427046 47:-0.11518118 48:-0.062471207 49:-0.30371645 50:0.15643853 51:0.74717689 52:0.003257195 53:0.11749375 54:-0.23312649 55:-0.39839873 56:0.11162661 57:0.53589153 58:0.10688544 59:0.21737665 60:-0.38508812  |EV| 
1  |BT| (ROOT (S (NP (NNP (Naltrexone)))(VP (VBD (was))(VP (VBN (given))(S (VP (TO (to))(VP (VB (block))(NP (NP (DT (the))(JJ (opioid))(NNS (effects)))(PP (IN (of))(NP (NN (fentanyl))))))))))(. (.)))) |ET|  |BV| 1:-0.27463067 2:-0.91500187 3:-0.21062799 4:-0.80729401 5:0.75264245 6:-0.25265709 7:0.50812238 8:0.20771764 9:0.71180749 10:0.92224193 11:0.66304022 12:0.29768577 13:0.93442696 14:-0.63969117 15:-0.16151166 16:0.83217007 17:-0.069254249 18:-0.27093816 19:0.50270307 20:-0.37011161 21:-0.5965603 22:-0.60173035 23:-0.5637145 24:-0.742405 25:0.11047246 26:-0.63334364 27:-0.39095229 28:-0.11231483 29:0.08078523 30:0.339479 31:0.24232866 32:-0.4889521 33:0.044322167 34:-0.77776569 35:-0.32153225 36:0.4958865 37:0.6283139 38:-0.012034352 39:-0.66721821 40:-1.0869571 41:0.042391594 42:-0.087760322 43:0.21589287 44:-0.41139197 45:0.39889482 46:-0.0051261294 47:0.20188522 48:-0.16193476 49:-0.25689802 50:0.11044021 51:-0.16737477 52:0.14578173 53:0.034244936 54:0.060563523 55:-0.15279594 56:-0.013212064 57:-0.074377649 58:-0.049110953 59:-0.17898455 60:0.091567568  |EV| 
0.68776771135348269137210763801704  |BT| (ROOT (S (SBAR (IN (As))(S (NP (DT (the))(NN (TOFR)))(VP (VBD (was))(NP (NP (CD (1.44)))(SBAR (WHADVP (WRB (when)))(S (NP (DT (the))(NN (surgery)))(VP (VBD (completed)))))))))(, (,))(NP (DT (the))(NN (trachea)))(VP (VBD (was))(VP (VBN (extubated))(PP (IN (without))(S (VP (VBG (giving))(ADJP (JJ (neostigmine))(S (VP (TO (to))(VP (VB (antagonize))(NP (NP (DT (the))(NN (effect)))(PP (IN (of))(NP (NN (vecuronium))))))))))))))(. (.)))) |ET|  |BV| 1:-0.73282301 2:-0.62496716 3:-0.55196631 4:-0.59960639 5:0.041034617 6:-0.34943715 7:0.12115459 8:0.74872983 9:0.71173537 10:-0.54305732 11:0.92430598 12:-0.20378846 13:0.71527505 14:-0.89005417 15:-1.0758097 16:1.0591766 17:-0.083953075 18:0.84651631 19:-0.49481836 20:-0.20741776 21:-0.68614113 22:-0.65829486 23:-0.00013987023 24:-0.69458354 25:0.96579355 26:-0.39681914 27:0.070516728 28:0.88442427 29:2.4594264 30:0.64080501 31:-0.21193583 32:0.46229142 33:-0.40535548 34:-1.1348872 35:-0.20699725 36:0.71404099 37:0.092942588 38:1.1456379 39:0.64754295 40:0.24682903 41:-0.39083207 42:0.25195426 43:0.088800497 44:-0.087418184 45:0.35853833 46:0.13507693 47:-0.085344456 48:-0.06275928 49:-0.059664588 50:0.45961237 51:0.08794494 52:0.11617428 53:-0.28607452 54:-0.26028624 55:-0.46931139 56:-0.28569847 57:0.084914111 58:-0.12482747 59:-0.0028960989 60:-0.42502385  |EV| 
-1  |BT| (ROOT (S (PP (IN (During))(NP (NP (DT (the))(NN (period)))(PP (IN (of))(NP (NN (retention))))))(NP (NP (DT (the))(NN (chlorine))(NN (content)))(PP (IN (of))(NP (DT (the))(NN (blood)))))(VP (VBZ (is))(ADJP (RB (distinctly))(JJR (lower)))(SBAR (IN (than))(S (S (ADVP (RB (normally)))(, (,))(NP (DT (the))(NN (calcium))(NN (content)))(VP (VBZ (is))(ADVP (RB (apparently)))(ADJP (RB (slightly))(JJR (lower)))))(, (,))(CC (and))(S (NP (DT (the))(NN (magnesium))(NN (content)))(VP (VBZ (tends))(ADVP (RB (also)))(S (VP (TO (to))(VP (VB (be))(ADJP (NP (DT (a))(RB (little)))(JJR (lower)))))))))))(. (.)))) |ET|  |BV| 1:-0.76733154 2:0.2460794 3:-0.36372909 4:-0.26238525 5:-0.33067521 6:-0.33500141 7:-0.089534409 8:0.13414255 9:0.37700409 10:0.26008978 11:-0.075949982 12:-0.24670501 13:0.17961161 14:-0.15187471 15:-1.0580264 16:-0.25400683 17:-0.31937048 18:0.033552781 19:0.48308486 20:-0.69982004 21:-0.69870472 22:-0.24796677 23:-0.81360668 24:-0.010563116 25:0.23021409 26:-0.49103528 27:-0.12774047 28:0.32772008 29:-0.10109277 30:0.37758282 31:-0.10246789 32:-0.17838542 33:-0.41387382 34:-0.30004424 35:-0.10441614 36:0.11705339 37:-0.5140717 38:0.68735868 39:0.66774976 40:-0.36981764 41:-0.33053035 42:0.32286009 43:-0.31099394 44:-0.041827079 45:-0.089347117 46:0.24733691 47:-0.19805221 48:-0.01455935 49:0.14183567 50:-0.12761287 51:0.18701932 52:-0.47131419 53:0.40048292 54:-0.44303295 55:0.38636225 56:0.11848532 57:0.25722757 58:0.085567869 59:0.30996332 60:0.12313284  |EV| 
-1  |BT| (ROOT (S (NP (PRP (We)))(VP (VBD (found))(SBAR (IN (that))(S (NP (DT (the))(JJ (antihypertensive))(NN (drug))(NN (Prazosin)))(VP (VBZ (inhibits))(NP (JJ (endocytic))(VBG (sorting)))(PP (IN (by))(NP (NP (DT (an))(JJ (off-target))(NN (perturbation)))(PP (IN (of))(NP (NP (NP (DT (the))(NNP (G))(JJ (protein-coupled))(NN (receptor))(NN (dopamine))(NN (receptor))(NNP (D)))(PRN (-LRB- (-LRB-))(NP (CD (3)))(-RRB- (-RRB-))))(PRN (-LRB- (-LRB-))(NP (NNP (DRD3)))(-RRB- (-RRB-)))))))))))(. (.)))) |ET|  |BV| 1:-0.14506224 2:-0.28481072 3:-0.59362674 4:-0.25439376 5:0.38625631 6:-0.046137732 7:-0.35386601 8:0.65320385 9:-0.16809134 10:0.57964814 11:0.1303789 12:-0.61583757 13:0.31949565 14:0.45095748 15:-0.93978143 16:0.63066709 17:0.063957803 18:-0.89659083 19:0.36688527 20:-0.13719878 21:-0.52288628 22:0.064634569 23:0.43291721 24:-0.5993492 25:0.067319103 26:-0.54065132 27:0.75569421 28:0.22499478 29:0.7509374 30:0.50299102 31:0.66871351 32:-0.46396655 33:0.70376694 34:0.35963044 35:0.027474603 36:0.40848967 37:0.32412928 38:-0.051923949 39:0.47423962 40:0.30214891 41:-0.082409658 42:-0.15337348 43:0.12433288 44:0.019588588 45:0.12490033 46:-0.20622849 47:-0.27082387 48:-0.16096747 49:-0.17234598 50:0.13388297 51:0.34869686 52:-0.39368239 53:0.12837291 54:-0.28345147 55:-0.074015379 56:0.18608488 57:0.29153109 58:0.25861481 59:0.11662579 60:-0.46507797  |EV| 
-1  |BT| (ROOT (S (PP (IN (On))(NP (DT (the))(JJ (seventh))(NN (postoperative))(NN (day))))(, (,))(NP (NP (DT (the))(NNS (amplitudes)))(PP (IN (of))(NP (DT (the))(NNP (ERG))(NNS (b-waves)))))(VP (VBD (were))(ADJP (ADJP (RB (significantly))(JJR (lower)))(PP (IN (in))(NP (DT (the))(NN (vehicle))(NN (group)))))(PP (IN (than))(IN (in))(NP (NP (DT (the))(NNS (groups)))(VP (VBN (pretreated))(PP (IN (with))(NP (NN (captopril))(CC (or))(NN (candesartan))))))))(. (.)))) |ET|  |BV| 1:-0.38540238 2:-0.029400405 3:-0.011971226 4:-0.46540889 5:-0.014149606 6:-0.061438378 7:-0.64122146 8:0.0075905132 9:0.17704339 10:0.59466285 11:-0.15140823 12:-0.85643876 13:-0.11542233 14:0.19611438 15:-1.1484331 16:-0.5874536 17:-0.36097178 18:-0.0859688 19:-0.069137 20:-0.47890177 21:-0.23110723 22:-1.7506665 23:0.98535472 24:-0.02434249 25:-0.65138614 26:0.09895923 27:-0.30374384 28:-0.28374431 29:-0.38876918 30:0.87318093 31:-0.032878403 32:-0.62267059 33:0.74707758 34:0.74080104 35:-0.65818441 36:-0.60471076 37:-0.78161919 38:0.47585368 39:-0.29289764 40:-0.58492202 41:-0.16998658 42:-0.059208658 43:0.17626646 44:-0.17418414 45:0.2940405 46:0.074455582 47:-0.33273157 48:-0.25629267 49:0.24928108 50:-0.11851276 51:0.02406328 52:-0.084605463 53:0.20529212 54:-0.10385428 55:-0.021631127 56:-0.51458961 57:0.2339794 58:-0.041426707 59:-0.022182839 60:0.064581431  |EV| 
1  |BT| (ROOT (FRAG (NP (NNP (CONCLUSION)))(: (:))(S (NP (NP (JJ (Intraoperative))(NN (reversal)))(PP (IN (of))(NP (NP (JJ (shallow))(JJ (rocuronium-induced))(NN (block)))(PP (IN (with))(NP (DT (either))(NN (sugammadex))(CC (or))(NN (neostigmine)))))))(VP (VBZ (is))(NP (DT (an))(JJ (efficient))(NN (method)))))(. (.)))) |ET|  |BV| 1:-0.73282301 2:-0.62496716 3:-0.55196631 4:-0.59960639 5:0.041034617 6:-0.34943715 7:0.12115459 8:0.74872983 9:0.71173537 10:-0.54305732 11:0.92430598 12:-0.20378846 13:0.71527505 14:-0.89005417 15:-1.0758097 16:1.0591766 17:-0.083953075 18:0.84651631 19:-0.49481836 20:-0.20741776 21:-0.28035849 22:-0.66492361 23:-1.4868039 24:-1.2775159 25:-0.9833383 26:-0.078630149 27:-0.38102743 28:0.35317224 29:0.38730726 30:1.2455752 31:-1.1416824 32:1.3641849 33:-0.38747263 34:-0.81455058 35:1.2371266 36:0.32304311 37:-0.10055397 38:0.55439442 39:-0.33715427 40:0.62531954 41:-0.1911501 42:-0.064142168 43:0.080318287 44:0.12172906 45:-0.0679444 46:-0.38642785 47:-0.075485706 48:-0.39173815 49:0.082309857 50:0.20881766 51:-0.16660972 52:0.054589316 53:-0.11797197 54:-0.20701867 55:-0.43976885 56:-0.010314 57:0.05650153 58:-0.13493067 59:-0.6235109 60:0.018977882  |EV| 
1  |BT| (ROOT (S (PP (IN (In))(NP (NN (contrast))))(, (,))(NP (NP (JJR (higher))(JJ (systemic))(NN (progestin))(NNS (levels)))(VP (VBN (associated))(PP (IN (with))(NP (NP (DT (the))(NN (use)))(PP (IN (of))(NP (NN (depot))))))))(VP (VBP (medroxyprogesterone))(S (NP (NN (acetate))(CC (and))(NN (combination))(JJ (oral))(NNS (contraceptives)))(VP (VP (VB (suppress))(NP (JJ (ovarian))(JJ (estradiol))(NN (production))))(CC (and))(VP (VB (reduce))(NP (NP (NN (acquisition)))(PP (IN (of))(NP (NNP (BMD)))))(PP (IN (in))(NP (NP (NNS (teenagers)))(CC (and))(NP (NP (JJ (young))(NN (adult))(NNS (women)))(SBAR (WHNP (WP (who)))(S (VP (VBP (use))(NP (JJ (injectable))(CC (and))(JJ (oral))(NNS (contraceptives)))))))))))))(. (.)))) |ET|  |BV| 1:0.0075069615 2:-0.76159483 3:0.0072029829 4:0.21510205 5:1.5778799 6:0.032157119 7:-0.08121945 8:-0.9997527 9:-0.40311038 10:0.012075305 11:0.51479554 12:0.48672074 13:-0.51028436 14:-0.29528299 15:0.15372056 16:1.025586 17:-0.77464366 18:-0.38708535 19:1.0757443 20:0.63239014 21:-0.85465068 22:-0.1223867 23:0.039865397 24:-0.019043626 25:0.45820934 26:-0.23349798 27:-0.055019416 28:-0.62751144 29:0.28472161 30:0.22962189 31:0.65343541 32:0.033011775 33:0.56688863 34:0.29359838 35:0.41499624 36:0.37236989 37:-0.36746573 38:0.17696653 39:0.45934385 40:0.74600995 41:-0.26126534 42:-0.16405618 43:-0.31750327 44:0.041268915 45:0.25356588 46:0.11393085 47:-0.43540379 48:-0.15843214 49:-0.095958613 50:0.12409505 51:-0.24023718 52:0.19074287 53:-0.2754091 54:-0.45372441 55:0.24797782 56:0.4879556 57:0.66895187 58:-0.083837099 59:0.076331407 60:-0.60232747  |EV| 
1  |BT| (ROOT (NP (NP (NNP (CONCLUSIONS))(CC (AND))(NNP (CLINICAL))(NNP (RELEVANCE)))(: (:))(S (NP (NNS (Results)))(VP (VBD (indicated))(SBAR (S (NP (NNP (GFR)))(VP (VBD (decreased))(PP (IN (after))(NP (NP (CD (8))(NNS (days)))(PP (IN (of))(NP (NP (NP (JJ (concurrent))(NN (administration)))(PP (IN (of))(NP (NN (furosemide))(CC (and))(NN (carprofen)))))(CC (or))(ADJP (JJ (furosemide))(CC (and))(JJ (etodolac)))))))(PP (TO (to))(NP (NNS (dogs)))))))))(. (.)))) |ET|  |BV| 1:-0.35126665 2:-0.35966042 3:-1.2996027 4:0.3386966 5:0.57237959 6:-0.4551442 7:0.61909175 8:-0.39228794 9:-0.39884531 10:0.13205177 11:0.36984587 12:-0.12144778 13:0.32529017 14:-1.1934534 15:-0.072098196 16:-0.35082138 17:-0.55683655 18:-0.31578785 19:0.44719502 20:-0.57014626 21:-0.48421079 22:-1.12875 23:-2.0836501 24:0.35519877 25:0.39339939 26:0.15301745 27:0.23268715 28:-1.1000104 29:0.20585585 30:-0.054519765 31:0.70638853 32:-0.60043603 33:-0.184725 34:-1.0133271 35:-0.40158907 36:-0.65332186 37:0.25478646 38:-0.44143197 39:-0.0095129134 40:-0.51650977 41:-0.13787584 42:0.22905584 43:0.11288229 44:0.26910439 45:-0.012605 46:-0.13184425 47:-0.19608331 48:-0.19864675 49:-0.34608155 50:0.47461173 51:0.15770796 52:-0.27253968 53:0.18563646 54:0.085415475 55:0.048456632 56:-0.093080647 57:-0.24917749 58:0.16052054 59:-0.79285282 60:-0.082639083  |EV| 
-1  |BT| (ROOT (S (ADVP (RB (Thus)))(, (,))(NP (NP (DT (the))(NN (administration)))(PP (IN (of))(NP (NP (NN (tenofovir-emtricitabine)))(PP (IN (for))(NP (NP (QP (IN (at))(JJS (least))(CD (3)))(NNS (weeks)))(PP (IN (after))(NP (NN (delivery)))))))))(VP (MD (should))(VP (VB (be))(VP (VBN (considered))(S (VP (TO (to))(VP (VB (prevent))(NP (NP (DT (the))(NN (emergence)))(PP (IN (of))(NP (ADJP (JJ (resistant)))(NNS (viruses)))))))))))(. (.)))) |ET|  |BV| 21:0.1779982 22:-0.27787179 23:0.30854255 24:0.62476873 25:-0.30178851 26:-0.72277117 27:-0.20537347 28:-0.059938192 29:0.11513255 30:0.025801292 31:-1.0807257 32:0.31774664 33:-0.16543099 34:1.414973 35:-0.72933728 36:-0.079194382 37:-0.81688738 38:-0.25846809 39:0.31218413 40:-0.18701985 41:-0.037113633 42:-0.089855231 43:-0.31068224 44:0.0015581683 45:0.06181572 46:-0.47191155 47:-0.28859434 48:-0.64450157 49:-0.11683331 50:0.43316478 51:0.27864674 52:0.59716046 53:-0.028225392 54:-0.15025483 55:0.30855858 56:0.059578165 57:0.51985157 58:0.015887072 59:-0.10807843 60:-0.32809609  |EV| 
-1  |BT| (ROOT (FRAG (NP (NNP (TAKE))(NNP (HOME))(NNP (MESSAGE)))(: (:))(S (NP (NP (DT (The))(JJ (triple))(NN (combination))(NN (therapy)))(PP (IN (of))(NP (NN (simvastatin/ER))(NN (niacin/laropiprant)))))(VP (MD (may))(VP (VP (VB (reduce))(NP (JJ (flushing))(NN (side))(NNS (effects))))(CC (and))(VP (VB (facilitate))(NP (NP (DT (a))(ADJP (RBR (more))(JJ (comprehensive)))(NN (treatment)))(PP (IN (for))(NP (NNS (patients)))))(PP (IN (with))(NP (VBN (mixed))(NN (dyslipidemia))))))))(. (.)))) |ET|  |BV| 1:1.1755447 2:-1.6775537 3:-1.1906594 4:0.61045361 5:0.70769036 6:-0.031282343 7:0.94075429 8:-0.33137652 9:0.78358227 10:0.53738695 11:-0.15538402 12:1.1314317 13:0.17060195 14:-0.69844198 15:-0.82150435 16:1.1374702 17:-0.57808673 18:-0.068459444 19:1.4661564 20:0.54127604 21:-0.12533671 22:-0.15019466 23:-0.21028246 24:0.47810677 25:0.60104865 26:-0.29292217 27:-0.027071103 28:-0.054589707 29:-0.12048685 30:0.70986199 31:-0.53128153 32:-0.012126103 33:0.036642201 34:-0.15276179 35:-0.65743715 36:0.53913814 37:-0.41278499 38:0.16837849 39:0.86304891 40:0.013139965 41:0.055222802 42:-0.36201236 43:-0.080147125 44:-0.1283403 45:0.6775806 46:0.30834919 47:-0.22131686 48:0.19909947 49:0.22284813 50:0.62098342 51:-0.20983891 52:-0.015792197 53:-0.18879044 54:0.21441358 55:-0.17812967 56:-0.43472257 57:0.37388122 58:0.020790638 59:0.62976539 60:-0.29366228  |EV| 
-0.88637375334383528002746288620983  |BT| (ROOT (FRAG (NP (NNP (CONCLUSIONS)))(: (:))(S (PP (IN (Among))(NP (NP (NNS (children)))(PP (NP (QP (CD (6))(TO (to))(CD (23)))(NNS (months)))(IN (of))(NP (NN (age))))(PP (IN (with))(NP (JJ (acute))(NNS (otitis))(NNS (media))))))(, (,))(NP (NP (NN (treatment)))(PP (IN (with))(NP (NP (NN (amoxicillin-clavulanate)))(PP (IN (for))(NP (CD (10))(NNS (days)))))))(VP (VP (VBD (tended))(S (VP (TO (to))(VP (VB (reduce))(NP (DT (the))(NN (time)))(PP (TO (to))(NP (NP (NN (resolution)))(PP (IN (of))(NP (NNS (symptoms))))))))))(CC (and))(VP (VBD (reduced))(NP (NP (DT (the))(JJ (overall))(NN (symptom))(NN (burden)))(CC (and))(NP (NP (DT (the))(NN (rate)))(PP (IN (of))(NP (NP (JJ (persistent))(NNS (signs)))(PP (IN (of))(NP (JJ (acute))(NN (infection))))))))(PP (IN (on))(NP (JJ (otoscopic))(NN (examination)))))))(. (.)))) |ET|  |BV| 1:0.35244706 2:-0.53398049 3:0.61924434 4:-0.04641439 5:0.014703782 6:-0.15338266 7:-0.11245583 8:0.21922614 9:1.1140474 10:0.22506315 11:-0.13748759 12:-0.50418454 13:0.055349298 14:-0.46502516 15:-0.59570587 16:-0.52668715 17:0.8910346 18:-0.040526476 19:0.8127467 20:-0.76265353 41:0.085949436 42:0.23730715 43:0.11128265 44:0.24194649 45:0.24496929 46:-0.16206677 47:-0.014506514 48:-0.032957513 49:-0.10342194 50:0.0016394954 51:0.0071134437 52:0.01312697 53:-0.13648118 54:-3.0848543e-05 55:0.45185885 56:-0.26350069 57:0.23227164 58:0.19531415 59:-0.007273118 60:0.051537462  |EV| 
1  |BT| (ROOT (S (NP (NP (NP (JJ (20-O--d-glucopyranosyl-20)))(PRN (-LRB- (-LRB-))(NP (NNP (S)))(-RRB- (-RRB-))))(: (-))(NP (NP (NN (protopanaxadiol)))(, (,))(NP (NP (DT (a))(NN (metabolite)))(PP (IN (of))(NP (NN (ginseng))))))(, (,)))(VP (VBZ (inhibits))(NP (NN (colon))(NN (cancer))(NN (growth)))(PP (IN (by))(S (VP (VBG (targeting))(NP (CD (TRPC))(JJ (channel-mediated))(NN (calcium))(NN (influx)))))))(. (.)))) |ET|  |BV| 1:-0.76733154 2:0.2460794 3:-0.36372909 4:-0.26238525 5:-0.33067521 6:-0.33500141 7:-0.089534409 8:0.13414255 9:0.37700409 10:0.26008978 11:-0.075949982 12:-0.24670501 13:0.17961161 14:-0.15187471 15:-1.0580264 16:-0.25400683 17:-0.31937048 18:0.033552781 19:0.48308486 20:-0.69982004 21:-0.6087867 22:-0.011024807 23:0.14656921 24:0.36022162 25:0.2953164 26:-0.57830232 27:0.28156734 28:0.47401625 29:0.8644281 30:0.083395809 31:0.12959622 32:0.41102698 33:0.25162068 34:0.06466005 35:-0.10712874 36:-0.28840005 37:-0.44536808 38:-0.029718379 39:0.62244087 40:-0.046636596 41:-0.021951012 42:-0.086069316 43:0.30741966 44:-0.1036191 45:0.0033883832 46:0.071943223 47:-0.38905534 48:0.22787996 49:0.25433129 50:0.32759985 51:0.30417359 52:-0.085765317 53:0.22378229 54:-0.10968653 55:-0.060962465 56:0.31327388 57:-0.21888827 58:0.31850329 59:0.024710931 60:0.033135325  |EV| 
1  |BT| (ROOT (S (ADVP (RB (Finally)))(, (,))(NP (NP (DT (the))(NN (noradrenalin))(NN (transporter)))(PP (ADVP (RB (together)))(IN (with))(NP (JJ (dopamine))(NN (transporter))(NN (blocker))(NN (bupropion)))))(VP (VBD (was))(ADJP (RBR (more))(JJ (effective))(PP (IN (in))(S (VP (VBG (decreasing))(NP (NP (DT (the))(NN (stress)))(PP (IN (of))(NP (NP (DT (an))(NN (injection)))(PP (IN (in))(NP (JJ (SERT))(PRN (-LRB- (-LRB-))(FRAG (ADJP (RB (-))(JJ (/)))(: (-)))(-RRB- (-RRB-)))(NNS (rats)))))))(PP (IN (than))(PP (IN (in))(NP (JJ (SERT))(PRN (-LRB- (-LRB-))(NP (NNP (+))(NNP (/))(NNP (+)))(-RRB- (-RRB-)))(NNS (rats))))))))))(. (.)))) |ET|  |BV| 1:-0.43928695 2:-0.056595359 3:0.080920085 4:-0.55128294 5:-0.23415083 6:-0.65561533 7:0.89014655 8:1.0537024 9:1.1572906 10:0.81946075 11:0.24070236 12:-0.68536693 13:0.80484867 14:0.47524852 15:-0.47601759 16:0.36912289 17:-0.87052554 18:0.28288737 19:0.39863423 20:-0.07936205 21:0.43385875 22:-0.70879608 23:-0.15121306 24:-0.4984982 25:0.25945014 26:-0.21913771 27:-0.77050805 28:-0.65597773 29:0.77728212 30:0.75117898 31:0.26791933 32:0.098864079 33:0.040396873 34:0.34282583 35:-0.63833892 36:0.37242758 37:-0.52486193 38:-0.39260066 39:0.14577915 40:0.077141792 41:-0.30710801 42:-0.11094452 43:0.46930155 44:0.14255986 45:0.19020131 46:-0.64546072 47:-0.18757522 48:0.043041289 49:-0.098300159 50:-0.067231648 51:0.56252474 52:0.035957605 53:0.60373741 54:-0.19733548 55:-0.17642644 56:-0.070108272 57:-0.038676135 58:-0.1489349 59:0.06508337 60:-0.017799556  |EV| 
0.77040533528012944408658313477645  |BT| (ROOT (S (NP (PRP (It)))(VP (VBD (was))(ADVP (RB (recently)))(VP (VBN (shown))(SBAR (IN (that))(S (NP (NP (DT (the))(JJ (benzoxaborole))(JJ (antifungal))(NN (compound))(NN (AN2690)))(PRN (-LRB- (-LRB-))(NP (NN (5-fluoro-1))(CD (,3)))(: (-))(NP (NP (JJ (dihydro-1-hydroxy-1))(CD (,2)))(: (-))(NP (NN (benzoxaborole))))(-RRB- (-RRB-))))(VP (VBZ (inhibits))(NP (NNS (LeuRS)))(PP (IN (by))(S (VP (VBG (forming))(NP (NP (DT (a))(JJ (covalent))(NN (adduct)))(PP (IN (with))(NP (DT (the))(CD (3))('' ('))(NN (adenosine))))(PP (IN (of))(NP (NP (NN (tRNA)))(PRN (-LRB- (-LRB-))(NP (NN (leu)))(-RRB- (-RRB-))))))(PP (IN (at))(NP (DT (the))(NN (editing))(NN (site))))(, (,))(S (ADVP (RB (thus)))(VP (VBG (locking))(NP (DT (the))(NN (enzyme)))(PP (IN (in))(NP (DT (an))(JJ (inactive))(NN (conformation))))))))))))))(. (.)))) |ET|  |BV| 1:-1.4009563 2:-1.5814769 3:0.49416432 4:0.52210379 5:-0.019844569 6:-1.0101516 7:0.88953322 8:0.38296342 9:0.64190757 10:-0.87704146 11:0.28260985 12:0.91117328 13:0.1239359 14:-0.088209145 15:0.32299581 16:-0.10356185 17:-0.22162217 18:-0.51198089 19:0.6591621 20:-1.2448485 21:-1.4069481 22:-1.075496 23:0.73630089 24:0.14236891 25:-0.059509687 26:-0.69115633 27:0.24420214 28:0.1404658 29:-0.34585404 30:-0.90413207 31:-0.30341196 32:0.6098696 33:1.0032715 34:0.10490897 35:0.60823131 36:-0.85505229 37:-0.50288063 38:-0.46083355 39:2.1474571 40:-1.3225567 41:-0.35740626 42:-0.64486313 43:-0.24115458 44:-0.18268776 45:0.12594779 46:-0.30661178 47:-0.2484213 48:0.033529665 49:0.16844782 50:0.41002226 51:0.19995184 52:-0.034642503 53:-0.11106802 54:-0.16693349 55:0.19326207 56:0.031277787 57:0.059685953 58:0.31206495 59:-0.020300008 60:-0.073638663  |EV| 
-0.93855539426960188365001158672385  |BT| (ROOT (S (NP (NP (DT (A))(NN (guanine)))(PRN (-LRB- (-LRB-))(NP (NNP (G)))(-RRB- (-RRB-))))(VP (VBZ (/))(NP (NP (NN (adenine)))(PRN (-LRB- (-LRB-))(NP (NNP (A)))(-RRB- (-RRB-)))(SBAR (S (NP (NP (JJ (common))(JJ (single))(NN (nucleotide))(NN (polymorphism)))(PP (IN (at))(NP (NP (JJ (first))(NN (position)))(PP (IN (of))(NP (NP (NN (codon))(CD (589)))(PP (IN (in))(NP (NNP (Exo))(CD (1))(NN (gene)))))))))(VP (VBZ (determines))(NP (DT (a))(JJ (glutamic))(NN (acid)))(PRN (-LRB- (-LRB-))(NP (NNP (Glu)))(, (,))(NP (NNP (E)))(-RRB- (-RRB-)))(PP (TO (to))(NP (NP (NP (NN (lysine)))(PRN (-LRB- (-LRB-))(NP (NNP (Lys)))(, (,))(NP (NNP (K)))(-RRB- (-RRB-))))(PRN (-LRB- (-LRB-))(NP (NNP (K589E)))(-RRB- (-RRB-)))))))))(NP (NP (JJ (aminoacidic))(NN (substitution)))(SBAR (WHNP (WDT (which)))(S (VP (MD (may))(VP (VB (alter))(NP (NN (cancer))(NN (risk)))(PP (IN (by))(S (VP (VBG (influencing))(NP (NP (DT (the))(NN (activity)))(PP (IN (of))(NP (NNP (Exo))(CD (1))(NN (protein))))))))))))))(. (.)))) |ET|  |BV| 1:-0.89806104 2:-0.88740349 3:0.6684531 4:-0.72632658 5:-1.6517493 6:-0.36108562 7:0.26906854 8:1.6386491 9:0.22852036 10:0.079020485 11:0.19047874 12:0.77491361 13:0.37403876 14:0.77928269 15:-0.82996875 16:0.47676581 17:-0.69418496 18:0.11014714 19:-0.58469981 20:-0.93877232 21:-0.98417938 22:0.41805446 23:0.35911784 24:-0.89342439 25:-0.28451303 26:-0.78242135 27:-0.58465123 28:0.97099948 29:0.19545634 30:-1.8243748 31:-0.0024916052 32:0.65486383 33:0.1811683 34:1.1890516 35:-0.096406184 36:-0.96060628 37:-0.53619105 38:-0.27410814 39:-0.029814117 40:-1.4676652 41:-0.051239736 42:-0.28658754 43:0.34319121 44:0.14093253 45:-0.21908839 46:-0.098751724 47:0.078506082 48:-0.060891476 49:0.20008431 50:-0.14257202 51:0.7868917 52:0.071409814 53:-0.1009173 54:0.14273414 55:-0.12032348 56:0.10546955 57:-0.25631997 58:0.26697889 59:0.14741941 60:-0.049186252  |EV| 
-1  |BT| (ROOT (S (NP (DT (The))(NP (NNP (Nicotrol))(NNP ())(PRN (-LRB- (-LRB-))(NP (NNP (Pfizer)))(, (,))(NP (NNP (USA)))(-RRB- (-RRB-)))(NNP (nicotine)))(NN (inhaler)))(VP (VBZ (reduces))(NP (NN (craving)))(PP (IN (by))(S (VP (VP (VBG (mimicking))(NP (NP (DT (the))(JJ (behavioural))(NN (component)))(PP (IN (of))(NP (NNS (cigarettes))))))(CC (and))(VP (VBG (delivering))(NP (NP (JJ (controlled))(NNS (doses)))(PP (IN (of))(NP (NP (NN (nicotine)))(, (,))(SBAR (WHNP (WDT (which)))(S (VP (VBZ (binds))(PP (TO (to))(NP (NP (DT (the))(JJ (beta-2))(JJ (subunit-containing))(JJ (nicotinic))(NN (acetylcholine))(NNS (receptors)))(PRN (-LRB- (-LRB-))(NP (NP (JJ (2))(NNS (*)))(: (-))(NP (NNS (nAChRs))))(-RRB- (-RRB-))))))))))))))))(. (.)))) |ET|  |BV| 1:-0.31161079 2:-0.36281344 3:0.18907669 4:0.085704744 5:-0.025418209 6:-0.14755964 7:0.024619143 8:-0.21351071 9:1.1228068 10:0.1944949 11:0.71831656 12:-0.64764792 13:-0.3232435 14:-0.11913425 15:-0.39324352 16:1.1804386 17:0.10067534 18:0.44076952 19:-0.1683571 20:0.32567781 21:-0.6964218 22:0.36328217 23:0.839136 24:-0.91466933 25:-0.27204117 26:-0.37875962 27:0.44033417 28:0.29511434 29:0.8904736 30:-0.26710111 31:0.88625318 32:-0.29589823 33:0.97394598 34:-0.12877832 35:-0.10586167 36:0.56494546 37:0.2942304 38:0.2748687 39:0.5583688 40:-0.16265568 41:-0.13013077 42:-0.25981644 43:0.093551666 44:-0.32276356 45:0.052727435 46:0.046370339 47:-0.5112021 48:-0.42461124 49:-0.21455133 50:0.35746774 51:0.67682666 52:0.1710259 53:-0.10439385 54:0.0082091782 55:-0.1243705 56:0.39434627 57:0.20973958 58:0.18682955 59:-0.062972702 60:-0.22990212  |EV| 
-1  |BT| (ROOT (S (NP (NP (NP (NNP (Tolvaptan)))(PRN (-LRB- (-LRB-))(NP (NP (NNP (TOL)))(: (;))(NP (JJ (selective))(NN (V2))(NN (antagonist))))(-RRB- (-RRB-))))(CC (and))(NP (NP (NNP (Conivaptan)))(PRN (-LRB- (-LRB-))(NP (NP (NNP (CON)))(: (;))(NP (JJ (dual))(JJ (V1a/V2))(NN (antagonist))))(-RRB- (-RRB-)))))(VP (VBP (are))(NP (NP (CD (two))(NNP (AVP))(NNS (antagonists)))(SBAR (WHNP (WDT (that)))(S (VP (VB (counteract))(NP (NP (DT (the))(NN (action)))(PP (IN (of))(NP (NNP (AVP)))))(PP (IN (with))(NP (JJ (distinct))(NNS (profiles)))))))))(. (.)))) |ET|  |BV| 1:-0.099199012 2:-0.59156978 3:1.3558156 4:-1.1025531 5:0.37526837 6:-0.27797398 7:0.70420802 8:1.389861 9:0.94101846 10:-0.49985513 11:0.72899067 12:0.42401269 13:-0.083025023 14:0.33309704 15:-0.41587144 16:0.44663921 17:1.021216 18:-1.3189735 19:-0.14416024 20:-0.66059715 21:0.47521439 22:-0.46435663 23:1.2071205 24:-1.2103273 25:0.12324187 26:-0.33217537 27:0.83428329 28:0.99301606 29:0.28150648 30:-0.17493747 31:0.71685445 32:0.19261353 33:-0.25161031 34:-0.12366971 35:-0.39026871 36:0.56242198 37:0.36128464 38:-0.91560704 39:-0.22868571 40:-0.40150341 41:-0.15018162 42:-0.51398051 43:0.18935935 44:0.041888025 45:0.15456265 46:-0.25415865 47:0.30340156 48:-0.045860093 49:-0.61562616 50:-0.072516426 51:0.67239285 52:0.047182575 53:-0.057147928 54:-0.2689198 55:-0.052209131 56:0.83301347 57:-0.018257987 58:-0.036308259 59:-0.30328986 60:0.059476748  |EV| 
1  |BT| (ROOT (S (ADVP (RB (Thus)))(, (,))(NP (NP (DT (the))(ADJP (JJ (vasodilative))(, (,))(JJ (antianginal))(CC (and))(JJ (antiarrhythmic)))(NNS (actions)))(PP (IN (of))(NP (NN (amiodarone)))))(VP (MD (may))(VP (VB (be))(VP (RBR (further))(VBN (enhanced))(PP (IN (by))(NP (NP (DT (the))(JJ (simultaneous))(NN (supplementation)))(PP (IN (of))(NP (NP (NN (calcium))(NN (channel))(NNS (blockers)))(PP (IN (via))(NP (JJ (synergistic))(NNS (mechanisms))))))(, (,))(VP (VBG (supporting))(NP (NP (DT (the))(JJ (clinical))(NN (use)))(PP (IN (of))(NP (JJ (such))(NN (drug))(NNS (combinations)))))))))))(. (.)))) |ET|  |BV| 1:-0.40201533 2:0.26041409 3:-0.33256418 4:-0.47749305 5:-0.57279712 6:0.030752117 7:-0.033705521 8:0.3530972 9:0.86477917 10:0.27282262 11:-0.11382813 12:-0.56814915 13:0.24151221 14:-0.036625974 15:-1.4665904 16:-0.45977589 17:-0.25449222 18:-0.13983984 19:0.50851893 20:-0.67701018 21:-0.16469966 22:0.022516429 23:-0.73193413 24:0.045193154 25:0.4222194 26:0.036796849 27:0.2352435 28:-0.27031907 29:0.41419598 30:0.20313478 31:-0.29296407 32:-0.33279586 33:0.23716505 34:-0.20832293 35:-0.14375141 36:-0.043305229 37:-0.10976048 38:-0.43185729 39:0.685583 40:0.18347895 41:-0.60841829 42:-0.20048393 43:0.62815654 44:0.092391551 45:0.36841097 46:-0.00071928446 47:-0.32054833 48:-0.1099953 49:0.19344208 50:0.56079072 51:0.19191693 52:0.2797282 53:0.15170592 54:-0.10124607 55:0.054922797 56:0.086886637 57:0.49230745 58:0.078592889 59:-0.2667661 60:-0.56223077  |EV| 
1  |BT| (ROOT (S (NP (NP (DT (This))(NN (phase))(NN (I))(NN (trial)))(PP (IN (in))(NP (JJ (healthy))(NNS (subjects)))))(VP (VBD (investigated))(NP (NP (NP (DT (the))(NN (bronchodilator))(NN (activity)))(PP (IN (of))(NP (NN (aclidinium)))))(CC (and))(NP (PRP$ (its))(NN (ability))(S (VP (TO (to))(VP (VB (reduce))(NP (JJ (methacholine-induced))(NN (bronchoconstriction)))))))))(. (.)))) |ET|  |BV| 1:-0.56929779 2:0.11275183 3:-0.12096316 4:-0.33661121 5:0.015454964 6:-0.54766327 7:-0.41220659 8:-0.22145909 9:0.88924897 10:0.479875 11:-0.46322623 12:0.2768335 13:1.436738 14:-0.36349216 15:0.020116759 16:-0.098351911 17:-0.18360977 18:0.025702953 19:-0.42553788 20:-0.72200239 41:-0.158465 42:0.034803238 43:0.16103907 44:-0.31827056 45:0.20409922 46:0.11032236 47:-0.0079452591 48:-0.42260876 49:0.13054189 50:0.071465231 51:0.4752413 52:0.17953965 53:0.11966962 54:0.045247983 55:0.11527257 56:0.0070465468 57:0.19392149 58:-0.47613615 59:0.13856952 60:0.2462654  |EV| 
1  |BT| (ROOT (NP (NP (NNP (Antagonism)))(PP (IN (of))(NP (NP (DT (the))(ADJP (JJ (antithrombotic))(CC (and))(JJ (anti-atherosclerotic)))(NNS (actions)))(PP (IN (of))(NP (NN (aspirin))))))(PP (IN (by))(NP (NN (rofecoxib))))(PP (IN (in))(NP (DT (the))(JJ (cholesterol-fed))(NN (rabbit))))(. (.)))) |ET|  |BV| 1:0.18413414 2:-1.2404205 3:-0.24337347 4:0.4783988 5:-0.54357165 6:0.25719765 7:-0.66916507 8:-0.43968144 9:1.0442492 10:-0.45525748 11:-0.078946494 12:1.317522 13:1.1431879 14:-2.6085827 15:-0.17483136 16:1.2728422 17:-0.59851855 18:-0.71260118 19:-0.057639375 20:-0.84565258 21:-0.45031631 22:0.15654109 23:-0.14055742 24:0.57517284 25:0.1998097 26:-0.003260914 27:-0.33045915 28:-0.79845482 29:0.2162341 30:-0.19117653 31:-0.26789901 32:0.13184972 33:0.5689823 34:-0.53675497 35:-0.25804719 36:0.65332514 37:-0.48971584 38:-0.86091042 39:0.14939134 40:-0.01000188 41:-0.049917482 42:-0.24687789 43:0.20389214 44:-0.19835202 45:0.1175063 46:-0.043385059 47:-0.20002733 48:-0.35882074 49:-0.019832287 50:0.28691065 51:-0.14373778 52:0.50583249 53:0.036804058 54:-0.29259381 55:-0.34638202 56:0.41542119 57:0.50908768 58:0.084679425 59:-0.11858629 60:-0.27503875  |EV| 
-1  |BT| (ROOT (S (NP (JJ (Toxicological))(NN (examination)))(VP (VBD (confirmed))(NP (NP (DT (a))(JJ (recent))(NN (intake)))(PP (IN (of))(NP (NN (mefloquine)))))(PP (ADVP (RB (together)))(IN (with))(NP (NP (NN (chloroquine)))(, (,))(NP (DT (another))(JJ (antimalarial))(NN (drug))))))(. (.)))) |ET|  |BV| 1:-0.44465402 2:-0.32230401 3:-0.045599494 4:0.39940435 5:0.65570676 6:-0.75953043 7:-0.077495389 8:0.46600577 9:0.02426268 10:0.39012048 11:-1.4777908 12:0.13325724 13:0.47489363 14:0.99156183 15:-1.030862 16:0.12335151 17:-0.30270708 18:-0.059895068 19:-0.040842503 20:-0.3289873 21:-0.56343693 22:-0.35159785 23:-0.14530689 24:0.41392627 25:0.43864274 26:-0.62473142 27:-0.74550021 28:0.10656618 29:0.38636047 30:1.0745468 31:-0.93271834 32:0.50037241 33:-0.11474589 34:-0.72066718 35:-0.34713095 36:1.3505288 37:-0.14346741 38:-0.084357351 39:-0.13472518 40:-0.72076881 41:-0.094799429 42:0.028020205 43:0.069429196 44:0.061938088 45:0.26012227 46:0.051171158 47:0.41731721 48:-0.39252681 49:0.28055552 50:0.052727427 51:0.22744687 52:-0.095782071 53:-0.20767178 54:-0.068187743 55:0.334362 56:0.2492743 57:-0.27498114 58:0.28063262 59:0.14184166 60:0.44808555  |EV| 
-1  |BT| (ROOT (S (NP (ADJP (RB (Minimally))(JJ (invasive)))(NN (aspiration)))(VP (VBD (was))(VP (VBN (applied))(PP (IN (within))(NP (NP (CD (72))(NN (h)))(PP (IN (after))(NP (NN (onset))))))(, (,))(S (ADVP (IN (along))(PP (IN (with))(NP (NN (mannitol))(CC (or))(NN (furosemide)))))(VP (TO (to))(VP (VB (lower))(NP (NP (DT (the))(JJ (intracranial))(NN (pressure)))(CC (and))(NP (JJ (symptomatic))(NN (treatment)))))))))(. (.)))) |ET|  |BV| 1:-0.62696892 2:-0.36565167 3:-0.1138407 4:0.44427595 5:0.45800436 6:-0.26020354 7:-0.19542311 8:-0.9882676 9:-0.10918805 10:0.59983301 11:-0.27702549 12:-0.65473092 13:0.58738786 14:-0.20297447 15:-0.1769674 16:0.99944466 17:0.34191957 18:0.22632022 19:-0.61622745 20:-1.169777 21:-0.35126665 22:-0.35966042 23:-1.2996027 24:0.3386966 25:0.57237959 26:-0.4551442 27:0.61909175 28:-0.39228794 29:-0.39884531 30:0.13205177 31:0.36984587 32:-0.12144778 33:0.32529017 34:-1.1934534 35:-0.072098196 36:-0.35082138 37:-0.55683655 38:-0.31578785 39:0.44719502 40:-0.57014626 41:0.0033704631 42:-0.22132783 43:-0.36639515 44:0.12309282 45:0.52829379 46:-0.14449844 47:-0.16318546 48:0.14585845 49:-0.060612865 50:0.52935928 51:0.15475383 52:-0.16273543 53:-0.28403702 54:-0.096480556 55:0.31771207 56:-0.15114406 57:0.22274947 58:-0.027484309 59:-0.39348614 60:-0.049821202  |EV| 
-1  |BT| (ROOT (NP (NP (NNS (RESULTS)))(: (:))(S (NP (PRP (It)))(VP (VBD (was))(VP (VBN (found))(SBAR (IN (that))(S (NP (NP (DT (the))(NNS (levels)))(PP (IN (of))(NP (NP (JJ (acylated))(, (,))(JJ (desacylated))(NN (ghrelin)))(, (,))(NP (JJ (paraoxonase))(NN (arylesterase)))(, (,))(NP (JJ (total))(NN (cholesterol)))(CC (and))(NP (NN (triglyceride))))))(VP (VBD (were))(ADJP (ADJP (JJR (lower)))(PP (IN (in))(NP (JJ (depressive))(NNS (patients)))))(PP (IN (before))(NP (NN (citalopram))(NN (treatment))))(PP (IN (than))(PP (IN (in))(NP (DT (the))(NN (control))(NN (group)))))))))))(. (.)))) |ET|  |BV| 1:-0.40574127 2:0.058164272 3:-0.55703866 4:-0.45595855 5:0.55642027 6:-0.69570565 7:-0.81506693 8:-0.36349747 9:-0.10663576 10:0.16767016 11:0.47130343 12:-0.055568293 13:-0.14277528 14:0.29299292 15:-0.92808807 16:-0.24978071 17:0.050095562 18:-0.21021543 19:1.06243 20:-0.29777443 21:-0.72881132 22:0.5290817 23:0.59164304 24:-0.024455303 25:-0.52654779 26:-0.36971462 27:0.13414875 28:-0.08233285 29:-0.12963098 30:0.58822078 31:-0.046490178 32:0.53263962 33:0.26568893 34:-0.39370897 35:-0.34961393 36:0.028063374 37:-0.14020984 38:0.32197952 39:0.76699817 40:0.29744563 41:-0.39295569 42:0.1886147 43:-0.25878462 44:0.39115742 45:-0.0040546465 46:0.66834962 47:-0.1418177 48:0.0049863365 49:0.1131925 50:-0.024216022 51:0.44701204 52:-0.14832591 53:-0.055177383 54:-0.20652506 55:-0.11224238 56:0.12763985 57:0.29367417 58:-0.045456134 59:0.064795427 60:0.0031734896  |EV| 
1  |BT| (ROOT (FRAG (NP (NNP (CONCLUSION)))(: (:))(S (NP (NNP (Caudal)))(VP (VBP (clonidine))(PP (IN (at))(NP (NP (DT (a))(JJR (lower))(NN (dose)))(-LRB- (-LRB-))(NP (CD (1))(NN (g)))(ADVP (RB (kg)))))))(. (?)))) |ET|  |BV| 1:-0.34696582 2:-0.0097431345 3:-0.23105963 4:-0.50302809 5:-0.020926366 6:0.2870712 7:-0.036876835 8:-0.00093980529 9:0.57171631 10:-0.061133616 11:0.5594151 12:-0.38323382 13:0.034318916 14:-0.24120934 15:-0.67039001 16:0.42504683 17:0.50754982 18:0.30065629 19:-0.016009297 20:-0.086647823 21:-0.51583421 22:-0.15732002 23:-0.67301118 24:-0.94175428 25:0.24679913 26:-0.6743508 27:-0.21775585 28:0.045891993 29:-0.18093675 30:0.41452351 31:-0.35863405 32:0.2783553 33:0.19278878 34:-1.1857703 35:0.0078831157 36:0.32769522 37:0.64750874 38:0.40576273 39:-0.44038063 40:-0.45647451 41:-0.10761163 42:-0.054392014 43:-0.15049385 44:0.070999056 45:0.14322309 46:-0.05423969 47:-0.65809071 48:-0.40447691 49:0.058322854 50:0.066104859 51:-0.31503156 52:0.095424451 53:-0.13669065 54:0.41309538 55:-0.45929831 56:0.10554063 57:0.60425711 58:0.19599248 59:0.054755546 60:-0.069189131  |EV| 
1  |BT| (ROOT (S (NP (JJ (Ethanol))(NN (abuse)))(VP (VBD (was))(VP (VBN (associated))(PP (IN (with))(NP (NP (CD (>))(ADJP (NP (CD (50))(NN (%)))(JJR (lower)))(JJ (cumulative))(NN (dose)))(PP (IN (of))(NP (NP (JJ (morphine))(NNS (equivalents)))(PRN (-LRB- (-LRB-))(NP (NP (NN (ratio))(CD (0.47)))(: (;))(NP (NP (ADJP (CD (95))(NN (%)))(NNP (CI)))(NP (CD (0.25-0))(CD (.87)))))(-RRB- (-RRB-)))))))))(. (.)))) |ET|  |BV| 1:-0.45263946 2:-0.44811127 3:-0.4024395 4:-0.35953194 5:0.29140186 6:-0.31026688 7:-0.16002285 8:0.027013453 9:0.46951276 10:0.70688903 11:0.51139504 12:-0.31645745 13:0.28384194 14:-0.14880067 15:-0.087615728 16:-0.37213057 17:0.33573028 18:0.14914471 19:-0.2827695 20:0.36941594 21:-0.18262425 22:-0.27455565 23:-0.63187039 24:-0.20303082 25:-0.49805775 26:-0.36358526 27:-0.67585135 28:-0.18507487 29:0.57143605 30:-0.13132448 31:0.033105545 32:0.39477274 33:0.01403023 34:-0.085290499 35:0.069696143 36:0.078646556 37:-0.2542069 38:-0.099925838 39:0.45036244 40:0.57571846 41:0.20964836 42:0.21594174 43:0.14140192 44:0.047380116 45:0.10607688 46:-0.07651335 47:0.005253105 48:-0.25008866 49:-0.47941738 50:-0.24737062 51:-0.050675459 52:0.29840505 53:0.044068847 54:-0.10152492 55:0.1286649 56:0.44614688 57:0.4337557 58:-0.39313215 59:-0.091315329 60:0.18066423  |EV| 
1  |BT| (ROOT (SINV (VP (VBG (Using))(NP (DT (the))(ADJP (ADJP (JJ (intranigral))(JJ (lipopolysaccharide)))(PRN (-LRB- (-LRB-))(NP (NNP (LPS)))(-RRB- (-RRB-))))(NN (rat))(NN (model))))(PRN (, (,))(S (NP (PRP (we)))(VP (VBP (show))(SBAR (IN (that))(S (NP (NP (NN (meloxicam)))(, (,))(NP (DT (a))(JJ (preferential))(NN (COX-2))(NN (inhibitor)))(, (,)))(VP (VP (VBZ (diminishes))(NP (NP (DT (the))(NN (activation)))(PP (IN (of))(NP (NNP (OX-42-immunoreactive))(PRN (-LRB- (-LRB-))(NP (NN (ir)))(-RRB- (-RRB-)))(NN (microglia))))))(CC (and))(VP (VBZ (reduces))(NP (NP (DT (the))(NN (loss)))(PP (IN (of))(NP (NP (JJ (tyrosine))(NN (hydroxylase)))(PRN (-LRB- (-LRB-))(NP (NNP (TH)))(-RRB- (-RRB-))))))))))))(, (-)))(VP (VBP (ir))(NP (JJ (dopamine))(PRN (-LRB- (-LRB-))(NP (NNP (DA)))(-RRB- (-RRB-)))(NNS (neurons)))(PP (IN (in))(NP (DT (the))(NN (substantia))(NN (nigra)))))(NP (NP (JJ (pars))(NN (compacta)))(PRN (-LRB- (-LRB-))(NP (NNP (SNpc)))(-RRB- (-RRB-)))(SBAR (WHNP (WDT (that)))(S (VP (VBZ (is))(ADVP (RB (normally)))(VP (VBN (induced))(PP (IN (by))(NP (NN (exposure))))(PP (TO (to))(NP (NNP (LPS)))))))))(. (.)))) |ET|  |BV| 1:-0.68889815 2:-0.29203573 3:-0.091921061 4:-0.85583287 5:0.19028556 6:-0.97280931 7:-0.1351376 8:0.43235838 9:0.49013329 10:0.22208227 11:0.58568132 12:-0.40404236 13:0.4984071 14:0.21775264 15:0.46412289 16:-0.10357713 17:-0.17316554 18:-0.52833509 19:-0.10205206 20:0.16675249 21:0.2228602 22:-0.36231247 23:-0.039630387 24:-0.27459741 25:-0.51627016 26:-0.25163805 27:-0.69397962 28:0.017182717 29:0.62085277 30:0.4650622 31:-1.2651849 32:-0.93857032 33:-0.61381608 34:0.33596033 35:-0.24084118 36:-0.22675507 37:0.21916914 38:-0.69940108 39:0.60645193 40:0.2717264 41:-0.18622424 42:-0.81706423 43:0.084611282 44:0.081445038 45:0.0030053484 46:-0.19037405 47:0.43096572 48:-0.13220996 49:-0.02393645 50:0.39518321 51:0.68101358 52:0.13603069 53:0.23453447 54:-0.40553513 55:-0.25994229 56:0.53839463 57:0.46485466 58:0.11911035 59:-0.087702088 60:-0.27450597  |EV| 
