SVM-light Version V5.01-TK-1.5
0 # kernel type
3 # kernel parameter -d 
1 # kernel parameter -g 
1 # kernel parameter -s 
1 # kernel parameter -r 
empty# kernel parameter -u 
0.4 # kernel parameter -L 
1 # kernel parameter -T 
T # kernel parameter -C 
1 # kernel parameter -F 
0 # kernel parameter -S 
0.400000 # kernel parameter -M 
3 # kernel parameter -N 
S # kernel parameter -V 
S # kernel parameter -W 
0 # kernel parameter -U 
60 # highest feature index 
690 # number of training documents 
227 # number of support vectors plus 1 
-2.1379284 # threshold b, each following line is a SV (starting with alpha*y)
-0.052996283084729776946542045834576 1:0.25013673 2:-0.18942438 3:-0.028794289 4:-0.025899239 5:0.30557257 6:0.45914388 7:-0.57862759 8:-0.31540921 9:0.66600025 10:-0.067326389 11:0.037482161 12:-0.33581209 13:-0.4384543 14:-0.33363229 15:0.12543899 16:0.099893525 17:0.12975039 18:-0.044256438 19:0.070678361 20:0.43162179 21:-0.1666566 22:-0.59780675 23:-0.54791546 24:-0.31921065 25:0.6909548 26:-0.10971216 27:0.0013989012 28:-0.7938984 29:-0.22350766 30:0.29769674 31:-0.032029867 32:-0.27913049 33:-0.40615657 34:-0.51806945 35:-0.46422905 36:-0.27608031 37:-0.40959495 38:0.26192504 39:-0.034828987 40:0.59777397 41:-0.22975548 42:-0.44930288 43:0.99853808 44:-1.1642864 45:0.17313726 46:-0.22235823 47:0.13241203 48:-0.34373593 49:-0.052996337 50:0.52022952 51:0.23031865 52:-0.60883564 53:0.27086893 54:-0.013848617 55:-0.34478873 56:0.48578453 57:-0.26064113 58:0.3111628 59:0.30037245 60:0.52209032  |EV| 
-0.052996283084729776946542045834576 1:0.25013673 2:-0.18942438 3:-0.028794289 4:-0.025899239 5:0.30557257 6:0.45914388 7:-0.57862759 8:-0.31540921 9:0.66600025 10:-0.067326389 11:0.037482161 12:-0.33581209 13:-0.4384543 14:-0.33363229 15:0.12543899 16:0.099893525 17:0.12975039 18:-0.044256438 19:0.070678361 20:0.43162179 21:-0.1666566 22:-0.59780675 23:-0.54791546 24:-0.31921065 25:0.6909548 26:-0.10971216 27:0.0013989012 28:-0.7938984 29:-0.22350766 30:0.29769674 31:-0.032029867 32:-0.27913049 33:-0.40615657 34:-0.51806945 35:-0.46422905 36:-0.27608031 37:-0.40959495 38:0.26192504 39:-0.034828987 40:0.59777397 41:-0.16332701 42:0.42708665 43:0.25284123 44:-0.30507019 45:-0.044334684 46:-0.085590243 47:0.23640564 48:-0.34421366 49:-0.29284748 50:0.53632998 51:-0.19191536 52:-0.20296611 53:-0.054994475 54:0.024288664 55:0.33169952 56:-0.20335647 57:-0.097157717 58:0.082826354 59:0.26591146 60:0.17351663  |EV| 
-0.052996283084729776946542045834576 1:-0.57807446 2:0.23767376 3:1.1938609 4:-0.85665572 5:0.089977175 6:0.27098483 7:-0.66785192 8:0.25763166 9:0.97941762 10:-1.3967594 11:0.59585828 12:-0.52977264 13:-0.5092448 14:-1.0745679 15:0.32360497 16:-0.11156101 17:-0.058645237 18:0.33345109 19:0.36877665 20:-0.19041497 21:0.53107387 22:0.82472831 23:0.50219578 24:0.92683548 25:-0.032174159 26:0.75485885 27:-1.3000184 28:0.26205739 29:0.89640254 30:-0.92337275 31:-0.81106597 32:-0.087149538 33:1.1584795 34:0.44170627 35:-0.78429496 36:-1.0917373 37:-0.47445944 38:-0.35768163 39:-0.23823449 40:-0.64711171 41:-0.55461723 42:-0.3083804 43:-0.39633724 44:-0.52330875 45:0.43544596 46:-0.0022107069 47:-0.74994671 48:-0.65427601 49:-0.4017581 50:-0.39798245 51:0.0081726285 52:0.1059152 53:-0.89578182 54:0.75269192 55:-0.25302055 56:0.45361683 57:0.19453508 58:0.48394027 59:-0.78794831 60:0.23627849  |EV| 
-0.052996283084729776946542045834576 1:1.2644881 2:0.54415691 3:-0.014844928 4:-0.34776691 5:-0.28917512 6:0.49342403 7:-0.23403729 8:0.0069506876 9:1.0507621 10:-1.2864051 11:-0.24943872 12:-1.5037781 13:0.015774325 14:-0.54133433 15:0.38045114 16:-0.79684627 17:0.37626624 18:0.29714891 19:-0.13371168 20:0.087922424 21:-0.10517208 22:2.009649 23:0.45433426 24:0.083518766 25:-0.34198463 26:-0.8323136 27:0.64693528 28:0.84893161 29:1.0280881 30:-0.24405083 31:1.0935205 32:0.19910306 33:0.070035711 34:-0.27860537 35:0.50521541 36:-1.1012511 37:-0.58660585 38:1.3889304 39:-0.39224476 40:-0.097289041 41:-0.95474362 42:0.021779407 43:-0.21347171 44:0.070063807 45:-0.26506341 46:-0.45352459 47:-0.053018317 48:-0.066071749 49:-0.21112205 50:0.71138871 51:0.06926737 52:-0.84011704 53:0.53631908 54:-0.48936051 55:0.11373095 56:0.53204548 57:-0.50656915 58:0.023017319 59:-0.53206563 60:1.1437385  |EV| 
-0.031452573793420701697698405041592 1:1.2644881 2:0.54415691 3:-0.014844928 4:-0.34776691 5:-0.28917512 6:0.49342403 7:-0.23403729 8:0.0069506876 9:1.0507621 10:-1.2864051 11:-0.24943872 12:-1.5037781 13:0.015774325 14:-0.54133433 15:0.38045114 16:-0.79684627 17:0.37626624 18:0.29714891 19:-0.13371168 20:0.087922424 21:0.53107387 22:0.82472831 23:0.50219578 24:0.92683548 25:-0.032174159 26:0.75485885 27:-1.3000184 28:0.26205739 29:0.89640254 30:-0.92337275 31:-0.81106597 32:-0.087149538 33:1.1584795 34:0.44170627 35:-0.78429496 36:-1.0917373 37:-0.47445944 38:-0.35768163 39:-0.23823449 40:-0.64711171 41:-0.95474362 42:0.021779407 43:-0.21347171 44:0.070063807 45:-0.26506341 46:-0.45352459 47:-0.053018317 48:-0.066071749 49:-0.21112205 50:0.71138871 51:0.06926737 52:-0.84011704 53:0.53631908 54:-0.48936051 55:0.11373095 56:0.53204548 57:-0.50656915 58:0.023017319 59:-0.53206563 60:1.1437385  |EV| 
0.052996283084729776946542045834576 1:-0.20217848 2:0.68379569 3:-0.20886514 4:-0.49729392 5:0.16941471 6:0.90826786 7:-0.31923497 8:-0.34020466 9:1.4877167 10:-0.82065159 11:0.61982715 12:-0.35888872 13:-0.75806868 14:-0.42980838 15:-0.23661374 16:-0.68126267 17:-0.12519325 18:0.056468617 19:0.0031538447 20:1.3734566 21:0.4331986 22:0.86290008 23:0.13601331 24:0.3065185 25:0.44846424 26:0.62384331 27:-0.52701783 28:-0.37500083 29:1.0303359 30:-0.07770592 31:0.12492953 32:-0.49218097 33:-0.51366264 34:-0.30957854 35:0.16139877 36:-0.57681328 37:-0.64232552 38:-0.77964139 39:-0.15083158 40:0.45246062 41:-0.22975548 42:-0.44930288 43:0.99853808 44:-1.1642864 45:0.17313726 46:-0.22235823 47:0.13241203 48:-0.34373593 49:-0.052996337 50:0.52022952 51:0.23031865 52:-0.60883564 53:0.27086893 54:-0.013848617 55:-0.34478873 56:0.48578453 57:-0.26064113 58:0.3111628 59:0.30037245 60:0.52209032  |EV| 
0.052996283084729776946542045834576 1:0.21909536 2:0.26499066 3:-0.30685294 4:0.080069028 5:0.11799055 6:0.26647919 7:-0.32574975 8:0.10238031 9:0.59086949 10:-0.42406154 11:-0.54915303 12:0.0031795148 13:0.071333118 14:-0.10784147 15:-0.15247039 16:-0.19753528 17:-0.16325627 18:-0.94668692 19:-0.56457061 20:0.4436658 21:0.51465303 22:0.45315385 23:-0.15968214 24:0.20733562 25:-0.025569364 26:0.1508919 27:-0.41559249 28:-0.14727351 29:-0.16650823 30:0.091162264 31:-0.63267517 32:-0.41078365 33:-0.10124109 34:-0.3381542 35:-0.92383528 36:-0.65720546 37:-0.51138222 38:-0.10343763 39:0.28531739 40:-0.032375187 41:-0.16332701 42:0.42708665 43:0.25284123 44:-0.30507019 45:-0.044334684 46:-0.085590243 47:0.23640564 48:-0.34421366 49:-0.29284748 50:0.53632998 51:-0.19191536 52:-0.20296611 53:-0.054994475 54:0.024288664 55:0.33169952 56:-0.20335647 57:-0.097157717 58:0.082826354 59:0.26591146 60:0.17351663  |EV| 
0.052996283084729776946542045834576 1:0.46122611 2:0.18027197 3:1.176396 4:-1.2267007 5:-1.5747471 6:1.4744024 7:0.8664853 8:0.48659557 9:2.0405886 10:-1.0057936 11:0.15237202 12:0.0146252 13:0.12703273 14:-0.77676529 15:0.0087578623 16:-1.5967493 17:0.76916897 18:-1.3848425 19:0.93959302 20:1.5075521 21:0.53107387 22:0.82472831 23:0.50219578 24:0.92683548 25:-0.032174159 26:0.75485885 27:-1.3000184 28:0.26205739 29:0.89640254 30:-0.92337275 31:-0.81106597 32:-0.087149538 33:1.1584795 34:0.44170627 35:-0.78429496 36:-1.0917373 37:-0.47445944 38:-0.35768163 39:-0.23823449 40:-0.64711171 41:-0.55461723 42:-0.3083804 43:-0.39633724 44:-0.52330875 45:0.43544596 46:-0.0022107069 47:-0.74994671 48:-0.65427601 49:-0.4017581 50:-0.39798245 51:0.0081726285 52:0.1059152 53:-0.89578182 54:0.75269192 55:-0.25302055 56:0.45361683 57:0.19453508 58:0.48394027 59:-0.78794831 60:0.23627849  |EV| 
0.052996283084729776946542045834576 1:-0.45706084 2:0.54879868 3:0.44459984 4:-1.0381098 5:-0.080108702 6:-0.36036855 7:-0.49770519 8:0.3864792 9:1.1301091 10:-1.3526087 11:0.36127281 12:-0.37102503 13:-0.73864233 14:-0.9619208 15:0.49299335 16:-0.29591885 17:0.15880926 18:0.39133811 19:0.20461038 20:0.26322615 21:-0.10517208 22:2.009649 23:0.45433426 24:0.083518766 25:-0.34198463 26:-0.8323136 27:0.64693528 28:0.84893161 29:1.0280881 30:-0.24405083 31:1.0935205 32:0.19910306 33:0.070035711 34:-0.27860537 35:0.50521541 36:-1.1012511 37:-0.58660585 38:1.3889304 39:-0.39224476 40:-0.097289041 41:-0.32809231 42:0.18573086 43:0.77412283 44:-0.80802089 45:0.70640749 46:-0.43660763 47:-0.13301201 48:0.123055 49:0.27404606 50:0.20972376 51:0.51727664 52:0.3200157 53:-0.026949063 54:-0.056543764 55:0.40290117 56:0.10935625 57:-0.17567192 58:0.1315496 59:0.41434163 60:-0.60854608  |EV| 
0.023231744654723468501700267552224 1:-0.83131838 2:0.26328939 3:-0.68282759 4:0.50611293 5:-0.28590435 6:0.84744596 7:-0.1502205 8:0.28065968 9:0.014872879 10:-0.12974964 11:-0.056570284 12:0.25898787 13:0.74105746 14:-0.36615735 15:-0.033503957 16:-0.7363227 17:0.24751814 18:0.47855347 19:0.18649124 20:-0.37216902 21:0.14371909 22:-0.25819916 23:0.016492665 24:-0.18996774 25:0.54033768 26:0.6741305 27:0.42086589 28:-0.26850468 29:-0.12566203 30:1.0189152 31:-0.26844993 32:-0.30519384 33:0.67700714 34:-0.56437916 35:0.91812539 36:-0.062055424 37:-0.12591897 38:0.03948532 39:0.29251975 40:0.068547435 41:0.88932657 42:-0.19029947 43:0.070206389 44:-0.065068737 45:-0.23827462 46:-0.74412769 47:-0.13958597 48:-0.82173634 49:0.24414304 50:-0.059316315 51:-0.34439239 52:0.52480239 53:0.95966715 54:-0.36989737 55:0.16262923 56:0.62656921 57:1.3253893 58:1.1820942 59:-0.17447381 60:1.266553  |EV| 
-0.052996283084729776946542045834576 1:0.101928 2:0.67207253 3:0.35653442 4:-0.3588379 5:0.23489362 6:0.35540214 7:-0.17886692 8:-0.31033003 9:1.3922331 10:-0.64497465 11:0.53421283 12:0.1316389 13:-0.04617269 14:-0.83195931 15:-0.22874261 16:-0.46812689 17:-0.43059182 18:-0.10026652 19:-0.24312611 20:1.6166922 21:-0.14317657 22:0.74740261 23:-0.71858454 24:-0.54281366 25:0.51527673 26:0.32113171 27:0.80453467 28:0.39001268 29:-0.45075428 30:1.5652347 31:-0.25785378 32:0.21551934 33:0.26163161 34:-1.7103528 35:1.4875375 36:-0.40915403 37:-0.24780062 38:1.0877064 39:0.41735956 40:0.75525719 41:-0.33845198 42:-0.077737935 43:0.074302964 44:-0.67370105 45:0.19931833 46:0.20471616 47:0.20736316 48:-0.081504673 49:-0.10247912 50:-0.19490781 51:-0.26398203 52:-0.57299143 53:0.21224332 54:0.10043304 55:-0.50759017 56:0.69156599 57:0.10251601 58:0.52050024 59:0.08134231 60:0.49527216  |EV| 
0.052996283084729776946542045834576 1:-0.291475 2:-0.44980377 3:0.080685146 4:-0.17497362 5:-0.052590333 6:0.32296041 7:-1.1391494 8:-0.70740962 9:1.2517464 10:0.15088399 11:-0.23921661 12:0.30310604 13:-0.23507395 14:-0.79787022 15:0.3282896 16:0.19163376 17:0.14015418 18:-0.19893308 19:0.36111048 20:0.36104608 21:0.46742249 22:-0.15012786 23:0.32181311 24:0.32013571 25:0.13985813 26:0.13296077 27:0.27338862 28:0.21025071 29:0.50623786 30:-0.082408525 31:-1.3140695 32:-0.22873604 33:0.11558139 34:-0.28161868 35:0.3497721 36:0.57179689 37:0.26301077 38:-0.023490995 39:0.10681737 40:-0.0074740723 41:0.25931239 42:0.033044528 43:-0.43616253 44:0.14244448 45:0.44788274 46:-0.15231635 47:-0.60781705 48:-0.24099214 49:0.27311745 50:-0.48697519 51:-0.96046305 52:-0.21017607 53:0.062447634 54:-0.3362734 55:-0.45703596 56:0.33075058 57:0.58987945 58:0.25316414 59:-0.17615485 60:0.92459166  |EV| 
0.052996283084729776946542045834576 1:-0.17401345 2:0.069921896 3:0.033402372 4:-0.25694555 5:0.37243766 6:-0.28785682 7:-0.14148755 8:-0.39780957 9:0.30782515 10:-0.6356892 11:-0.71624863 12:-0.19869296 13:-0.038604394 14:-0.57946116 15:0.44283041 16:0.15640943 17:0.68255424 18:-0.14053199 19:0.064242147 20:-0.14477299 21:-0.2116174 22:-0.16552103 23:-0.43769997 24:-0.32177013 25:0.3454074 26:-0.37373811 27:0.23456647 28:-0.24269189 29:0.025007404 30:0.43619069 31:-1.3019593 32:-0.54113758 33:-0.19413273 34:-0.56328285 35:0.23006502 36:-0.21269953 37:0.40268022 38:0.23384896 39:-0.63361168 40:0.17381699 41:0.68271798 42:0.25400528 43:0.99866319 44:0.24376391 45:0.53674173 46:0.35411152 47:-0.23295338 48:-0.33414108 49:-0.20108885 50:-0.96823955 51:0.079720743 52:0.71110946 53:-0.88353711 54:0.29668728 55:-0.14378348 56:0.7255004 57:0.30586615 58:-0.17100178 59:0.056174029 60:-0.44254699  |EV| 
-0.052996283084729776946542045834576 1:0.101928 2:0.67207253 3:0.35653442 4:-0.3588379 5:0.23489362 6:0.35540214 7:-0.17886692 8:-0.31033003 9:1.3922331 10:-0.64497465 11:0.53421283 12:0.1316389 13:-0.04617269 14:-0.83195931 15:-0.22874261 16:-0.46812689 17:-0.43059182 18:-0.10026652 19:-0.24312611 20:1.6166922 21:0.57165366 22:-0.31166545 23:-0.36055031 24:0.25583687 25:0.57788539 26:0.11150077 27:-0.071954772 28:1.2325152 29:-0.20913437 30:0.27370569 31:-0.39857906 32:-0.012561479 33:-0.22210778 34:0.55787325 35:0.090806141 36:-0.14642721 37:-0.62394398 38:0.11764193 39:0.31009319 40:-0.20078762 41:-0.026544046 42:0.2553634 43:-0.13500436 44:0.048052095 45:-0.21736276 46:-0.92744648 47:-0.35555878 48:0.064255513 49:0.40042827 50:0.075362571 51:-0.2750378 52:-0.21132927 53:-0.14992288 54:0.17850552 55:0.27621356 56:0.013145308 57:-0.0053033321 58:0.18634072 59:-0.12757045 60:-0.09649092  |EV| 
-0.052996283084729776946542045834576 1:1.1249331 2:-0.32099062 3:0.0029425158 4:-1.4886981 5:0.31824639 6:0.5837943 7:-0.45022434 8:1.4399294 9:0.60542953 10:-0.81326944 11:0.097542986 12:0.40063688 13:-0.41436759 14:0.36184913 15:0.83599657 16:-1.1090823 17:-0.5436998 18:-2.1096911 19:1.7579938 20:-0.82465112 21:0.12614502 22:0.02699846 23:-0.42990029 24:0.05214756 25:0.89746535 26:-0.13241802 27:0.61707234 28:-0.59294212 29:-0.50265563 30:0.0056370758 31:-0.31794098 32:-0.59845567 33:-0.66273677 34:0.77710605 35:-0.092271179 36:-0.39605904 37:-0.29177997 38:0.15414365 39:-0.34174317 40:-0.48189965 41:-0.0028968502 42:-0.048709273 43:0.43101001 44:-0.55815035 45:-0.14729932 46:-0.24467495 47:-0.1454276 48:-0.045984842 49:0.15811209 50:0.089785218 51:-0.19841474 52:-0.65373659 53:-0.44965804 54:0.50985163 55:-0.10973153 56:-0.14063413 57:0.037707556 58:0.60973895 59:0.30057994 60:0.1116074  |EV| 
0.052996283084729776946542045834576 1:0.79286897 2:-0.89820635 3:-0.27972704 4:0.43475056 5:0.46201447 6:-0.22088945 7:-0.12790428 8:-0.090043724 9:0.56650817 10:0.26078182 11:-0.39368096 12:-0.43185747 13:0.60569906 14:-0.83371097 15:0.34817353 16:0.33442664 17:0.72990745 18:-1.105914 19:0.37878251 20:-0.54549944 21:2.4259889 22:0.64820856 23:0.64947891 24:1.086309 25:0.15770657 26:1.1621124 27:1.2697257 28:1.5848024 29:-1.4968942 30:0.66293895 31:-0.57701677 32:0.4759694 33:-0.02128849 34:1.2482859 35:-1.8014613 36:0.2918908 37:0.88641852 38:-1.0908723 39:0.14863253 40:-1.172369 41:0.4402034 42:0.20572118 43:0.41495439 44:0.91060114 45:0.60702634 46:-0.75396937 47:0.062883019 48:-0.093538694 49:-0.097060055 50:0.26190874 51:0.21581976 52:-0.35710126 53:-0.2230777 54:0.5604769 55:0.53661221 56:0.54041225 57:-0.14988539 58:-0.58473974 59:-0.051048875 60:0.086835444  |EV| 
0.038954144089149697616214496065368 1:-0.72334397 2:-0.041643202 3:-0.63708353 4:0.41971153 5:1.2304704 6:0.23103078 7:0.89834487 8:-0.77055007 9:-0.39412048 10:-0.403032 11:-0.22697441 12:0.092862189 13:-0.22923733 14:-0.15577176 15:0.32779911 16:-0.31583861 17:0.99661642 18:-0.16963807 19:-0.42166969 20:-0.41385192 21:-1.3354013 22:-0.024878757 23:-0.51926476 24:-0.083294049 25:-0.35567826 26:0.23710211 27:2.7209692 28:-0.29866475 29:-0.79837662 30:0.30049643 31:-0.38223156 32:0.5009501 33:-0.74287069 34:0.35503629 35:-0.23942485 36:-0.18377538 37:-1.4270092 38:0.82130569 39:-0.39351279 40:0.53066427 41:-0.24884933 42:-0.8939389 43:0.093139142 44:-0.19875097 45:-0.98645836 46:-1.100121 47:-0.36258805 48:-0.53596848 49:0.35266456 50:0.24345951 51:-0.11391593 52:-0.30805239 53:0.36321074 54:0.11129697 55:1.0956929 56:0.74221772 57:0.05745412 58:0.23667042 59:-0.0027956674 60:0.53764671  |EV| 
-0.052996283084729776946542045834576 1:-0.57829547 2:-0.69507968 3:-0.42706522 4:0.70201617 5:1.3431708 6:0.79862386 7:0.57093477 8:-1.2441592 9:0.64532012 10:-0.073496528 11:-0.59823865 12:0.32386336 13:-0.42502502 14:-0.53367805 15:-0.068847492 16:0.077852391 17:0.93667614 18:0.35227904 19:0.60886723 20:-0.84790373 21:0.12614502 22:0.02699846 23:-0.42990029 24:0.05214756 25:0.89746535 26:-0.13241802 27:0.61707234 28:-0.59294212 29:-0.50265563 30:0.0056370758 31:-0.31794098 32:-0.59845567 33:-0.66273677 34:0.77710605 35:-0.092271179 36:-0.39605904 37:-0.29177997 38:0.15414365 39:-0.34174317 40:-0.48189965 41:-0.23158842 42:-0.19710608 43:0.20596577 44:-0.044997815 45:-0.35073695 46:-0.63445324 47:0.34360829 48:-0.17718446 49:0.27137354 50:0.13078965 51:0.073426463 52:-0.67304158 53:-0.46444151 54:0.076796919 55:-0.136127 56:-0.07014966 57:-0.49546933 58:0.46836048 59:-0.41470119 60:-0.20131758  |EV| 
0.052996283084729776946542045834576 1:0.34551615 2:0.38933328 3:1.0896397 4:0.79559219 5:-1.4574734 6:0.438768 7:0.83059412 8:0.005762218 9:0.80589032 10:-1.2166092 11:-1.0109738 12:-1.2020355 13:0.28925759 14:-0.46340114 15:-0.11022496 16:-2.3696771 17:1.0383689 18:-0.78018755 19:-0.72536105 20:-1.1861923 21:-0.22626172 22:0.60609436 23:-0.92299914 24:-0.85824674 25:0.30025491 26:-0.020212501 27:-0.58900964 28:-0.55109859 29:-0.41686302 30:0.27606809 31:-0.95431733 32:-0.78751957 33:0.3613345 34:0.16464807 35:-0.11310446 36:-0.72852153 37:0.45280558 38:-0.60207987 39:0.36638147 40:0.34955817 41:-0.18685138 42:0.41706783 43:-0.1027287 44:-0.25279167 45:0.53302509 46:-0.79368877 47:0.42756596 48:-0.23320504 49:-0.099326149 50:-0.35908514 51:-0.094260789 52:0.26659527 53:-0.08844763 54:0.24138539 55:-0.24128227 56:-0.42194465 57:-0.36284095 58:-0.19401889 59:-0.01226477 60:-0.11394659  |EV| 
0.052996283084729776946542045834576 1:-0.1962485 2:0.1605062 3:0.33363727 4:-0.16701007 5:0.34544301 6:-0.57299179 7:-0.50615507 8:0.2835663 9:0.33790877 10:-1.670305 11:-0.81123447 12:-0.15873086 13:-1.123937 14:-0.19571216 15:0.87961441 16:1.630999 17:0.45514801 18:0.80324423 19:2.0985606 20:-0.46334833 21:0.00055038929 22:0.073892519 23:0.35990015 24:-0.057147935 25:0.22423741 26:-0.56844097 27:-0.34272376 28:-0.19168587 29:0.32151991 30:-0.60376263 31:-0.058832824 32:-0.31696221 33:-0.25594997 34:-0.48757058 35:0.35023311 36:0.00091721863 37:-0.20858105 38:0.47439387 39:0.59198558 40:-0.49340409 41:0.23617662 42:0.55720633 43:-0.61053431 44:-0.91720754 45:0.67016155 46:-0.26538539 47:0.80378902 48:-0.28718585 49:0.46447495 50:-1.0556531 51:0.61350435 52:0.25287727 53:0.068622366 54:-0.79947931 55:0.38417736 56:0.68430829 57:0.18052542 58:0.40932482 59:-0.22470163 60:-0.089714944  |EV| 
-0.052996283084729776946542045834576 1:-0.57829547 2:-0.69507968 3:-0.42706522 4:0.70201617 5:1.3431708 6:0.79862386 7:0.57093477 8:-1.2441592 9:0.64532012 10:-0.073496528 11:-0.59823865 12:0.32386336 13:-0.42502502 14:-0.53367805 15:-0.068847492 16:0.077852391 17:0.93667614 18:0.35227904 19:0.60886723 20:-0.84790373 21:0.58754289 22:-0.063565888 23:1.4955974 24:0.68096823 25:0.0050412696 26:0.63202167 27:-0.45814726 28:-0.45264766 29:0.94810855 30:-0.06038522 31:0.35023367 32:-0.27451205 33:-0.046696573 34:0.81808788 35:-1.9809771 36:-1.7505254 37:-0.58902454 38:-0.76625961 39:0.48403022 40:-0.60768038 41:-0.37540433 42:0.46082202 43:0.12004494 44:0.18949369 45:0.022528796 46:-0.38414446 47:-0.081900381 48:-0.12710218 49:-0.3081024 50:-0.18190952 51:0.42402181 52:0.052025679 53:-0.44784376 54:0.19956475 55:0.68951589 56:0.15232021 57:-0.11414424 58:0.28712705 59:0.057167519 60:-0.56991446  |EV| 
-0.052996283084729776946542045834576 1:-0.57829547 2:-0.69507968 3:-0.42706522 4:0.70201617 5:1.3431708 6:0.79862386 7:0.57093477 8:-1.2441592 9:0.64532012 10:-0.073496528 11:-0.59823865 12:0.32386336 13:-0.42502502 14:-0.53367805 15:-0.068847492 16:0.077852391 17:0.93667614 18:0.35227904 19:0.60886723 20:-0.84790373 21:0.58754289 22:-0.063565888 23:1.4955974 24:0.68096823 25:0.0050412696 26:0.63202167 27:-0.45814726 28:-0.45264766 29:0.94810855 30:-0.06038522 31:0.35023367 32:-0.27451205 33:-0.046696573 34:0.81808788 35:-1.9809771 36:-1.7505254 37:-0.58902454 38:-0.76625961 39:0.48403022 40:-0.60768038 41:-0.41352418 42:-0.47180727 43:0.55187672 44:-0.13070621 45:-0.081875488 46:-0.64162618 47:-0.17327803 48:-0.98483723 49:0.43750212 50:0.63422519 51:-0.01807748 52:-0.22074144 53:-0.038875215 54:0.24790916 55:0.27056023 56:-0.36029586 57:0.059853539 58:0.45067266 59:-0.03259661 60:-0.1402297  |EV| 
-0.052996283084729776946542045834576 1:-0.71335697 2:0.50959659 3:0.26391077 4:0.065650262 5:0.66949487 6:-0.17431901 7:-0.33439627 8:-0.02829353 9:0.88053167 10:0.28217795 11:0.17854381 12:-0.47709221 13:-0.61194348 14:-0.53664845 15:0.54339844 16:-0.30300087 17:0.61908787 18:-0.071427368 19:-0.26196775 20:-0.45667711 21:0.58754289 22:-0.063565888 23:1.4955974 24:0.68096823 25:0.0050412696 26:0.63202167 27:-0.45814726 28:-0.45264766 29:0.94810855 30:-0.06038522 31:0.35023367 32:-0.27451205 33:-0.046696573 34:0.81808788 35:-1.9809771 36:-1.7505254 37:-0.58902454 38:-0.76625961 39:0.48403022 40:-0.60768038 41:0.16017923 42:-0.10393551 43:-0.33855912 44:0.17851168 45:-0.091190785 46:-0.87696189 47:-0.63243991 48:-0.17924908 49:0.03149971 50:0.32041615 51:-0.2499091 52:0.16881724 53:-0.20551708 54:0.81423169 55:0.54810756 56:-0.19332331 57:-0.18753828 58:0.21411563 59:0.050095618 60:-0.16443679  |EV| 
-0.052996283084729776946542045834576 1:-0.57829547 2:-0.69507968 3:-0.42706522 4:0.70201617 5:1.3431708 6:0.79862386 7:0.57093477 8:-1.2441592 9:0.64532012 10:-0.073496528 11:-0.59823865 12:0.32386336 13:-0.42502502 14:-0.53367805 15:-0.068847492 16:0.077852391 17:0.93667614 18:0.35227904 19:0.60886723 20:-0.84790373 21:0.58754289 22:-0.063565888 23:1.4955974 24:0.68096823 25:0.0050412696 26:0.63202167 27:-0.45814726 28:-0.45264766 29:0.94810855 30:-0.06038522 31:0.35023367 32:-0.27451205 33:-0.046696573 34:0.81808788 35:-1.9809771 36:-1.7505254 37:-0.58902454 38:-0.76625961 39:0.48403022 40:-0.60768038 41:0.27633908 42:0.11035863 43:0.36367196 44:-0.097873643 45:-0.4225449 46:-1.079978 47:-0.050039355 48:-0.56258428 49:0.18653361 50:0.02690139 51:0.46318582 52:0.40124768 53:-0.17785682 54:0.75007534 55:-0.30483893 56:-0.60074133 57:0.14991483 58:-0.056477156 59:-0.1146108 60:0.38762695  |EV| 
0.046143969725263161985040483159537 1:0.73796135 2:0.59442621 3:-2.6549079 4:0.67955369 5:1.8925142 6:-0.57051921 7:-0.5573988 8:-0.71405852 9:0.86584163 10:0.23500083 11:0.89061284 12:-0.90298253 13:-1.2643657 14:-1.3112885 15:1.0176876 16:-0.61622816 17:0.21858615 18:-0.5271858 19:-0.28553319 20:0.52756447 21:-0.57014865 22:-0.45809728 23:0.32381144 24:0.30183411 25:1.9776579 26:-0.76480567 27:-0.11288455 28:0.29899144 29:0.52402949 30:0.16671658 31:0.30904359 32:0.50297332 33:0.22808133 34:0.29202798 35:0.44267315 36:-0.3525925 37:-0.47529548 38:-0.15484074 39:0.17070629 40:0.49649316 41:0.29376927 42:0.11223458 43:0.47364381 44:0.30877212 45:0.22835845 46:-0.29893512 47:0.14822944 48:-0.87212789 49:0.582057 50:0.18143784 51:0.010913686 52:-0.34568119 53:-0.06787543 54:-0.055778489 55:-0.0057867393 56:-0.058465231 57:0.11253432 58:0.47087559 59:-0.41605499 60:0.062655911  |EV| 
0.052996283084729776946542045834576 1:-0.44991916 2:-0.3808237 3:0.72673285 4:-0.35749659 5:1.1727165 6:0.33631155 7:-0.30029744 8:-1.330119 9:-0.18752532 10:-0.30133277 11:-0.15279713 12:0.50978941 13:1.1653962 14:-0.56402457 15:-0.21289249 16:-0.73296416 17:-0.082252413 18:-0.46406606 19:-0.1581459 20:0.33426386 21:-0.2541478 22:-0.39885715 23:-0.2889024 24:-0.14183556 25:0.78526706 26:0.31045052 27:0.54736179 28:-0.4536615 29:-0.1364228 30:1.0988621 31:-0.68069476 32:-0.1277959 33:0.23237018 34:-0.4836503 35:0.91077679 36:-0.39611328 37:0.10012764 38:0.42012358 39:0.16954052 40:0.030488534 41:-0.85434747 42:-0.61673009 43:0.48507288 44:-0.06732367 45:-0.32464939 46:0.35220188 47:-0.50397396 48:-0.20660739 49:-0.37146616 50:-0.037001926 51:0.67773026 52:-0.3780905 53:0.65256435 54:1.2006519 55:0.12900123 56:0.77316773 57:0.69144017 58:0.11736529 59:-0.15141223 60:0.27750614  |EV| 
0.052996283084729776946542045834576 1:-0.93000472 2:-0.044117492 3:0.17200281 4:-0.34882283 5:0.27568787 6:0.36501878 7:0.042028621 8:0.23574466 9:0.91066664 10:0.80281281 11:0.60959816 12:-0.36605319 13:-0.040107638 14:-0.88496202 15:0.71073002 16:-0.73582494 17:0.11843302 18:-0.41018617 19:0.39416495 20:0.48122281 21:0.14371909 22:-0.25819916 23:0.016492665 24:-0.18996774 25:0.54033768 26:0.6741305 27:0.42086589 28:-0.26850468 29:-0.12566203 30:1.0189152 31:-0.26844993 32:-0.30519384 33:0.67700714 34:-0.56437916 35:0.91812539 36:-0.062055424 37:-0.12591897 38:0.03948532 39:0.29251975 40:0.068547435 41:0.88932657 42:-0.19029947 43:0.070206389 44:-0.065068737 45:-0.23827462 46:-0.74412769 47:-0.13958597 48:-0.82173634 49:0.24414304 50:-0.059316315 51:-0.34439239 52:0.52480239 53:0.95966715 54:-0.36989737 55:0.16262923 56:0.62656921 57:1.3253893 58:1.1820942 59:-0.17447381 60:1.266553  |EV| 
0.012085608714259144305658288942595 1:-0.3264704 2:-0.07707943 3:-0.39667675 4:-0.68452978 5:0.77558541 6:0.37047687 7:0.2593056 8:0.2527518 9:0.27119261 10:0.70033586 11:0.54751915 12:-0.52965945 13:0.5132944 14:-1.1012442 15:0.76793832 16:-0.95625758 17:0.011943132 18:-0.33114362 19:0.21159939 20:0.5658834 21:0.36233684 22:-0.209833 23:-1.2507159 24:0.30667859 25:0.75503087 26:0.65341526 27:0.92729586 28:0.45813611 29:0.80967283 30:0.3636916 31:0.2261041 32:-0.54081202 33:-0.25347281 34:-0.48319444 35:1.5210804 36:-1.3040756 37:0.39627352 38:0.4402011 39:-0.24645936 40:-0.70002168 41:0.076509885 42:0.66382569 43:-0.22369628 44:-0.73891091 45:0.41760892 46:-0.74219817 47:-0.74540877 48:-0.37205687 49:-0.91102493 50:-0.30045816 51:0.31775674 52:-0.50446475 53:0.31693795 54:0.96962625 55:0.45531264 56:0.22410373 57:-0.57205278 58:0.18889919 59:0.14862628 60:-0.17920713  |EV| 
-0.052996283084729776946542045834576 1:-0.29158291 2:0.25461161 3:0.54890895 4:0.58099252 5:0.077604294 6:-0.19153616 7:0.77621353 8:-0.58965844 9:0.050285526 10:0.1223676 11:-0.1335566 12:-0.37463188 13:-0.57229877 14:0.29053146 15:0.243071 16:-1.5146728 17:0.17341347 18:-0.051576931 19:-0.75127631 20:0.099488236 21:0.12614502 22:0.02699846 23:-0.42990029 24:0.05214756 25:0.89746535 26:-0.13241802 27:0.61707234 28:-0.59294212 29:-0.50265563 30:0.0056370758 31:-0.31794098 32:-0.59845567 33:-0.66273677 34:0.77710605 35:-0.092271179 36:-0.39605904 37:-0.29177997 38:0.15414365 39:-0.34174317 40:-0.48189965 41:0.88932657 42:-0.19029947 43:0.070206389 44:-0.065068737 45:-0.23827462 46:-0.74412769 47:-0.13958597 48:-0.82173634 49:0.24414304 50:-0.059316315 51:-0.34439239 52:0.52480239 53:0.95966715 54:-0.36989737 55:0.16262923 56:0.62656921 57:1.3253893 58:1.1820942 59:-0.17447381 60:1.266553  |EV| 
-0.052996283084729776946542045834576 1:0.101928 2:0.67207253 3:0.35653442 4:-0.3588379 5:0.23489362 6:0.35540214 7:-0.17886692 8:-0.31033003 9:1.3922331 10:-0.64497465 11:0.53421283 12:0.1316389 13:-0.04617269 14:-0.83195931 15:-0.22874261 16:-0.46812689 17:-0.43059182 18:-0.10026652 19:-0.24312611 20:1.6166922 21:-0.76149982 22:-0.22415014 23:0.77361119 24:-0.046904903 25:0.34316951 26:-0.48183751 27:0.19289483 28:-0.090694293 29:1.0441943 30:-0.22645834 31:-0.24094062 32:0.31388685 33:-0.3777872 34:0.70591748 35:0.14158389 36:1.6756468 37:0.53217381 38:-0.25859261 39:-0.16153443 40:-0.44832316 41:0.13861588 42:-0.15500388 43:0.019486243 44:-0.83570391 45:0.26829639 46:-0.7057426 47:0.085101604 48:-0.40490538 49:0.19696113 50:0.11841394 51:0.12055267 52:0.22575657 53:0.38541114 54:-0.16674148 55:-0.07759659 56:0.77240479 57:0.2845934 58:-0.27248538 59:0.18081863 60:0.025027394  |EV| 
-0.041508864227595934637271568590222 1:0.101928 2:0.67207253 3:0.35653442 4:-0.3588379 5:0.23489362 6:0.35540214 7:-0.17886692 8:-0.31033003 9:1.3922331 10:-0.64497465 11:0.53421283 12:0.1316389 13:-0.04617269 14:-0.83195931 15:-0.22874261 16:-0.46812689 17:-0.43059182 18:-0.10026652 19:-0.24312611 20:1.6166922 21:-0.43739381 22:-0.73028386 23:-0.86930901 24:0.42632028 25:1.55669 26:-0.83631527 27:-0.92525947 28:0.30759075 29:0.22118923 30:0.85556716 31:0.036167614 32:-0.06911765 33:-0.64451623 34:0.16027281 35:1.0792327 36:-0.13119368 37:-0.53304523 38:-0.075187929 39:-0.34741002 40:-0.79085165 41:-0.33418661 42:-0.37896293 43:0.4662092 44:-0.42849573 45:0.092389897 46:0.35891271 47:0.70566934 48:0.2225057 49:-0.55383193 50:0.22198667 51:0.15283033 52:-0.39130202 53:-0.95176911 54:0.18623905 55:-1.0586208 56:0.6538462 57:0.25770438 58:-0.28099012 59:0.23297684 60:0.60919815  |EV| 
-0.052996283084729776946542045834576 1:-0.29158291 2:0.25461161 3:0.54890895 4:0.58099252 5:0.077604294 6:-0.19153616 7:0.77621353 8:-0.58965844 9:0.050285526 10:0.1223676 11:-0.1335566 12:-0.37463188 13:-0.57229877 14:0.29053146 15:0.243071 16:-1.5146728 17:0.17341347 18:-0.051576931 19:-0.75127631 20:0.099488236 21:0.12614502 22:0.02699846 23:-0.42990029 24:0.05214756 25:0.89746535 26:-0.13241802 27:0.61707234 28:-0.59294212 29:-0.50265563 30:0.0056370758 31:-0.31794098 32:-0.59845567 33:-0.66273677 34:0.77710605 35:-0.092271179 36:-0.39605904 37:-0.29177997 38:0.15414365 39:-0.34174317 40:-0.48189965 41:0.61497915 42:0.26808375 43:-0.1802838 44:0.33354533 45:0.227652 46:-0.43887764 47:0.71275133 48:-0.67438143 49:0.14236277 50:-0.30954149 51:-0.29839343 52:-0.98314685 53:-0.67285043 54:0.068550244 55:0.24048693 56:0.21401918 57:-0.74267393 58:0.31993508 59:0.045608982 60:0.0094753783  |EV| 
0.052996283084729776946542045834576 1:-0.063070089 2:1.0485936 3:0.52337956 4:0.4417001 5:0.26759508 6:0.45997474 7:-1.0402437 8:-0.3494201 9:1.3331633 10:0.11723762 11:0.34826136 12:0.2883113 13:-0.24831051 14:-0.91071296 15:-0.82852203 16:-0.052276008 17:1.344892 18:0.37814438 19:1.0414129 20:0.9945485 21:0.73879081 22:-0.64389086 23:0.91383135 24:0.31148404 25:-0.26309335 26:0.39423701 27:0.65710843 28:-0.33941138 29:0.37405509 30:0.59614605 31:-0.41894341 32:0.37837213 33:-0.86295855 34:0.39251953 35:-0.50667989 36:-0.57705897 37:-0.032889903 38:0.18962733 39:1.0082982 40:0.14699358 41:0.90429276 42:0.23462623 43:-0.50813127 44:-0.73263144 45:-0.38137898 46:-1.1211846 47:-0.23166591 48:-0.37101075 49:0.49097309 50:0.17942138 51:-0.049731709 52:0.11239735 53:-0.86818582 54:0.37472221 55:-0.069298044 56:-0.0079476787 57:-0.18261452 58:0.2360131 59:-0.26061374 60:0.54781592  |EV| 
0.052996283084729776946542045834576 1:0.975164 2:-0.59357476 3:1.8081347 4:-0.32332024 5:0.76205295 6:1.6319063 7:0.73059988 8:0.040285148 9:0.81161046 10:-0.13949251 11:-0.24057582 12:-0.69955486 13:-0.95998704 14:1.0209892 15:0.55277795 16:0.39401856 17:1.422729 18:-0.60153693 19:0.37815651 20:-0.25408915 21:0.18786663 22:-0.92434829 23:1.1054671 24:0.52484018 25:0.26656121 26:-0.0065419301 27:0.55826223 28:0.31748396 29:0.54194421 30:0.46600282 31:-0.40379912 32:0.38388711 33:-1.1432148 34:1.0308889 35:-0.064130202 36:-0.2940892 37:-0.066087395 38:-0.35813144 39:0.49212503 40:-0.11079787 41:0.52997494 42:0.55940801 43:0.54933912 44:0.074289143 45:-0.78748572 46:-0.71513301 47:-0.70901966 48:-0.33157754 49:0.62435269 50:-0.25661027 51:-0.21511723 52:0.5149048 53:-0.38685116 54:0.12089406 55:0.006817691 56:0.18950219 57:-0.10356589 58:-0.091915481 59:-0.57661319 60:-0.11573601  |EV| 
0.052996283084729776946542045834576 1:-0.063070089 2:1.0485936 3:0.52337956 4:0.4417001 5:0.26759508 6:0.45997474 7:-1.0402437 8:-0.3494201 9:1.3331633 10:0.11723762 11:0.34826136 12:0.2883113 13:-0.24831051 14:-0.91071296 15:-0.82852203 16:-0.052276008 17:1.344892 18:0.37814438 19:1.0414129 20:0.9945485 21:1.1403543 22:0.0022246093 23:0.044660445 24:0.43539888 25:-0.20306528 26:-0.33154196 27:0.87511814 28:-0.57133913 29:0.53389293 30:0.10941008 31:-0.29746267 32:0.74388039 33:-0.50483727 34:0.72174144 35:-0.054851193 36:-1.3162707 37:0.90525091 38:0.66292298 39:1.3542144 40:-0.078481212 41:0.90429276 42:0.23462623 43:-0.50813127 44:-0.73263144 45:-0.38137898 46:-1.1211846 47:-0.23166591 48:-0.37101075 49:0.49097309 50:0.17942138 51:-0.049731709 52:0.11239735 53:-0.86818582 54:0.37472221 55:-0.069298044 56:-0.0079476787 57:-0.18261452 58:0.2360131 59:-0.26061374 60:0.54781592  |EV| 
-0.052996283084729776946542045834576 1:-0.57829547 2:-0.69507968 3:-0.42706522 4:0.70201617 5:1.3431708 6:0.79862386 7:0.57093477 8:-1.2441592 9:0.64532012 10:-0.073496528 11:-0.59823865 12:0.32386336 13:-0.42502502 14:-0.53367805 15:-0.068847492 16:0.077852391 17:0.93667614 18:0.35227904 19:0.60886723 20:-0.84790373 21:0.22299825 22:0.6744225 23:0.1770277 24:0.42034644 25:0.81165141 26:-0.022711832 27:0.88454753 28:-0.51654553 29:0.59437627 30:0.090459943 31:-0.29304495 32:0.02845088 33:-0.68057227 34:0.62186378 35:-0.0092179766 36:0.16441804 37:0.93391162 38:-0.39747146 39:0.32980612 40:0.019260367 41:0.081152216 42:-0.60589141 43:-0.51170361 44:0.21639386 45:-0.12530608 46:0.56062376 47:0.28759763 48:-0.4891246 49:0.97800469 50:0.74423027 51:0.27825961 52:-0.17719661 53:0.059789333 54:0.27140209 55:0.48959485 56:0.0098698633 57:0.37076578 58:0.0026585739 59:-0.75174814 60:-0.47325784  |EV| 
-0.052996283084729776946542045834576 1:-0.57829547 2:-0.69507968 3:-0.42706522 4:0.70201617 5:1.3431708 6:0.79862386 7:0.57093477 8:-1.2441592 9:0.64532012 10:-0.073496528 11:-0.59823865 12:0.32386336 13:-0.42502502 14:-0.53367805 15:-0.068847492 16:0.077852391 17:0.93667614 18:0.35227904 19:0.60886723 20:-0.84790373 21:0.22299825 22:0.6744225 23:0.1770277 24:0.42034644 25:0.81165141 26:-0.022711832 27:0.88454753 28:-0.51654553 29:0.59437627 30:0.090459943 31:-0.29304495 32:0.02845088 33:-0.68057227 34:0.62186378 35:-0.0092179766 36:0.16441804 37:0.93391162 38:-0.39747146 39:0.32980612 40:0.019260367 41:-0.41491559 42:0.87421817 43:-0.48928946 44:0.069002084 45:0.1536196 46:-0.30798167 47:-0.7861715 48:-0.17390162 49:0.55604184 50:0.0066395472 51:0.35231996 52:0.14324194 53:-0.35469952 54:-0.43907586 55:-0.580576 56:0.16922544 57:-0.085536055 58:-0.00097495929 59:-0.22399585 60:-0.039484669  |EV| 
-0.052996283084729776946542045834576 1:-0.57829547 2:-0.69507968 3:-0.42706522 4:0.70201617 5:1.3431708 6:0.79862386 7:0.57093477 8:-1.2441592 9:0.64532012 10:-0.073496528 11:-0.59823865 12:0.32386336 13:-0.42502502 14:-0.53367805 15:-0.068847492 16:0.077852391 17:0.93667614 18:0.35227904 19:0.60886723 20:-0.84790373 21:0.22299825 22:0.6744225 23:0.1770277 24:0.42034644 25:0.81165141 26:-0.022711832 27:0.88454753 28:-0.51654553 29:0.59437627 30:0.090459943 31:-0.29304495 32:0.02845088 33:-0.68057227 34:0.62186378 35:-0.0092179766 36:0.16441804 37:0.93391162 38:-0.39747146 39:0.32980612 40:0.019260367 41:-0.37540433 42:0.46082202 43:0.12004494 44:0.18949369 45:0.022528796 46:-0.38414446 47:-0.081900381 48:-0.12710218 49:-0.3081024 50:-0.18190952 51:0.42402181 52:0.052025679 53:-0.44784376 54:0.19956475 55:0.68951589 56:0.15232021 57:-0.11414424 58:0.28712705 59:0.057167519 60:-0.56991446  |EV| 
-0.052996283084729776946542045834576 1:-0.57829547 2:-0.69507968 3:-0.42706522 4:0.70201617 5:1.3431708 6:0.79862386 7:0.57093477 8:-1.2441592 9:0.64532012 10:-0.073496528 11:-0.59823865 12:0.32386336 13:-0.42502502 14:-0.53367805 15:-0.068847492 16:0.077852391 17:0.93667614 18:0.35227904 19:0.60886723 20:-0.84790373 21:0.22299825 22:0.6744225 23:0.1770277 24:0.42034644 25:0.81165141 26:-0.022711832 27:0.88454753 28:-0.51654553 29:0.59437627 30:0.090459943 31:-0.29304495 32:0.02845088 33:-0.68057227 34:0.62186378 35:-0.0092179766 36:0.16441804 37:0.93391162 38:-0.39747146 39:0.32980612 40:0.019260367 41:-0.066191345 42:0.30863518 43:0.23298687 44:-0.050812595 45:-0.3275699 46:-0.20003526 47:-0.12785105 48:0.15834604 49:-0.14329413 50:0.002188849 51:-0.53736591 52:0.63604546 53:-0.052674461 54:0.14262637 55:0.51538807 56:0.14026859 57:0.4080804 58:0.29137364 59:0.20624197 60:0.095007233  |EV| 
-0.052996283084729776946542045834576 1:-0.29158291 2:0.25461161 3:0.54890895 4:0.58099252 5:0.077604294 6:-0.19153616 7:0.77621353 8:-0.58965844 9:0.050285526 10:0.1223676 11:-0.1335566 12:-0.37463188 13:-0.57229877 14:0.29053146 15:0.243071 16:-1.5146728 17:0.17341347 18:-0.051576931 19:-0.75127631 20:0.099488236 21:-0.37726688 22:0.58499545 23:0.63309008 24:-0.10414155 25:0.43431374 26:-0.30693781 27:0.13859938 28:-0.58286858 29:-0.15918508 30:0.34207776 31:-0.50595665 32:-0.43512142 33:-0.26557717 34:-0.073360063 35:-0.32753077 36:0.13727987 37:-0.32080618 38:0.48701227 39:0.05431854 40:-0.77579486 41:0.38779894 42:-0.019732917 43:0.096665032 44:-0.14016195 45:0.099721842 46:-1.3295349 47:0.12712584 48:-0.53407484 49:0.33494872 50:0.52691776 51:0.24162506 52:0.013603881 53:-0.63555735 54:-0.094146073 55:0.31360218 56:-0.28792444 57:-0.89067793 58:0.66636431 59:0.11213138 60:0.22957714  |EV| 
0.012010736911043698102452559339781 1:-0.2460154 2:-1.8377607 3:-0.67098224 4:1.0124443 5:-0.37071258 6:0.78563136 7:-0.022735605 8:1.135823 9:1.1473366 10:-0.37558201 11:0.47740394 12:-0.60962725 13:-0.43893683 14:-0.45545 15:0.011355264 16:-1.274719 17:0.25615463 18:0.56892216 19:-0.33565655 20:0.65088379 21:-1.53935 22:-0.14928009 23:-0.24375957 24:0.35832924 25:-0.36137024 26:1.6846067 27:-0.82514697 28:-1.5852112 29:1.9544059 30:-0.34667695 31:0.22820681 32:1.0813062 33:-1.2880328 34:-0.38975358 35:0.4727273 36:-0.90325391 37:-0.016338354 38:-0.15647277 39:1.1621896 40:-0.9249686 41:0.4866105 42:0.21116646 43:-0.44357932 44:-0.59914148 45:0.54474789 46:0.25109422 47:0.43468115 48:-0.75164777 49:0.435435 50:0.058009788 51:0.49294886 52:0.032911323 53:0.92681444 54:-0.28747344 55:-0.41940135 56:0.69058776 57:0.53583175 58:0.53230214 59:0.29088554 60:0.061299991  |EV| 
0.052996283084729776946542045834576 1:0.27521008 2:-0.015482295 3:-0.44590667 4:-0.13327089 5:0.35017025 6:0.54775506 7:-0.36199391 8:-0.051381864 9:0.40050352 10:-0.36883438 11:-0.26106346 12:-0.7147482 13:-0.57536232 14:-1.5137466 15:0.2143514 16:-0.61165535 17:-0.90134507 18:-0.45099974 19:-0.52118766 20:0.51189762 21:-0.26788658 22:-0.055252556 23:-0.027160563 24:-0.23406166 25:0.2398084 26:-0.33596924 27:-0.28646222 28:0.057668719 29:-0.061138671 30:-0.27483061 31:0.040748123 32:-0.26658976 33:-0.0022901795 34:0.1626385 35:0.072843738 36:-0.092360795 37:-0.14321053 38:0.09357816 39:-0.073738776 40:-0.04585138 41:-0.10197542 42:0.625687 43:-0.19227867 44:-1.3921125 45:-0.12652056 46:0.92277122 47:-0.43194401 48:-0.70971912 49:-0.14018346 50:0.30453679 51:0.25332645 52:-0.22539772 53:-0.57938159 54:-0.060623791 55:-0.018809058 56:0.25289571 57:0.19733188 58:-0.020636996 59:-0.8493523 60:0.16169612  |EV| 
-0.0071585052484401424932602964190664 1:0.101928 2:0.67207253 3:0.35653442 4:-0.3588379 5:0.23489362 6:0.35540214 7:-0.17886692 8:-0.31033003 9:1.3922331 10:-0.64497465 11:0.53421283 12:0.1316389 13:-0.04617269 14:-0.83195931 15:-0.22874261 16:-0.46812689 17:-0.43059182 18:-0.10026652 19:-0.24312611 20:1.6166922 21:0.57165366 22:-0.31166545 23:-0.36055031 24:0.25583687 25:0.57788539 26:0.11150077 27:-0.071954772 28:1.2325152 29:-0.20913437 30:0.27370569 31:-0.39857906 32:-0.012561479 33:-0.22210778 34:0.55787325 35:0.090806141 36:-0.14642721 37:-0.62394398 38:0.11764193 39:0.31009319 40:-0.20078762 41:0.015669422 42:-0.33332923 43:0.050631791 44:0.33616278 45:-0.50431257 46:-0.12932962 47:-0.34276664 48:-0.36626363 49:-0.13708122 50:0.27979809 51:0.18849738 52:0.16896687 53:-0.93836099 54:0.23546004 55:0.13093351 56:-0.12462129 57:0.06506227 58:-0.35229519 59:-0.29993352 60:0.24411504  |EV| 
0.052996283084729776946542045834576 1:0.089726239 2:0.28947133 3:-0.33741474 4:0.43081588 5:0.4381637 6:0.4928506 7:-0.16477284 8:-0.38260674 9:1.1587576 10:0.32840121 11:0.25200078 12:-0.76197845 13:0.10696942 14:-0.70434064 15:0.15082191 16:-0.77614307 17:-0.80075598 18:-0.80480832 19:-0.4735229 20:0.43744239 21:-0.15072864 22:0.31623313 23:-0.69818509 24:0.20655748 25:0.17886151 26:0.84071881 27:-0.28486338 28:-0.2370559 29:-0.21905802 30:-0.33083656 31:-0.32269365 32:-0.63423419 33:-0.25791642 34:0.036422573 35:-0.65366006 36:-0.36470959 37:-0.55897838 38:-0.042653903 39:-0.10077791 40:0.21013546 41:-0.37463632 42:0.4832519 43:0.16598171 44:-0.092734113 45:0.3569757 46:0.65432179 47:0.47566813 48:-0.32485926 49:-0.10447196 50:-0.030760914 51:0.22776154 52:-0.68039191 53:-0.40046391 54:0.65420932 55:-0.88287556 56:0.13078915 57:-0.29267147 58:0.48698634 59:-0.43830642 60:0.49381492  |EV| 
0.052996283084729776946542045834576 1:0.039908756 2:0.32366332 3:0.63010418 4:0.24982591 5:0.49676901 6:0.57435507 7:0.021918837 8:-0.090080932 9:0.46693465 10:-0.32462811 11:0.35613832 12:-1.0817618 13:-0.66956973 14:0.092837572 15:-0.41063961 16:-0.63033503 17:-0.60574359 18:-0.55066341 19:-0.49661136 20:1.3678122 21:0.4331986 22:0.86290008 23:0.13601331 24:0.3065185 25:0.44846424 26:0.62384331 27:-0.52701783 28:-0.37500083 29:1.0303359 30:-0.07770592 31:0.12492953 32:-0.49218097 33:-0.51366264 34:-0.30957854 35:0.16139877 36:-0.57681328 37:-0.64232552 38:-0.77964139 39:-0.15083158 40:0.45246062 41:0.19669014 42:-0.26689419 43:0.00050161511 44:-1.0239712 45:0.14809678 46:-0.020995304 47:0.12438989 48:-0.19723722 49:-0.42928699 50:-0.39138949 51:-0.19424799 52:-0.26081225 53:-0.19336613 54:0.28358117 55:-0.35326388 56:0.038045213 57:-0.42147341 58:0.35114852 59:-0.92924738 60:1.0703421  |EV| 
-0.052996283084729776946542045834576 1:1.2644881 2:0.54415691 3:-0.014844928 4:-0.34776691 5:-0.28917512 6:0.49342403 7:-0.23403729 8:0.0069506876 9:1.0507621 10:-1.2864051 11:-0.24943872 12:-1.5037781 13:0.015774325 14:-0.54133433 15:0.38045114 16:-0.79684627 17:0.37626624 18:0.29714891 19:-0.13371168 20:0.087922424 21:0.53035969 22:0.34218433 23:0.23777491 24:0.037220623 25:-0.065266281 26:-0.30523127 27:-0.47414482 28:0.079302251 29:0.55373424 30:-0.30396697 31:-0.74012488 32:-0.29805276 33:0.10800078 34:0.27047539 35:0.26593068 36:-0.51557881 37:-0.2191402 38:-0.31924075 39:0.30326968 40:0.03794999 41:-0.37463632 42:0.4832519 43:0.16598171 44:-0.092734113 45:0.3569757 46:0.65432179 47:0.47566813 48:-0.32485926 49:-0.10447196 50:-0.030760914 51:0.22776154 52:-0.68039191 53:-0.40046391 54:0.65420932 55:-0.88287556 56:0.13078915 57:-0.29267147 58:0.48698634 59:-0.43830642 60:0.49381492  |EV| 
-0.052996283084729776946542045834576 1:0.101928 2:0.67207253 3:0.35653442 4:-0.3588379 5:0.23489362 6:0.35540214 7:-0.17886692 8:-0.31033003 9:1.3922331 10:-0.64497465 11:0.53421283 12:0.1316389 13:-0.04617269 14:-0.83195931 15:-0.22874261 16:-0.46812689 17:-0.43059182 18:-0.10026652 19:-0.24312611 20:1.6166922 21:0.57165366 22:-0.31166545 23:-0.36055031 24:0.25583687 25:0.57788539 26:0.11150077 27:-0.071954772 28:1.2325152 29:-0.20913437 30:0.27370569 31:-0.39857906 32:-0.012561479 33:-0.22210778 34:0.55787325 35:0.090806141 36:-0.14642721 37:-0.62394398 38:0.11764193 39:0.31009319 40:-0.20078762 41:-0.33418661 42:-0.37896293 43:0.4662092 44:-0.42849573 45:0.092389897 46:0.35891271 47:0.70566934 48:0.2225057 49:-0.55383193 50:0.22198667 51:0.15283033 52:-0.39130202 53:-0.95176911 54:0.18623905 55:-1.0586208 56:0.6538462 57:0.25770438 58:-0.28099012 59:0.23297684 60:0.60919815  |EV| 
-0.052996283084729776946542045834576 1:0.101928 2:0.67207253 3:0.35653442 4:-0.3588379 5:0.23489362 6:0.35540214 7:-0.17886692 8:-0.31033003 9:1.3922331 10:-0.64497465 11:0.53421283 12:0.1316389 13:-0.04617269 14:-0.83195931 15:-0.22874261 16:-0.46812689 17:-0.43059182 18:-0.10026652 19:-0.24312611 20:1.6166922 21:0.66671443 22:-0.73513442 23:-0.059100196 24:0.78586715 25:-0.42968115 26:0.020702109 27:0.66374308 28:-0.075877316 29:0.21725613 30:0.66608566 31:-0.69343299 32:-1.1635199 33:-0.22377339 34:0.78034431 35:0.73919398 36:-0.76987892 37:-0.31510308 38:0.12247329 39:0.67807233 40:0.56264198 41:0.016338538 42:-0.38884106 43:-0.29006919 44:-0.37124726 45:-0.0074766083 46:-0.73169601 47:0.61889011 48:-0.20788939 49:-0.73587531 50:-0.075876802 51:0.19336119 52:-0.0020570436 53:-0.35048816 54:-0.32607448 55:-0.20896688 56:-0.18120579 57:0.22432843 58:0.1914067 59:0.27428243 60:-0.14106183  |EV| 
0.052996283084729776946542045834576 1:0.55243742 2:-0.70904994 3:-0.68636233 4:0.55859071 5:2.2269626 6:-1.0221815 7:1.4474834 8:-1.8043548 9:-0.26293284 10:-0.24328755 11:-0.34422377 12:-0.45274091 13:-0.58767509 14:0.24323812 15:0.41903603 16:-1.7434582 17:0.48323879 18:-0.088398382 19:-0.61148083 20:-0.050848778 21:-0.15324911 22:0.6384027 23:-0.14546283 24:-0.0047941878 25:0.8169722 26:-0.54605001 27:0.88809299 28:-0.59254789 29:-0.53040403 30:0.15612549 31:-0.24129024 32:-0.15018615 33:-0.57523906 34:0.27264768 35:-0.16223904 36:-0.20573662 37:-0.29683158 38:0.27106035 39:-0.083302237 40:-0.36260605 41:0.40277225 42:-0.01343499 43:-0.17421481 44:0.27839583 45:-0.34007096 46:-0.83821023 47:0.21922573 48:-0.49844068 49:0.25610518 50:-0.055719819 51:-0.81179339 52:-0.3637301 53:-0.10001043 54:0.063798539 55:0.7283771 56:-0.19537185 57:-0.50973099 58:0.48870566 59:0.18091778 60:-0.55033535  |EV| 
0.052996283084729776946542045834576 1:0.55243742 2:-0.70904994 3:-0.68636233 4:0.55859071 5:2.2269626 6:-1.0221815 7:1.4474834 8:-1.8043548 9:-0.26293284 10:-0.24328755 11:-0.34422377 12:-0.45274091 13:-0.58767509 14:0.24323812 15:0.41903603 16:-1.7434582 17:0.48323879 18:-0.088398382 19:-0.61148083 20:-0.050848778 21:0.92727888 22:-0.18917435 23:-0.16625893 24:0.14240825 25:1.0060796 26:-0.54702157 27:2.0358005 28:-0.46743685 29:-0.12703754 30:0.59817237 31:-0.44937468 32:0.028602118 33:-1.0619394 34:0.52100748 35:0.14713918 36:-0.80981201 37:-0.0037092427 38:0.2811155 39:0.76523954 40:0.18518795 41:0.40277225 42:-0.01343499 43:-0.17421481 44:0.27839583 45:-0.34007096 46:-0.83821023 47:0.21922573 48:-0.49844068 49:0.25610518 50:-0.055719819 51:-0.81179339 52:-0.3637301 53:-0.10001043 54:0.063798539 55:0.7283771 56:-0.19537185 57:-0.50973099 58:0.48870566 59:0.18091778 60:-0.55033535  |EV| 
0.052996283084729776946542045834576 1:-0.57829547 2:-0.69507968 3:-0.42706522 4:0.70201617 5:1.3431708 6:0.79862386 7:0.57093477 8:-1.2441592 9:0.64532012 10:-0.073496528 11:-0.59823865 12:0.32386336 13:-0.42502502 14:-0.53367805 15:-0.068847492 16:0.077852391 17:0.93667614 18:0.35227904 19:0.60886723 20:-0.84790373 21:-0.093225777 22:0.28366572 23:-0.18763226 24:0.14428133 25:0.78121626 26:-0.29822505 27:0.52666593 28:-0.18680915 29:-0.18708391 30:0.15612644 31:-0.12533499 32:0.36382744 33:0.17254847 34:0.071152307 35:0.063975379 36:0.11032934 37:-0.33906245 38:0.027912214 39:-0.1856821 40:-0.42350394 41:0.081152216 42:-0.60589141 43:-0.51170361 44:0.21639386 45:-0.12530608 46:0.56062376 47:0.28759763 48:-0.4891246 49:0.97800469 50:0.74423027 51:0.27825961 52:-0.17719661 53:0.059789333 54:0.27140209 55:0.48959485 56:0.0098698633 57:0.37076578 58:0.0026585739 59:-0.75174814 60:-0.47325784  |EV| 
0.052996283084729776946542045834576 1:-0.57829547 2:-0.69507968 3:-0.42706522 4:0.70201617 5:1.3431708 6:0.79862386 7:0.57093477 8:-1.2441592 9:0.64532012 10:-0.073496528 11:-0.59823865 12:0.32386336 13:-0.42502502 14:-0.53367805 15:-0.068847492 16:0.077852391 17:0.93667614 18:0.35227904 19:0.60886723 20:-0.84790373 21:-0.0073631927 22:0.30662403 23:-0.24381125 24:-0.015106365 25:0.82050645 26:-0.096733525 27:0.59455115 28:-0.6930998 29:-0.28812188 30:0.2064286 31:-0.69127673 32:-0.21308334 33:-0.29093131 34:0.2974284 35:-0.37596807 36:-0.03706716 37:-0.37818918 38:0.74535811 39:-0.033581071 40:-0.17406577 41:0.081152216 42:-0.60589141 43:-0.51170361 44:0.21639386 45:-0.12530608 46:0.56062376 47:0.28759763 48:-0.4891246 49:0.97800469 50:0.74423027 51:0.27825961 52:-0.17719661 53:0.059789333 54:0.27140209 55:0.48959485 56:0.0098698633 57:0.37076578 58:0.0026585739 59:-0.75174814 60:-0.47325784  |EV| 
0.052996283084729776946542045834576 1:-0.57829547 2:-0.69507968 3:-0.42706522 4:0.70201617 5:1.3431708 6:0.79862386 7:0.57093477 8:-1.2441592 9:0.64532012 10:-0.073496528 11:-0.59823865 12:0.32386336 13:-0.42502502 14:-0.53367805 15:-0.068847492 16:0.077852391 17:0.93667614 18:0.35227904 19:0.60886723 20:-0.84790373 21:-0.15940148 22:0.38797608 23:-0.75340575 24:-0.036769647 25:0.89330208 26:0.27815464 27:0.63762182 28:0.0051757246 29:-0.76688105 30:-0.31529301 31:-0.82484823 32:0.56532168 33:-0.26005369 34:0.15375763 35:0.28840762 36:0.62561482 37:-0.081950642 38:0.013018914 39:-0.06153154 40:-0.57373273 41:-0.11466959 42:-0.55256712 43:0.37516257 44:0.26018387 45:0.1520254 46:0.25656587 47:0.20312379 48:-0.71104151 49:0.77507037 50:0.21745169 51:0.3419483 52:0.23420601 53:-0.55416507 54:0.31538731 55:0.87614578 56:0.76211989 57:0.34034246 58:0.13494307 59:-0.55935311 60:-0.40410164  |EV| 
0.052996283084729776946542045834576 1:0.080804668 2:0.48765665 3:0.45718789 4:-0.94081289 5:-0.76443285 6:0.52079737 7:0.41278785 8:-0.202838 9:0.75900054 10:0.073396318 11:0.2566905 12:0.59755719 13:0.42393535 14:-0.30162394 15:0.29908264 16:-0.80295157 17:0.72600311 18:-0.73769188 19:0.79580516 20:-0.68032664 21:0.34709555 22:0.48951134 23:-0.057523545 24:-0.73072648 25:0.22705033 26:0.12431443 27:0.46542323 28:-0.73631328 29:-0.28931552 30:-0.07401678 31:-0.36105046 32:-0.16939799 33:0.13488682 34:-0.21700227 35:0.5078302 36:-0.7918002 37:0.47437912 38:-0.7698139 39:0.49969104 40:-0.45329353 41:-0.44340372 42:0.21513957 43:0.39142773 44:-0.13615493 45:-0.18780908 46:-0.08691638 47:0.43114364 48:-0.20212543 49:0.14971094 50:0.42087266 51:0.33261773 52:-0.18940407 53:0.51820976 54:0.72733688 55:-0.99766928 56:0.80801064 57:0.0014269887 58:0.2125627 59:0.77333391 60:-0.46798825  |EV| 
-0.052996283084729776946542045834576 1:-0.57829547 2:-0.69507968 3:-0.42706522 4:0.70201617 5:1.3431708 6:0.79862386 7:0.57093477 8:-1.2441592 9:0.64532012 10:-0.073496528 11:-0.59823865 12:0.32386336 13:-0.42502502 14:-0.53367805 15:-0.068847492 16:0.077852391 17:0.93667614 18:0.35227904 19:0.60886723 20:-0.84790373 21:0.53035969 22:0.34218433 23:0.23777491 24:0.037220623 25:-0.065266281 26:-0.30523127 27:-0.47414482 28:0.079302251 29:0.55373424 30:-0.30396697 31:-0.74012488 32:-0.29805276 33:0.10800078 34:0.27047539 35:0.26593068 36:-0.51557881 37:-0.2191402 38:-0.31924075 39:0.30326968 40:0.03794999 41:0.081152216 42:-0.60589141 43:-0.51170361 44:0.21639386 45:-0.12530608 46:0.56062376 47:0.28759763 48:-0.4891246 49:0.97800469 50:0.74423027 51:0.27825961 52:-0.17719661 53:0.059789333 54:0.27140209 55:0.48959485 56:0.0098698633 57:0.37076578 58:0.0026585739 59:-0.75174814 60:-0.47325784  |EV| 
-0.052996283084729776946542045834576 1:-0.57829547 2:-0.69507968 3:-0.42706522 4:0.70201617 5:1.3431708 6:0.79862386 7:0.57093477 8:-1.2441592 9:0.64532012 10:-0.073496528 11:-0.59823865 12:0.32386336 13:-0.42502502 14:-0.53367805 15:-0.068847492 16:0.077852391 17:0.93667614 18:0.35227904 19:0.60886723 20:-0.84790373 21:-0.15324911 22:0.6384027 23:-0.14546283 24:-0.0047941878 25:0.8169722 26:-0.54605001 27:0.88809299 28:-0.59254789 29:-0.53040403 30:0.15612549 31:-0.24129024 32:-0.15018615 33:-0.57523906 34:0.27264768 35:-0.16223904 36:-0.20573662 37:-0.29683158 38:0.27106035 39:-0.083302237 40:-0.36260605 41:-0.41352418 42:-0.47180727 43:0.55187672 44:-0.13070621 45:-0.081875488 46:-0.64162618 47:-0.17327803 48:-0.98483723 49:0.43750212 50:0.63422519 51:-0.01807748 52:-0.22074144 53:-0.038875215 54:0.24790916 55:0.27056023 56:-0.36029586 57:0.059853539 58:0.45067266 59:-0.03259661 60:-0.1402297  |EV| 
-0.028570703673952507761768515592848 1:-0.57829547 2:-0.69507968 3:-0.42706522 4:0.70201617 5:1.3431708 6:0.79862386 7:0.57093477 8:-1.2441592 9:0.64532012 10:-0.073496528 11:-0.59823865 12:0.32386336 13:-0.42502502 14:-0.53367805 15:-0.068847492 16:0.077852391 17:0.93667614 18:0.35227904 19:0.60886723 20:-0.84790373 21:-0.10479736 22:0.58784562 23:-0.17532657 24:0.088025853 25:0.84282339 26:-0.37258273 27:0.80044597 28:-0.64257658 29:-0.59835356 30:0.041458733 31:-0.12446576 32:-0.10039923 33:-0.5431298 34:0.62627864 35:-0.1589525 36:-0.35068339 37:-0.43897867 38:0.27461243 39:-0.30188847 40:-0.53921354 41:0.90429276 42:0.23462623 43:-0.50813127 44:-0.73263144 45:-0.38137898 46:-1.1211846 47:-0.23166591 48:-0.37101075 49:0.49097309 50:0.17942138 51:-0.049731709 52:0.11239735 53:-0.86818582 54:0.37472221 55:-0.069298044 56:-0.0079476787 57:-0.18261452 58:0.2360131 59:-0.26061374 60:0.54781592  |EV| 
-0.015165162582738740335019933525018 1:1.1249331 2:-0.32099062 3:0.0029425158 4:-1.4886981 5:0.31824639 6:0.5837943 7:-0.45022434 8:1.4399294 9:0.60542953 10:-0.81326944 11:0.097542986 12:0.40063688 13:-0.41436759 14:0.36184913 15:0.83599657 16:-1.1090823 17:-0.5436998 18:-2.1096911 19:1.7579938 20:-0.82465112 21:-0.14317657 22:0.74740261 23:-0.71858454 24:-0.54281366 25:0.51527673 26:0.32113171 27:0.80453467 28:0.39001268 29:-0.45075428 30:1.5652347 31:-0.25785378 32:0.21551934 33:0.26163161 34:-1.7103528 35:1.4875375 36:-0.40915403 37:-0.24780062 38:1.0877064 39:0.41735956 40:0.75525719 41:-0.072860405 42:-0.52651072 43:-0.15407494 44:0.66316873 45:-0.52617508 46:0.144594 47:-0.54168755 48:-0.38022169 49:-1.1143407 50:-0.072214477 51:-0.71506464 52:-0.44184527 53:0.22321887 54:0.53576505 55:-0.028737051 56:0.71260738 57:0.1368373 58:-0.080718294 59:-0.80923945 60:0.70977902  |EV| 
0.052996283084729776946542045834576 1:0.15787804 2:0.32172781 3:0.88025743 4:-1.6701143 5:0.025401464 6:1.58207 7:0.38475743 8:0.72173339 9:0.79056263 10:-0.36846021 11:0.077648439 12:0.52372015 13:0.12952898 14:0.30207223 15:1.105415 16:0.096407175 17:0.53942615 18:-1.0028203 19:1.3252609 20:0.32788858 21:0.34709555 22:0.48951134 23:-0.057523545 24:-0.73072648 25:0.22705033 26:0.12431443 27:0.46542323 28:-0.73631328 29:-0.28931552 30:-0.07401678 31:-0.36105046 32:-0.16939799 33:0.13488682 34:-0.21700227 35:0.5078302 36:-0.7918002 37:0.47437912 38:-0.7698139 39:0.49969104 40:-0.45329353 41:-0.44340372 42:0.21513957 43:0.39142773 44:-0.13615493 45:-0.18780908 46:-0.08691638 47:0.43114364 48:-0.20212543 49:0.14971094 50:0.42087266 51:0.33261773 52:-0.18940407 53:0.51820976 54:0.72733688 55:-0.99766928 56:0.80801064 57:0.0014269887 58:0.2125627 59:0.77333391 60:-0.46798825  |EV| 
0.052996283084729776946542045834576 1:1.3283708 2:0.041055858 3:0.028019274 4:0.40172926 5:0.20812987 6:-0.22484902 7:-0.57400739 8:-0.32420662 9:0.4307673 10:-2.3498025 11:-0.045499917 12:0.098003201 13:0.91444761 14:-0.77482319 15:-0.38627571 16:-0.75005329 17:0.29267287 18:0.25656286 19:0.23444824 20:0.68395787 21:0.53035969 22:0.34218433 23:0.23777491 24:0.037220623 25:-0.065266281 26:-0.30523127 27:-0.47414482 28:0.079302251 29:0.55373424 30:-0.30396697 31:-0.74012488 32:-0.29805276 33:0.10800078 34:0.27047539 35:0.26593068 36:-0.51557881 37:-0.2191402 38:-0.31924075 39:0.30326968 40:0.03794999 41:-0.34744912 42:0.31872344 43:-0.54345691 44:-0.42016166 45:0.49200231 46:-0.27000663 47:0.11288942 48:-0.39930129 49:-0.82863581 50:0.079768278 51:-0.30055922 52:-0.64120811 53:-0.079003036 54:0.28954566 55:0.4258835 56:0.30329525 57:0.57416975 58:0.20683423 59:0.6594767 60:0.1778485  |EV| 
0.052996283084729776946542045834576 1:-0.12954605 2:0.81138682 3:-0.62306941 4:-0.98355931 5:0.26988775 6:-0.12028411 7:-0.59797573 8:-0.64442927 9:1.101271 10:-0.17934884 11:0.035826053 12:-0.02184117 13:-0.68968004 14:-0.38752529 15:0.30186534 16:-0.70963621 17:-0.52556723 18:-0.22101881 19:-0.16502769 20:1.1919471 21:0.13066572 22:0.53165442 23:-0.072462618 24:0.0077121258 25:0.20969251 26:0.31732032 27:-0.35282323 28:-0.24136779 29:0.39332214 30:-0.030695736 31:-0.32323855 32:-0.54047734 33:-0.83775204 34:-0.19895354 35:-0.39077964 36:-0.22240859 37:-0.55570978 38:-0.14947392 39:-0.20183961 40:0.61697203 41:-0.37778378 42:0.082738049 43:0.28766981 44:-0.58854127 45:-0.13659699 46:0.26997399 47:-0.16848096 48:0.12423407 49:-0.83112043 50:-0.0030901073 51:0.068138301 52:0.19633132 53:-0.38612029 54:-0.17105596 55:-1.0177822 56:0.47177339 57:0.1265686 58:-0.034023572 59:-0.29392135 60:1.1944197  |EV| 
0.052996283084729776946542045834576 1:0.0051296554 2:0.02962392 3:0.97221857 4:0.11611493 5:-0.68103981 6:-0.59853709 7:-0.6552819 8:-0.21572395 9:1.1615051 10:-1.1572019 11:-0.53864682 12:-0.068048753 13:0.47925168 14:-0.033923279 15:0.39543578 16:-0.68779117 17:-0.066734821 18:-0.30972499 19:-0.8196708 20:-0.46402645 21:-0.060496792 22:0.00096584857 23:0.4632104 24:-0.052544929 25:-0.4491829 26:-0.27422413 27:-0.038378254 28:-0.1224944 29:0.99075907 30:-0.37521666 31:-0.80282176 32:-0.027362563 33:-0.19837582 34:0.27466935 35:0.083869442 36:-0.72432852 37:-0.53614652 38:0.36047462 39:-0.46582794 40:-0.60376346 41:0.23047717 42:0.44962817 43:-0.066359363 44:-0.64225745 45:1.1191888 46:-0.0011745921 47:0.041048843 48:0.098105244 49:0.72061676 50:-0.36446601 51:0.15947379 52:0.42858347 53:0.13735764 54:-0.2475208 55:-0.22535296 56:0.86649513 57:-0.69953626 58:-0.18720554 59:-0.27359179 60:0.13977325  |EV| 
-0.052996283084729776946542045834576 1:1.2644881 2:0.54415691 3:-0.014844928 4:-0.34776691 5:-0.28917512 6:0.49342403 7:-0.23403729 8:0.0069506876 9:1.0507621 10:-1.2864051 11:-0.24943872 12:-1.5037781 13:0.015774325 14:-0.54133433 15:0.38045114 16:-0.79684627 17:0.37626624 18:0.29714891 19:-0.13371168 20:0.087922424 21:0.22299825 22:0.6744225 23:0.1770277 24:0.42034644 25:0.81165141 26:-0.022711832 27:0.88454753 28:-0.51654553 29:0.59437627 30:0.090459943 31:-0.29304495 32:0.02845088 33:-0.68057227 34:0.62186378 35:-0.0092179766 36:0.16441804 37:0.93391162 38:-0.39747146 39:0.32980612 40:0.019260367 41:-0.37463632 42:0.4832519 43:0.16598171 44:-0.092734113 45:0.3569757 46:0.65432179 47:0.47566813 48:-0.32485926 49:-0.10447196 50:-0.030760914 51:0.22776154 52:-0.68039191 53:-0.40046391 54:0.65420932 55:-0.88287556 56:0.13078915 57:-0.29267147 58:0.48698634 59:-0.43830642 60:0.49381492  |EV| 
-0.052996283084729776946542045834576 1:1.2644881 2:0.54415691 3:-0.014844928 4:-0.34776691 5:-0.28917512 6:0.49342403 7:-0.23403729 8:0.0069506876 9:1.0507621 10:-1.2864051 11:-0.24943872 12:-1.5037781 13:0.015774325 14:-0.54133433 15:0.38045114 16:-0.79684627 17:0.37626624 18:0.29714891 19:-0.13371168 20:0.087922424 21:0.22299825 22:0.6744225 23:0.1770277 24:0.42034644 25:0.81165141 26:-0.022711832 27:0.88454753 28:-0.51654553 29:0.59437627 30:0.090459943 31:-0.29304495 32:0.02845088 33:-0.68057227 34:0.62186378 35:-0.0092179766 36:0.16441804 37:0.93391162 38:-0.39747146 39:0.32980612 40:0.019260367 41:0.097384259 42:-0.40684056 43:-0.31877229 44:-0.31493473 45:0.032107208 46:-0.36346287 47:0.10093059 48:-0.2319307 49:0.26628643 50:-0.19765277 51:0.084270164 52:-0.70181185 53:0.49481645 54:0.56912369 55:0.37579304 56:0.5642485 57:0.92070234 58:0.016209539 59:0.33880743 60:0.057734814  |EV| 
-0.052996283084729776946542045834576 1:1.2644881 2:0.54415691 3:-0.014844928 4:-0.34776691 5:-0.28917512 6:0.49342403 7:-0.23403729 8:0.0069506876 9:1.0507621 10:-1.2864051 11:-0.24943872 12:-1.5037781 13:0.015774325 14:-0.54133433 15:0.38045114 16:-0.79684627 17:0.37626624 18:0.29714891 19:-0.13371168 20:0.087922424 21:0.58754289 22:-0.063565888 23:1.4955974 24:0.68096823 25:0.0050412696 26:0.63202167 27:-0.45814726 28:-0.45264766 29:0.94810855 30:-0.06038522 31:0.35023367 32:-0.27451205 33:-0.046696573 34:0.81808788 35:-1.9809771 36:-1.7505254 37:-0.58902454 38:-0.76625961 39:0.48403022 40:-0.60768038 41:0.25931239 42:0.033044528 43:-0.43616253 44:0.14244448 45:0.44788274 46:-0.15231635 47:-0.60781705 48:-0.24099214 49:0.27311745 50:-0.48697519 51:-0.96046305 52:-0.21017607 53:0.062447634 54:-0.3362734 55:-0.45703596 56:0.33075058 57:0.58987945 58:0.25316414 59:-0.17615485 60:0.92459166  |EV| 
-0.052996283084729776946542045834576 1:1.2644881 2:0.54415691 3:-0.014844928 4:-0.34776691 5:-0.28917512 6:0.49342403 7:-0.23403729 8:0.0069506876 9:1.0507621 10:-1.2864051 11:-0.24943872 12:-1.5037781 13:0.015774325 14:-0.54133433 15:0.38045114 16:-0.79684627 17:0.37626624 18:0.29714891 19:-0.13371168 20:0.087922424 21:0.15281703 22:0.62712222 23:0.48226804 24:0.58103377 25:0.12773067 26:-0.5374459 27:0.48759156 28:-0.4298276 29:0.17366838 30:-0.25932398 31:-0.80176967 32:-0.60751724 33:0.054979794 34:-0.052069776 35:0.05165004 36:0.31248757 37:-0.43002176 38:-1.1353333 39:0.26327783 40:-0.45364583 41:-0.37463632 42:0.4832519 43:0.16598171 44:-0.092734113 45:0.3569757 46:0.65432179 47:0.47566813 48:-0.32485926 49:-0.10447196 50:-0.030760914 51:0.22776154 52:-0.68039191 53:-0.40046391 54:0.65420932 55:-0.88287556 56:0.13078915 57:-0.29267147 58:0.48698634 59:-0.43830642 60:0.49381492  |EV| 
0.052996283084729776946542045834576 1:-0.57829547 2:-0.69507968 3:-0.42706522 4:0.70201617 5:1.3431708 6:0.79862386 7:0.57093477 8:-1.2441592 9:0.64532012 10:-0.073496528 11:-0.59823865 12:0.32386336 13:-0.42502502 14:-0.53367805 15:-0.068847492 16:0.077852391 17:0.93667614 18:0.35227904 19:0.60886723 20:-0.84790373 21:-0.066346258 22:-0.031954546 23:0.0021243915 24:0.083585545 25:0.44431102 26:0.033264719 27:0.32538587 28:0.014939232 29:-0.011134183 30:0.11344931 31:-0.14710434 32:0.25711524 33:0.32156286 34:-0.10715751 35:0.28387508 36:0.24015608 37:-0.34137243 38:-0.085475355 39:-0.036885142 40:-0.22436339 41:0.081152216 42:-0.60589141 43:-0.51170361 44:0.21639386 45:-0.12530608 46:0.56062376 47:0.28759763 48:-0.4891246 49:0.97800469 50:0.74423027 51:0.27825961 52:-0.17719661 53:0.059789333 54:0.27140209 55:0.48959485 56:0.0098698633 57:0.37076578 58:0.0026585739 59:-0.75174814 60:-0.47325784  |EV| 
0.052996283084729776946542045834576 1:0.24300914 2:0.17527445 3:-0.021875016 4:0.59415269 5:0.40878308 6:-0.037911836 7:0.75788248 8:-0.84694409 9:0.33826202 10:0.78802049 11:0.12543353 12:0.12350196 13:-0.44270411 14:-0.049946796 15:-0.0089779748 16:-0.25334215 17:1.2951792 18:0.089291789 19:1.0017473 20:-1.3252323 21:-0.63534683 22:1.1582916 23:1.2197124 24:0.021233507 25:0.51784629 26:-0.83214831 27:0.93749833 28:-1.1125033 29:0.68020982 30:-0.014581951 31:0.0015848079 32:-0.15539266 33:0.29113629 34:0.51754791 35:0.28337124 36:1.0410879 37:-1.3099319 38:1.3401967 39:0.022389086 40:-0.61492854 41:-0.24890098 42:0.40680364 43:-0.072771467 44:-0.35770044 45:-0.96663719 46:-1.0100456 47:0.53944433 48:-0.63903165 49:0.12660998 50:-0.15178674 51:0.32029566 52:-0.048982553 53:0.1759603 54:0.47611099 55:0.25084898 56:-0.11548473 57:0.25130752 58:0.72382033 59:0.22251962 60:-0.13327482  |EV| 
0.052996283084729776946542045834576 1:-0.0071327798 2:0.36766413 3:0.26055756 4:-1.280327 5:-0.038094044 6:0.48891172 7:1.5930761 8:-0.86578888 9:0.60406816 10:-0.50487125 11:0.5615415 12:0.71920556 13:0.019175785 14:-0.87784213 15:0.47136322 16:-0.091017947 17:-0.75904053 18:0.69227475 19:0.202034 20:0.059963401 21:-0.17016861 22:0.071929365 23:0.1174207 24:-0.22067717 25:0.64161706 26:-0.24482425 27:1.6142163 28:-0.55150533 29:0.11539233 30:0.29270834 31:-0.014730811 32:0.14844668 33:0.52789736 34:-0.29719788 35:0.36151448 36:0.088082008 37:-0.89031678 38:0.44943109 39:0.080214046 40:-0.27032727 41:0.22003666 42:-0.76256841 43:0.00018135013 44:-0.027638087 45:-0.33908877 46:-0.018718926 47:0.11052006 48:-0.10448191 49:0.92883027 50:0.95552796 51:-0.41736686 52:-0.20307478 53:0.69552159 54:0.43273175 55:0.20542608 56:0.85416818 57:0.15756306 58:-0.32057771 59:-0.28195629 60:0.62613112  |EV| 
0.0099784911245671490537256786979015 1:0.16965598 2:0.88787889 3:0.01469359 4:-0.38015047 5:0.12604636 6:0.5889622 7:0.13162038 8:-0.29521102 9:0.20900713 10:-0.50905365 11:0.39635277 12:-0.66815835 13:-0.99529392 14:-0.64637113 15:-0.61095124 16:-0.13519903 17:-0.91762185 18:-0.40060869 19:-0.47206065 20:1.51511 21:0.4331986 22:0.86290008 23:0.13601331 24:0.3065185 25:0.44846424 26:0.62384331 27:-0.52701783 28:-0.37500083 29:1.0303359 30:-0.07770592 31:0.12492953 32:-0.49218097 33:-0.51366264 34:-0.30957854 35:0.16139877 36:-0.57681328 37:-0.64232552 38:-0.77964139 39:-0.15083158 40:0.45246062 41:-0.42648885 42:0.23519959 43:-0.15893367 44:-0.85494286 45:-0.095272504 46:0.94034094 47:-0.001699273 48:-0.31836671 49:-0.46036148 50:-0.17547995 51:0.12894568 52:-0.4546406 53:-0.81801891 54:-0.070060715 55:-1.1819507 56:0.059399981 57:0.3613807 58:0.53446984 59:-0.02376168 60:-0.12508166  |EV| 
-0.039928198074056724109492932939247 1:-0.29158291 2:0.25461161 3:0.54890895 4:0.58099252 5:0.077604294 6:-0.19153616 7:0.77621353 8:-0.58965844 9:0.050285526 10:0.1223676 11:-0.1335566 12:-0.37463188 13:-0.57229877 14:0.29053146 15:0.243071 16:-1.5146728 17:0.17341347 18:-0.051576931 19:-0.75127631 20:0.099488236 21:-0.14317657 22:0.74740261 23:-0.71858454 24:-0.54281366 25:0.51527673 26:0.32113171 27:0.80453467 28:0.39001268 29:-0.45075428 30:1.5652347 31:-0.25785378 32:0.21551934 33:0.26163161 34:-1.7103528 35:1.4875375 36:-0.40915403 37:-0.24780062 38:1.0877064 39:0.41735956 40:0.75525719 41:0.23466776 42:0.18507487 43:0.25800741 44:0.40534696 45:-0.73323178 46:-0.62933737 47:-0.4873797 48:-0.36387971 49:0.35448307 50:0.35066822 51:-0.05583917 52:0.070694208 53:0.12741292 54:0.79444546 55:-0.0049809944 56:0.036591165 57:0.66534895 58:0.46695855 59:0.38705736 60:-0.14754371  |EV| 
-0.052996283084729776946542045834576 1:1.1249331 2:-0.32099062 3:0.0029425158 4:-1.4886981 5:0.31824639 6:0.5837943 7:-0.45022434 8:1.4399294 9:0.60542953 10:-0.81326944 11:0.097542986 12:0.40063688 13:-0.41436759 14:0.36184913 15:0.83599657 16:-1.1090823 17:-0.5436998 18:-2.1096911 19:1.7579938 20:-0.82465112 21:0.12614502 22:0.02699846 23:-0.42990029 24:0.05214756 25:0.89746535 26:-0.13241802 27:0.61707234 28:-0.59294212 29:-0.50265563 30:0.0056370758 31:-0.31794098 32:-0.59845567 33:-0.66273677 34:0.77710605 35:-0.092271179 36:-0.39605904 37:-0.29177997 38:0.15414365 39:-0.34174317 40:-0.48189965 41:-0.44340372 42:0.21513957 43:0.39142773 44:-0.13615493 45:-0.18780908 46:-0.08691638 47:0.43114364 48:-0.20212543 49:0.14971094 50:0.42087266 51:0.33261773 52:-0.18940407 53:0.51820976 54:0.72733688 55:-0.99766928 56:0.80801064 57:0.0014269887 58:0.2125627 59:0.77333391 60:-0.46798825  |EV| 
-0.052996283084729776946542045834576 1:-0.29158291 2:0.25461161 3:0.54890895 4:0.58099252 5:0.077604294 6:-0.19153616 7:0.77621353 8:-0.58965844 9:0.050285526 10:0.1223676 11:-0.1335566 12:-0.37463188 13:-0.57229877 14:0.29053146 15:0.243071 16:-1.5146728 17:0.17341347 18:-0.051576931 19:-0.75127631 20:0.099488236 21:-0.14317657 22:0.74740261 23:-0.71858454 24:-0.54281366 25:0.51527673 26:0.32113171 27:0.80453467 28:0.39001268 29:-0.45075428 30:1.5652347 31:-0.25785378 32:0.21551934 33:0.26163161 34:-1.7103528 35:1.4875375 36:-0.40915403 37:-0.24780062 38:1.0877064 39:0.41735956 40:0.75525719 41:0.23617662 42:0.55720633 43:-0.61053431 44:-0.91720754 45:0.67016155 46:-0.26538539 47:0.80378902 48:-0.28718585 49:0.46447495 50:-1.0556531 51:0.61350435 52:0.25287727 53:0.068622366 54:-0.79947931 55:0.38417736 56:0.68430829 57:0.18052542 58:0.40932482 59:-0.22470163 60:-0.089714944  |EV| 
0.052996283084729776946542045834576 1:1.3283708 2:0.041055858 3:0.028019274 4:0.40172926 5:0.20812987 6:-0.22484902 7:-0.57400739 8:-0.32420662 9:0.4307673 10:-2.3498025 11:-0.045499917 12:0.098003201 13:0.91444761 14:-0.77482319 15:-0.38627571 16:-0.75005329 17:0.29267287 18:0.25656286 19:0.23444824 20:0.68395787 21:1.6919278 22:0.079998404 23:-0.058539975 24:0.72381324 25:0.74109441 26:0.32376817 27:-0.28181541 28:0.97165489 29:0.059759583 30:0.56542343 31:0.39952779 32:0.4099316 33:-0.69115788 34:-0.26786661 35:-0.46130919 36:-0.73039854 37:0.37404025 38:-0.37327743 39:0.75491995 40:-0.8825407 41:-0.34744912 42:0.31872344 43:-0.54345691 44:-0.42016166 45:0.49200231 46:-0.27000663 47:0.11288942 48:-0.39930129 49:-0.82863581 50:0.079768278 51:-0.30055922 52:-0.64120811 53:-0.079003036 54:0.28954566 55:0.4258835 56:0.30329525 57:0.57416975 58:0.20683423 59:0.6594767 60:0.1778485  |EV| 
0.052996283084729776946542045834576 1:0.34551615 2:0.38933328 3:1.0896397 4:0.79559219 5:-1.4574734 6:0.438768 7:0.83059412 8:0.005762218 9:0.80589032 10:-1.2166092 11:-1.0109738 12:-1.2020355 13:0.28925759 14:-0.46340114 15:-0.11022496 16:-2.3696771 17:1.0383689 18:-0.78018755 19:-0.72536105 20:-1.1861923 21:-0.043749597 22:0.41034299 23:-0.52291548 24:0.13349226 25:0.085853979 26:0.65085554 27:-0.019691184 28:-0.27854502 29:-0.14332812 30:-0.14102021 31:-0.23556435 32:-0.49134341 33:-0.22197707 34:-0.044962451 35:-0.55243582 36:-0.33755639 37:-0.49465936 38:0.098542355 39:-0.10034112 40:0.0014177226 41:-0.18685138 42:0.41706783 43:-0.1027287 44:-0.25279167 45:0.53302509 46:-0.79368877 47:0.42756596 48:-0.23320504 49:-0.099326149 50:-0.35908514 51:-0.094260789 52:0.26659527 53:-0.08844763 54:0.24138539 55:-0.24128227 56:-0.42194465 57:-0.36284095 58:-0.19401889 59:-0.01226477 60:-0.11394659  |EV| 
0.052996283084729776946542045834576 1:0.1094766 2:0.62644815 3:0.22723453 4:0.54087871 5:-0.22565596 6:-0.43197584 7:0.55244285 8:0.087294757 9:-0.029708561 10:0.19290373 11:-0.035544939 12:-0.62379891 13:0.073211364 14:-0.18258886 15:0.78627908 16:-1.558344 17:0.15704432 18:-0.84764552 19:-0.4600499 20:-0.37511039 21:0.14045702 22:-0.96958959 23:0.48926911 24:0.92671078 25:1.8958888 26:-0.081769764 27:0.91375411 28:-0.39258444 29:-0.023249522 30:1.5321934 31:-0.58152825 32:-0.98428154 33:0.16793522 34:0.5291667 35:0.52350569 36:-1.6522839 37:0.08279153 38:-0.75715804 39:-0.36237067 40:0.49166197 41:0.1215668 42:0.77162826 43:-0.0089293774 44:-0.18470432 45:0.073048264 46:-0.8576768 47:-0.059200063 48:-0.29479548 49:0.15385279 50:0.59426516 51:0.47888356 52:-0.13214311 53:-0.039902844 54:-0.073817857 55:-0.17735252 56:0.29073751 57:0.07587786 58:0.36123815 59:0.010087391 60:0.15140904  |EV| 
0.050395453346607499423015497086453 1:0.96206003 2:-0.04670307 3:0.52777511 4:0.95724869 5:0.55257905 6:-0.21322124 7:0.6716212 8:0.30178332 9:0.83407313 10:-0.95216465 11:0.95410013 12:-0.250323 13:0.26410216 14:-0.047058851 15:0.67244267 16:-0.32043892 17:0.65512627 18:0.091876924 19:0.87533247 20:-0.79384792 21:0.067755848 22:0.98016798 23:-0.48592791 24:1.371912 25:-0.29685551 26:-0.52692163 27:0.58608985 28:0.56241089 29:0.56509304 30:0.28427976 31:-0.71151781 32:-0.26074123 33:-0.059452962 34:0.57000113 35:0.60604936 36:-0.51860309 37:-0.20154895 38:-0.463898 39:-0.089566827 40:0.96505976 41:-0.24854033 42:0.064767614 43:0.46908391 44:-0.03291386 45:0.37821928 46:-0.74898112 47:0.052914988 48:-0.24022073 49:0.40422717 50:0.25570849 51:0.60949886 52:-0.016513145 53:-0.33209732 54:0.87094307 55:-0.13443385 56:-0.17476097 57:0.31946987 58:0.25034261 59:0.28736636 60:-0.30972588  |EV| 
-0.052996283084729776946542045834576 1:-0.71335697 2:0.50959659 3:0.26391077 4:0.065650262 5:0.66949487 6:-0.17431901 7:-0.33439627 8:-0.02829353 9:0.88053167 10:0.28217795 11:0.17854381 12:-0.47709221 13:-0.61194348 14:-0.53664845 15:0.54339844 16:-0.30300087 17:0.61908787 18:-0.071427368 19:-0.26196775 20:-0.45667711 21:0.58754289 22:-0.063565888 23:1.4955974 24:0.68096823 25:0.0050412696 26:0.63202167 27:-0.45814726 28:-0.45264766 29:0.94810855 30:-0.06038522 31:0.35023367 32:-0.27451205 33:-0.046696573 34:0.81808788 35:-1.9809771 36:-1.7505254 37:-0.58902454 38:-0.76625961 39:0.48403022 40:-0.60768038 41:-0.012241871 42:0.47855604 43:0.10008536 44:-0.11887006 45:-0.27174747 46:-0.40707934 47:-0.19927844 48:-0.88634354 49:-0.28076333 50:0.37611279 51:0.22165862 52:-0.072412938 53:0.59693956 54:0.051236682 55:-0.10292671 56:-0.075413346 57:0.24622756 58:0.4302246 59:0.36000103 60:-0.38950768  |EV| 
-0.052996283084729776946542045834576 1:-0.57829547 2:-0.69507968 3:-0.42706522 4:0.70201617 5:1.3431708 6:0.79862386 7:0.57093477 8:-1.2441592 9:0.64532012 10:-0.073496528 11:-0.59823865 12:0.32386336 13:-0.42502502 14:-0.53367805 15:-0.068847492 16:0.077852391 17:0.93667614 18:0.35227904 19:0.60886723 20:-0.84790373 21:0.58754289 22:-0.063565888 23:1.4955974 24:0.68096823 25:0.0050412696 26:0.63202167 27:-0.45814726 28:-0.45264766 29:0.94810855 30:-0.06038522 31:0.35023367 32:-0.27451205 33:-0.046696573 34:0.81808788 35:-1.9809771 36:-1.7505254 37:-0.58902454 38:-0.76625961 39:0.48403022 40:-0.60768038 41:0.90429276 42:0.23462623 43:-0.50813127 44:-0.73263144 45:-0.38137898 46:-1.1211846 47:-0.23166591 48:-0.37101075 49:0.49097309 50:0.17942138 51:-0.049731709 52:0.11239735 53:-0.86818582 54:0.37472221 55:-0.069298044 56:-0.0079476787 57:-0.18261452 58:0.2360131 59:-0.26061374 60:0.54781592  |EV| 
0.052996283084729776946542045834576 1:-0.019397538 2:-0.26877642 3:-0.45984671 4:0.19091205 5:0.72345001 6:-1.2227578 7:-0.021434808 8:0.19912907 9:1.0218573 10:0.21497154 11:-0.22599722 12:-0.13182053 13:-0.80379003 14:0.45302951 15:-0.49954104 16:-0.96440065 17:1.8128054 18:0.55585134 19:0.43153667 20:-0.59015489 21:0.3222861 22:0.49577588 23:-0.45404559 24:0.47630304 25:1.0493553 26:0.0060639083 27:0.052790791 28:0.91590619 29:-0.47340691 30:-0.12142934 31:0.22758847 32:-0.9349668 33:0.76422811 34:0.62540323 35:-0.10667039 36:-0.13638425 37:0.50610638 38:2.2357812 39:1.0316038 40:0.51494658 41:0.61497915 42:0.26808375 43:-0.1802838 44:0.33354533 45:0.227652 46:-0.43887764 47:0.71275133 48:-0.67438143 49:0.14236277 50:-0.30954149 51:-0.29839343 52:-0.98314685 53:-0.67285043 54:0.068550244 55:0.24048693 56:0.21401918 57:-0.74267393 58:0.31993508 59:0.045608982 60:0.0094753783  |EV| 
0.052996283084729776946542045834576 1:-0.29158291 2:0.25461161 3:0.54890895 4:0.58099252 5:0.077604294 6:-0.19153616 7:0.77621353 8:-0.58965844 9:0.050285526 10:0.1223676 11:-0.1335566 12:-0.37463188 13:-0.57229877 14:0.29053146 15:0.243071 16:-1.5146728 17:0.17341347 18:-0.051576931 19:-0.75127631 20:0.099488236 21:1.6387258 22:0.65396416 23:0.43516308 24:0.7910043 25:-0.048592243 26:0.54258734 27:-1.0014216 28:0.27462363 29:-0.8557834 30:0.40252614 31:-0.42973223 32:-0.0817919 33:-2.325459 34:-1.2678906 35:0.37056819 36:-0.9096269 37:0.44751191 38:0.46112221 39:1.6866726 40:0.32275096 41:0.38779894 42:-0.019732917 43:0.096665032 44:-0.14016195 45:0.099721842 46:-1.3295349 47:0.12712584 48:-0.53407484 49:0.33494872 50:0.52691776 51:0.24162506 52:0.013603881 53:-0.63555735 54:-0.094146073 55:0.31360218 56:-0.28792444 57:-0.89067793 58:0.66636431 59:0.11213138 60:0.22957714  |EV| 
0.052996283084729776946542045834576 1:0.28228843 2:-0.087019332 3:0.84539759 4:-0.27932808 5:1.2430838 6:0.21650635 7:-0.50975466 8:0.1853361 9:0.61930037 10:-0.26218888 11:0.3526417 12:0.13710251 13:-0.018115582 14:-1.3780422 15:-0.25776014 16:-0.72215265 17:0.16760035 18:-0.20514268 19:-0.026448306 20:0.45269766 21:0.18594176 22:0.39380926 23:0.17107122 24:0.2576991 25:-0.024340671 26:-0.20539729 27:-0.085125566 28:-0.085832708 29:0.3046557 30:-0.41796273 31:-0.009572288 32:-0.10581663 33:0.049446188 34:-0.1651004 35:-0.23227748 36:-0.23120064 37:-0.17591625 38:0.18275586 39:0.42072204 40:-0.17324995 41:0.21407497 42:0.34778023 43:0.054465123 44:-0.90315497 45:0.80894995 46:0.1530762 47:-0.38019922 48:-0.068036713 49:-0.87661493 50:0.29699558 51:-0.31329331 52:0.70428842 53:-0.26584327 54:0.27493119 55:0.24250251 56:0.27918482 57:0.22284371 58:0.15343642 59:0.69778478 60:0.064754702  |EV| 
0.052996283084729776946542045834576 1:-0.291475 2:-0.44980377 3:0.080685146 4:-0.17497362 5:-0.052590333 6:0.32296041 7:-1.1391494 8:-0.70740962 9:1.2517464 10:0.15088399 11:-0.23921661 12:0.30310604 13:-0.23507395 14:-0.79787022 15:0.3282896 16:0.19163376 17:0.14015418 18:-0.19893308 19:0.36111048 20:0.36104608 21:0.016503287 22:-0.044081595 23:-0.1247725 24:-1.8364934 25:-0.10970291 26:0.15663306 27:-0.77694082 28:0.39974996 29:0.5592289 30:1.1902128 31:-1.0935502 32:-0.43585071 33:0.17235655 34:-0.93482196 35:0.37415034 36:0.75777566 37:1.0307385 38:0.96090245 39:0.39272085 40:-0.32923672 41:0.25931239 42:0.033044528 43:-0.43616253 44:0.14244448 45:0.44788274 46:-0.15231635 47:-0.60781705 48:-0.24099214 49:0.27311745 50:-0.48697519 51:-0.96046305 52:-0.21017607 53:0.062447634 54:-0.3362734 55:-0.45703596 56:0.33075058 57:0.58987945 58:0.25316414 59:-0.17615485 60:0.92459166  |EV| 
-0.052996283084729776946542045834576 1:-0.57829547 2:-0.69507968 3:-0.42706522 4:0.70201617 5:1.3431708 6:0.79862386 7:0.57093477 8:-1.2441592 9:0.64532012 10:-0.073496528 11:-0.59823865 12:0.32386336 13:-0.42502502 14:-0.53367805 15:-0.068847492 16:0.077852391 17:0.93667614 18:0.35227904 19:0.60886723 20:-0.84790373 21:0.43210721 22:-0.16566929 23:0.018464746 24:0.94323742 25:0.37645373 26:0.15391961 27:-0.378499 28:0.46986392 29:0.27193782 30:-0.43579596 31:-0.56515115 32:0.18892401 33:-0.83242029 34:-0.65295219 35:0.074802153 36:-0.5441286 37:-0.51907307 38:-0.15476334 39:-0.16762342 40:-0.47253612 41:0.27633908 42:0.11035863 43:0.36367196 44:-0.097873643 45:-0.4225449 46:-1.079978 47:-0.050039355 48:-0.56258428 49:0.18653361 50:0.02690139 51:0.46318582 52:0.40124768 53:-0.17785682 54:0.75007534 55:-0.30483893 56:-0.60074133 57:0.14991483 58:-0.056477156 59:-0.1146108 60:0.38762695  |EV| 
-0.052996283084729776946542045834576 1:1.1249331 2:-0.32099062 3:0.0029425158 4:-1.4886981 5:0.31824639 6:0.5837943 7:-0.45022434 8:1.4399294 9:0.60542953 10:-0.81326944 11:0.097542986 12:0.40063688 13:-0.41436759 14:0.36184913 15:0.83599657 16:-1.1090823 17:-0.5436998 18:-2.1096911 19:1.7579938 20:-0.82465112 21:0.12614502 22:0.02699846 23:-0.42990029 24:0.05214756 25:0.89746535 26:-0.13241802 27:0.61707234 28:-0.59294212 29:-0.50265563 30:0.0056370758 31:-0.31794098 32:-0.59845567 33:-0.66273677 34:0.77710605 35:-0.092271179 36:-0.39605904 37:-0.29177997 38:0.15414365 39:-0.34174317 40:-0.48189965 41:0.4866105 42:0.21116646 43:-0.44357932 44:-0.59914148 45:0.54474789 46:0.25109422 47:0.43468115 48:-0.75164777 49:0.435435 50:0.058009788 51:0.49294886 52:0.032911323 53:0.92681444 54:-0.28747344 55:-0.41940135 56:0.69058776 57:0.53583175 58:0.53230214 59:0.29088554 60:0.061299991  |EV| 
-0.052996283084729776946542045834576 1:1.1249331 2:-0.32099062 3:0.0029425158 4:-1.4886981 5:0.31824639 6:0.5837943 7:-0.45022434 8:1.4399294 9:0.60542953 10:-0.81326944 11:0.097542986 12:0.40063688 13:-0.41436759 14:0.36184913 15:0.83599657 16:-1.1090823 17:-0.5436998 18:-2.1096911 19:1.7579938 20:-0.82465112 21:0.12614502 22:0.02699846 23:-0.42990029 24:0.05214756 25:0.89746535 26:-0.13241802 27:0.61707234 28:-0.59294212 29:-0.50265563 30:0.0056370758 31:-0.31794098 32:-0.59845567 33:-0.66273677 34:0.77710605 35:-0.092271179 36:-0.39605904 37:-0.29177997 38:0.15414365 39:-0.34174317 40:-0.48189965 41:-0.0090108216 42:0.67869186 43:-0.2223683 44:0.021674993 45:-0.055228788 46:-0.88895351 47:0.02254373 48:-0.16863589 49:0.37889099 50:-0.0077756043 51:-0.13350031 52:-0.51884913 53:-0.49781463 54:0.48112819 55:0.047418654 56:0.032521091 57:-0.49854186 58:0.3760176 59:-0.069194548 60:-0.14474002  |EV| 
0.052996283084729776946542045834576 1:0.26983351 2:0.32396984 3:0.21507134 4:0.12743342 5:0.97142768 6:0.13558728 7:0.46780798 8:-0.10823595 9:-0.00052655931 10:-0.083858259 11:0.26722321 12:-0.17718096 13:0.095570728 14:-0.39610565 15:-0.25098088 16:-0.70195049 17:0.09152028 18:0.098750904 19:-0.47787905 20:-0.12524669 21:0.33739522 22:0.71747565 23:0.022317078 24:-0.17702565 25:1.1225942 26:-0.15147817 27:0.80203468 28:0.07928028 29:-0.59194243 30:0.46997201 31:-0.24100679 32:-0.023588767 33:-0.42201608 34:0.32620683 35:-0.15255728 36:-0.50112057 37:0.4929412 38:-0.45285946 39:-0.45662922 40:-0.59547859 41:-0.41352418 42:-0.47180727 43:0.55187672 44:-0.13070621 45:-0.081875488 46:-0.64162618 47:-0.17327803 48:-0.98483723 49:0.43750212 50:0.63422519 51:-0.01807748 52:-0.22074144 53:-0.038875215 54:0.24790916 55:0.27056023 56:-0.36029586 57:0.059853539 58:0.45067266 59:-0.03259661 60:-0.1402297  |EV| 
-0.052996283084729776946542045834576 1:-0.71335697 2:0.50959659 3:0.26391077 4:0.065650262 5:0.66949487 6:-0.17431901 7:-0.33439627 8:-0.02829353 9:0.88053167 10:0.28217795 11:0.17854381 12:-0.47709221 13:-0.61194348 14:-0.53664845 15:0.54339844 16:-0.30300087 17:0.61908787 18:-0.071427368 19:-0.26196775 20:-0.45667711 21:0.15281703 22:0.62712222 23:0.48226804 24:0.58103377 25:0.12773067 26:-0.5374459 27:0.48759156 28:-0.4298276 29:0.17366838 30:-0.25932398 31:-0.80176967 32:-0.60751724 33:0.054979794 34:-0.052069776 35:0.05165004 36:0.31248757 37:-0.43002176 38:-1.1353333 39:0.26327783 40:-0.45364583 41:0.1215668 42:0.77162826 43:-0.0089293774 44:-0.18470432 45:0.073048264 46:-0.8576768 47:-0.059200063 48:-0.29479548 49:0.15385279 50:0.59426516 51:0.47888356 52:-0.13214311 53:-0.039902844 54:-0.073817857 55:-0.17735252 56:0.29073751 57:0.07587786 58:0.36123815 59:0.010087391 60:0.15140904  |EV| 
-0.011386756506240630626436427519366 1:-0.57829547 2:-0.69507968 3:-0.42706522 4:0.70201617 5:1.3431708 6:0.79862386 7:0.57093477 8:-1.2441592 9:0.64532012 10:-0.073496528 11:-0.59823865 12:0.32386336 13:-0.42502502 14:-0.53367805 15:-0.068847492 16:0.077852391 17:0.93667614 18:0.35227904 19:0.60886723 20:-0.84790373 21:0.12614502 22:0.02699846 23:-0.42990029 24:0.05214756 25:0.89746535 26:-0.13241802 27:0.61707234 28:-0.59294212 29:-0.50265563 30:0.0056370758 31:-0.31794098 32:-0.59845567 33:-0.66273677 34:0.77710605 35:-0.092271179 36:-0.39605904 37:-0.29177997 38:0.15414365 39:-0.34174317 40:-0.48189965 41:0.90429276 42:0.23462623 43:-0.50813127 44:-0.73263144 45:-0.38137898 46:-1.1211846 47:-0.23166591 48:-0.37101075 49:0.49097309 50:0.17942138 51:-0.049731709 52:0.11239735 53:-0.86818582 54:0.37472221 55:-0.069298044 56:-0.0079476787 57:-0.18261452 58:0.2360131 59:-0.26061374 60:0.54781592  |EV| 
0.038510334421203343269191066156054 1:-0.90397763 2:-0.17074999 3:1.4085518 4:-0.52232432 5:0.92451525 6:0.75254291 7:0.70859754 8:0.811122 9:0.52920592 10:-0.33100125 11:1.1447762 12:0.39095229 13:-0.0056412462 14:-0.77605349 15:-0.73400331 16:-0.90882444 17:-0.021059977 18:-0.032936487 19:-0.44085172 20:-0.16326022 21:0.077351838 22:-0.18221517 23:0.15872188 24:0.56847727 25:0.46388555 26:0.01720964 27:0.75030899 28:-0.42406693 29:-0.073715225 30:0.82757801 31:0.20015879 32:-0.30585653 33:-0.072971448 34:0.78992778 35:-0.095095702 36:-0.61887717 37:0.23725802 38:-0.64544499 39:-0.29686344 40:0.18469219 41:0.65136874 42:0.13939984 43:-0.37635273 44:0.80287999 45:-0.51332355 46:-0.12479181 47:-0.54539341 48:0.30439326 49:-0.48636559 50:-0.080353521 51:0.76928174 52:0.26597822 53:-0.42940754 54:0.53801543 55:0.19575605 56:0.172858 57:0.25846136 58:-0.19901787 59:0.36571369 60:0.67124611  |EV| 
0.052996283084729776946542045834576 1:0.038695667 2:-0.55886406 3:1.6309563 4:-0.02473994 5:1.4564673 6:0.84471065 7:0.41296387 8:-0.69398677 9:0.48465419 10:-0.57791811 11:-0.23283476 12:-0.19051394 13:-1.2034447 14:0.69349945 15:0.39777693 16:0.26330182 17:1.2154487 18:-0.58930439 19:-0.36541703 20:0.22378133 21:0.18786663 22:-0.92434829 23:1.1054671 24:0.52484018 25:0.26656121 26:-0.0065419301 27:0.55826223 28:0.31748396 29:0.54194421 30:0.46600282 31:-0.40379912 32:0.38388711 33:-1.1432148 34:1.0308889 35:-0.064130202 36:-0.2940892 37:-0.066087395 38:-0.35813144 39:0.49212503 40:-0.11079787 41:0.52997494 42:0.55940801 43:0.54933912 44:0.074289143 45:-0.78748572 46:-0.71513301 47:-0.70901966 48:-0.33157754 49:0.62435269 50:-0.25661027 51:-0.21511723 52:0.5149048 53:-0.38685116 54:0.12089406 55:0.006817691 56:0.18950219 57:-0.10356589 58:-0.091915481 59:-0.57661319 60:-0.11573601  |EV| 
-0.052996283084729776946542045834576 1:-0.29158291 2:0.25461161 3:0.54890895 4:0.58099252 5:0.077604294 6:-0.19153616 7:0.77621353 8:-0.58965844 9:0.050285526 10:0.1223676 11:-0.1335566 12:-0.37463188 13:-0.57229877 14:0.29053146 15:0.243071 16:-1.5146728 17:0.17341347 18:-0.051576931 19:-0.75127631 20:0.099488236 21:0.43210721 22:-0.16566929 23:0.018464746 24:0.94323742 25:0.37645373 26:0.15391961 27:-0.378499 28:0.46986392 29:0.27193782 30:-0.43579596 31:-0.56515115 32:0.18892401 33:-0.83242029 34:-0.65295219 35:0.074802153 36:-0.5441286 37:-0.51907307 38:-0.15476334 39:-0.16762342 40:-0.47253612 41:0.38779894 42:-0.019732917 43:0.096665032 44:-0.14016195 45:0.099721842 46:-1.3295349 47:0.12712584 48:-0.53407484 49:0.33494872 50:0.52691776 51:0.24162506 52:0.013603881 53:-0.63555735 54:-0.094146073 55:0.31360218 56:-0.28792444 57:-0.89067793 58:0.66636431 59:0.11213138 60:0.22957714  |EV| 
-0.052996283084729776946542045834576 1:-0.29158291 2:0.25461161 3:0.54890895 4:0.58099252 5:0.077604294 6:-0.19153616 7:0.77621353 8:-0.58965844 9:0.050285526 10:0.1223676 11:-0.1335566 12:-0.37463188 13:-0.57229877 14:0.29053146 15:0.243071 16:-1.5146728 17:0.17341347 18:-0.051576931 19:-0.75127631 20:0.099488236 21:0.43210721 22:-0.16566929 23:0.018464746 24:0.94323742 25:0.37645373 26:0.15391961 27:-0.378499 28:0.46986392 29:0.27193782 30:-0.43579596 31:-0.56515115 32:0.18892401 33:-0.83242029 34:-0.65295219 35:0.074802153 36:-0.5441286 37:-0.51907307 38:-0.15476334 39:-0.16762342 40:-0.47253612 41:0.88932657 42:-0.19029947 43:0.070206389 44:-0.065068737 45:-0.23827462 46:-0.74412769 47:-0.13958597 48:-0.82173634 49:0.24414304 50:-0.059316315 51:-0.34439239 52:0.52480239 53:0.95966715 54:-0.36989737 55:0.16262923 56:0.62656921 57:1.3253893 58:1.1820942 59:-0.17447381 60:1.266553  |EV| 
-0.052996283084729776946542045834576 1:0.101928 2:0.67207253 3:0.35653442 4:-0.3588379 5:0.23489362 6:0.35540214 7:-0.17886692 8:-0.31033003 9:1.3922331 10:-0.64497465 11:0.53421283 12:0.1316389 13:-0.04617269 14:-0.83195931 15:-0.22874261 16:-0.46812689 17:-0.43059182 18:-0.10026652 19:-0.24312611 20:1.6166922 21:0.66671443 22:-0.73513442 23:-0.059100196 24:0.78586715 25:-0.42968115 26:0.020702109 27:0.66374308 28:-0.075877316 29:0.21725613 30:0.66608566 31:-0.69343299 32:-1.1635199 33:-0.22377339 34:0.78034431 35:0.73919398 36:-0.76987892 37:-0.31510308 38:0.12247329 39:0.67807233 40:0.56264198 41:-0.33418661 42:-0.37896293 43:0.4662092 44:-0.42849573 45:0.092389897 46:0.35891271 47:0.70566934 48:0.2225057 49:-0.55383193 50:0.22198667 51:0.15283033 52:-0.39130202 53:-0.95176911 54:0.18623905 55:-1.0586208 56:0.6538462 57:0.25770438 58:-0.28099012 59:0.23297684 60:0.60919815  |EV| 
-0.052996283084729776946542045834576 1:0.101928 2:0.67207253 3:0.35653442 4:-0.3588379 5:0.23489362 6:0.35540214 7:-0.17886692 8:-0.31033003 9:1.3922331 10:-0.64497465 11:0.53421283 12:0.1316389 13:-0.04617269 14:-0.83195931 15:-0.22874261 16:-0.46812689 17:-0.43059182 18:-0.10026652 19:-0.24312611 20:1.6166922 21:0.57165366 22:-0.31166545 23:-0.36055031 24:0.25583687 25:0.57788539 26:0.11150077 27:-0.071954772 28:1.2325152 29:-0.20913437 30:0.27370569 31:-0.39857906 32:-0.012561479 33:-0.22210778 34:0.55787325 35:0.090806141 36:-0.14642721 37:-0.62394398 38:0.11764193 39:0.31009319 40:-0.20078762 41:-0.13763489 42:0.70591372 43:-0.66676658 44:-0.27983218 45:-0.30219355 46:-0.56727397 47:-0.1168944 48:-0.64061821 49:0.11844745 50:0.10386598 51:-0.51808947 52:-0.37600622 53:-0.3105506 54:0.43549955 55:-0.24540803 56:-0.055476896 57:-0.28662628 58:-0.011378974 59:0.083043456 60:0.010335572  |EV| 
0.052996283084729776946542045834576 1:-0.24702737 2:0.0019814672 3:-0.6300655 4:0.14375605 5:0.56253135 6:0.011339097 7:0.32888299 8:0.19260573 9:0.44481373 10:-0.21435677 11:0.40211624 12:-0.30498809 13:0.2503255 14:-0.42609778 15:0.26269582 16:-1.5284624 17:-0.075083986 18:-0.16953233 19:-0.74242157 20:-0.012437331 21:-0.71951407 22:-0.25705406 23:-0.93292338 24:0.69963378 25:0.79903382 26:-0.56795245 27:0.82709175 28:0.17737672 29:0.09900935 30:-0.074501038 31:0.25092527 32:0.60618502 33:-0.13011672 34:0.073945001 35:0.46734801 36:-0.94984204 37:-0.19379477 38:-0.64835256 39:-0.6319859 40:-0.53710443 41:-0.044671722 42:0.41793829 43:-0.18316324 44:-0.1217197 45:-0.30586258 46:-0.61822861 47:0.13780735 48:-0.48607922 49:-0.5361194 50:0.25949618 51:-0.19555098 52:-0.5716179 53:-0.31500325 54:0.033467114 55:0.35077536 56:0.052046366 57:-0.16387606 58:-0.3707816 59:0.49949506 60:-0.22629282  |EV| 
0.052996283084729776946542045834576 1:-0.29158291 2:0.25461161 3:0.54890895 4:0.58099252 5:0.077604294 6:-0.19153616 7:0.77621353 8:-0.58965844 9:0.050285526 10:0.1223676 11:-0.1335566 12:-0.37463188 13:-0.57229877 14:0.29053146 15:0.243071 16:-1.5146728 17:0.17341347 18:-0.051576931 19:-0.75127631 20:0.099488236 21:-0.37989151 22:1.3570285 23:-0.68483776 24:0.90139329 25:-0.7278161 26:-0.33121988 27:1.1212937 28:-0.040451545 29:0.84096211 30:-0.42659256 31:-1.9789116 32:-0.21206583 33:-0.62760776 34:0.63681287 35:1.074142 36:-0.9852246 37:-0.15999053 38:-0.45454112 39:0.11195672 40:0.71883339 41:0.38779894 42:-0.019732917 43:0.096665032 44:-0.14016195 45:0.099721842 46:-1.3295349 47:0.12712584 48:-0.53407484 49:0.33494872 50:0.52691776 51:0.24162506 52:0.013603881 53:-0.63555735 54:-0.094146073 55:0.31360218 56:-0.28792444 57:-0.89067793 58:0.66636431 59:0.11213138 60:0.22957714  |EV| 
0.052996283084729776946542045834576 1:0.4628188 2:0.66899341 3:-1.1024957 4:-1.4293377 5:-0.065760851 6:-0.22319824 7:1.1829922 8:0.79406005 9:1.5236126 10:-0.67155528 11:0.94797856 12:0.43514496 13:-1.7616967 14:1.0356028 15:-0.93161547 16:-0.72973418 17:-0.15367337 18:-0.49363109 19:0.47039253 20:0.34168857 21:0.22299825 22:0.6744225 23:0.1770277 24:0.42034644 25:0.81165141 26:-0.022711832 27:0.88454753 28:-0.51654553 29:0.59437627 30:0.090459943 31:-0.29304495 32:0.02845088 33:-0.68057227 34:0.62186378 35:-0.0092179766 36:0.16441804 37:0.93391162 38:-0.39747146 39:0.32980612 40:0.019260367 41:-0.13895769 42:0.57120758 43:-0.2998862 44:0.18013914 45:-0.30266482 46:-0.56635588 47:0.28490949 48:-0.00097726716 49:0.41556671 50:-0.64633006 51:-0.035999529 52:-0.27698919 53:-0.36335745 54:0.6918661 55:0.14521368 56:0.17495278 57:-0.285189 58:0.18093257 59:0.52135831 60:-0.55507672  |EV| 
-0.052996283084729776946542045834576 1:0.101928 2:0.67207253 3:0.35653442 4:-0.3588379 5:0.23489362 6:0.35540214 7:-0.17886692 8:-0.31033003 9:1.3922331 10:-0.64497465 11:0.53421283 12:0.1316389 13:-0.04617269 14:-0.83195931 15:-0.22874261 16:-0.46812689 17:-0.43059182 18:-0.10026652 19:-0.24312611 20:1.6166922 21:1.0274608 22:-0.2866368 23:-0.030462226 24:0.85951513 25:0.33672836 26:-0.54324067 27:0.48273998 28:0.021945953 29:0.47999141 30:0.30591929 31:-0.30591643 32:-0.33712399 33:-1.1954025 34:0.50993758 35:-0.19474785 36:-1.4873923 37:-0.42562792 38:0.84914565 39:-0.2820093 40:-0.99810857 41:0.49320969 42:0.13466094 43:0.62242764 44:-0.056999203 45:0.55952722 46:0.5489468 47:-0.10439412 48:-0.68614006 49:0.19488914 50:-0.15327394 51:-0.53279132 52:0.3114886 53:-0.70039219 54:0.3377777 55:-0.4547244 56:0.60178375 57:0.054063231 58:-0.24249019 59:-0.45269462 60:0.13467674  |EV| 
-0.052996283084729776946542045834576 1:1.2644881 2:0.54415691 3:-0.014844928 4:-0.34776691 5:-0.28917512 6:0.49342403 7:-0.23403729 8:0.0069506876 9:1.0507621 10:-1.2864051 11:-0.24943872 12:-1.5037781 13:0.015774325 14:-0.54133433 15:0.38045114 16:-0.79684627 17:0.37626624 18:0.29714891 19:-0.13371168 20:0.087922424 21:0.22299825 22:0.6744225 23:0.1770277 24:0.42034644 25:0.81165141 26:-0.022711832 27:0.88454753 28:-0.51654553 29:0.59437627 30:0.090459943 31:-0.29304495 32:0.02845088 33:-0.68057227 34:0.62186378 35:-0.0092179766 36:0.16441804 37:0.93391162 38:-0.39747146 39:0.32980612 40:0.019260367 41:0.7533111 42:0.72188514 43:-0.2281689 44:-0.56853932 45:0.019311985 46:0.23573922 47:-0.20972617 48:-0.35841605 49:0.20401461 50:-0.017284349 51:0.35033765 52:-0.15179108 53:-0.5931921 54:0.76606762 55:0.96868628 56:0.142682 57:0.6342867 58:0.1436705 59:-0.67103297 60:-0.73322397  |EV| 
-0.052996283084729776946542045834576 1:-0.57829547 2:-0.69507968 3:-0.42706522 4:0.70201617 5:1.3431708 6:0.79862386 7:0.57093477 8:-1.2441592 9:0.64532012 10:-0.073496528 11:-0.59823865 12:0.32386336 13:-0.42502502 14:-0.53367805 15:-0.068847492 16:0.077852391 17:0.93667614 18:0.35227904 19:0.60886723 20:-0.84790373 21:0.53035969 22:0.34218433 23:0.23777491 24:0.037220623 25:-0.065266281 26:-0.30523127 27:-0.47414482 28:0.079302251 29:0.55373424 30:-0.30396697 31:-0.74012488 32:-0.29805276 33:0.10800078 34:0.27047539 35:0.26593068 36:-0.51557881 37:-0.2191402 38:-0.31924075 39:0.30326968 40:0.03794999 41:-0.37540433 42:0.46082202 43:0.12004494 44:0.18949369 45:0.022528796 46:-0.38414446 47:-0.081900381 48:-0.12710218 49:-0.3081024 50:-0.18190952 51:0.42402181 52:0.052025679 53:-0.44784376 54:0.19956475 55:0.68951589 56:0.15232021 57:-0.11414424 58:0.28712705 59:0.057167519 60:-0.56991446  |EV| 
0.052996283084729776946542045834576 1:0.26983351 2:0.32396984 3:0.21507134 4:0.12743342 5:0.97142768 6:0.13558728 7:0.46780798 8:-0.10823595 9:-0.00052655931 10:-0.083858259 11:0.26722321 12:-0.17718096 13:0.095570728 14:-0.39610565 15:-0.25098088 16:-0.70195049 17:0.09152028 18:0.098750904 19:-0.47787905 20:-0.12524669 21:0.076131515 22:-0.086194061 23:-0.45720258 24:0.43660021 25:1.0838195 26:0.37829515 27:1.168058 28:0.0054567079 29:-0.81637561 30:0.48906186 31:0.67576224 32:-0.1438911 33:-0.2689839 34:0.24704172 35:-0.74724823 36:-0.80746102 37:-1.0669767 38:0.78408861 39:-0.0092532542 40:-0.59028506 41:-0.41352418 42:-0.47180727 43:0.55187672 44:-0.13070621 45:-0.081875488 46:-0.64162618 47:-0.17327803 48:-0.98483723 49:0.43750212 50:0.63422519 51:-0.01807748 52:-0.22074144 53:-0.038875215 54:0.24790916 55:0.27056023 56:-0.36029586 57:0.059853539 58:0.45067266 59:-0.03259661 60:-0.1402297  |EV| 
0.052996283084729776946542045834576 1:0.26983351 2:0.32396984 3:0.21507134 4:0.12743342 5:0.97142768 6:0.13558728 7:0.46780798 8:-0.10823595 9:-0.00052655931 10:-0.083858259 11:0.26722321 12:-0.17718096 13:0.095570728 14:-0.39610565 15:-0.25098088 16:-0.70195049 17:0.09152028 18:0.098750904 19:-0.47787905 20:-0.12524669 21:0.63504934 22:-0.005030483 23:-0.31403074 24:0.49787366 25:1.3627448 26:0.71950722 27:2.0745125 28:0.42535627 29:-0.38029939 30:-0.6015926 31:0.091913067 32:-0.86041093 33:-0.7800864 34:-0.34486562 35:0.12837335 36:-0.64526552 37:-0.47021562 38:-0.26655543 39:0.010012381 40:-1.1398059 41:-0.41352418 42:-0.47180727 43:0.55187672 44:-0.13070621 45:-0.081875488 46:-0.64162618 47:-0.17327803 48:-0.98483723 49:0.43750212 50:0.63422519 51:-0.01807748 52:-0.22074144 53:-0.038875215 54:0.24790916 55:0.27056023 56:-0.36029586 57:0.059853539 58:0.45067266 59:-0.03259661 60:-0.1402297  |EV| 
0.052996283084729776946542045834576 1:-0.44779429 2:-0.102213 3:0.29739726 4:-0.14606026 5:0.93429774 6:-0.11051379 7:-0.035043441 8:0.16052641 9:0.41824913 10:0.276746 11:0.18151587 12:0.05293154 13:-0.32922953 14:-0.37827954 15:0.73330057 16:-0.51604372 17:-0.25456989 18:-0.24413064 19:-0.25698653 20:-0.83880734 21:0.2049765 22:0.42567873 23:-0.076453596 24:0.088253483 25:0.62797308 26:-0.34126031 27:-0.97120392 28:0.48033765 29:0.31175232 30:0.72482455 31:-0.73226225 32:-0.29336506 33:0.14878026 34:0.16516319 35:0.61001086 36:-1.3915825 37:-1.5317554 38:0.063807972 39:0.048418626 40:-0.59188432 41:0.103792 42:1.2446651 43:0.16463979 44:0.17666294 45:-0.024236327 46:0.10281906 47:-0.072280489 48:-0.1273393 49:0.81845796 50:0.11994624 51:-0.098033853 52:-0.014075647 53:0.36354542 54:0.23379226 55:0.12586698 56:-0.20228754 57:-0.04582281 58:0.17457059 59:-0.23365055 60:-0.037898269  |EV| 
0.052996283084729776946542045834576 1:0.85180199 2:-0.16041178 3:1.7060416 4:0.49429306 5:0.78379834 6:0.60504007 7:1.1327329 8:-0.27645752 9:-0.85947978 10:-0.23896527 11:0.43532687 12:-1.3741817 13:-0.25551668 14:0.35059649 15:0.39860004 16:-1.361623 17:0.091382191 18:-0.93314362 19:0.0038524647 20:-0.16116741 21:-0.01347943 22:0.47949237 23:0.31082943 24:-0.57411224 25:0.84707522 26:-0.25647104 27:0.75698984 28:-0.13386467 29:-0.75531113 30:0.81499964 31:-0.40799993 32:-1.2468095 33:-0.22975096 34:0.32061967 35:-0.28674221 36:-0.95061147 37:-0.32149014 38:-0.090196341 39:-0.73717529 40:-0.46313849 41:-0.16422692 42:-0.060787674 43:0.060490675 44:-0.13350448 45:-0.62950814 46:-0.39936197 47:-0.016240615 48:-0.63527328 49:0.23120666 50:-0.33213946 51:-0.2610077 52:-0.047923114 53:-0.64185125 54:0.046807576 55:-0.26657405 56:-0.13911198 57:-0.2303371 58:-0.043484669 59:-0.014906952 60:-0.40689403  |EV| 
0.052996283084729776946542045834576 1:0.26983351 2:0.32396984 3:0.21507134 4:0.12743342 5:0.97142768 6:0.13558728 7:0.46780798 8:-0.10823595 9:-0.00052655931 10:-0.083858259 11:0.26722321 12:-0.17718096 13:0.095570728 14:-0.39610565 15:-0.25098088 16:-0.70195049 17:0.09152028 18:0.098750904 19:-0.47787905 20:-0.12524669 21:0.65346599 22:0.49860051 23:-0.19081476 24:0.74960983 25:1.0592452 26:-1.2089483 27:0.86352628 28:-0.46013403 29:-0.40330985 30:0.48184034 31:-0.34957057 32:-1.0626693 33:-0.82358831 34:0.34797272 35:-0.2752043 36:-1.4702206 37:-0.24996641 38:-0.4923566 39:1.0109297 40:0.19752647 41:-0.41352418 42:-0.47180727 43:0.55187672 44:-0.13070621 45:-0.081875488 46:-0.64162618 47:-0.17327803 48:-0.98483723 49:0.43750212 50:0.63422519 51:-0.01807748 52:-0.22074144 53:-0.038875215 54:0.24790916 55:0.27056023 56:-0.36029586 57:0.059853539 58:0.45067266 59:-0.03259661 60:-0.1402297  |EV| 
-0.052996283084729776946542045834576 1:-0.29158291 2:0.25461161 3:0.54890895 4:0.58099252 5:0.077604294 6:-0.19153616 7:0.77621353 8:-0.58965844 9:0.050285526 10:0.1223676 11:-0.1335566 12:-0.37463188 13:-0.57229877 14:0.29053146 15:0.243071 16:-1.5146728 17:0.17341347 18:-0.051576931 19:-0.75127631 20:0.099488236 21:-0.14317657 22:0.74740261 23:-0.71858454 24:-0.54281366 25:0.51527673 26:0.32113171 27:0.80453467 28:0.39001268 29:-0.45075428 30:1.5652347 31:-0.25785378 32:0.21551934 33:0.26163161 34:-1.7103528 35:1.4875375 36:-0.40915403 37:-0.24780062 38:1.0877064 39:0.41735956 40:0.75525719 41:0.88932657 42:-0.19029947 43:0.070206389 44:-0.065068737 45:-0.23827462 46:-0.74412769 47:-0.13958597 48:-0.82173634 49:0.24414304 50:-0.059316315 51:-0.34439239 52:0.52480239 53:0.95966715 54:-0.36989737 55:0.16262923 56:0.62656921 57:1.3253893 58:1.1820942 59:-0.17447381 60:1.266553  |EV| 
0.052996283084729776946542045834576 1:0.026299329 2:-0.54845244 3:0.35399243 4:0.073005497 5:0.66838467 6:0.1445435 7:-0.067109942 8:-0.29897723 9:0.15961784 10:0.27666751 11:0.13833502 12:0.15250167 13:-0.21329664 14:-0.97784567 15:-0.12116887 16:-0.13753876 17:-0.32510722 18:-0.13064668 19:-0.46466506 20:0.43538392 21:0.38499376 22:1.0575689 23:-0.68681735 24:0.50411236 25:0.90542197 26:0.55116677 27:-0.60826713 28:-0.15604497 29:-0.31799796 30:0.74586105 31:-1.3187593 32:0.36990753 33:-0.46683925 34:-0.59210408 35:0.031421743 36:0.4414959 37:-0.67272764 38:0.35331696 39:0.20435567 40:-0.5232259 41:0.33580497 42:0.40706655 43:-0.20241141 44:-0.066350117 45:0.37928033 46:1.0102812 47:-0.52720577 48:-0.64474398 49:-0.087069906 50:0.42563757 51:-0.5706442 52:-0.33861792 53:0.085625745 54:0.19457778 55:-0.14043328 56:-0.40338522 57:0.0058271438 58:0.047136746 59:-0.44750777 60:0.60569149  |EV| 
-0.052996283084729776946542045834576 1:-0.29158291 2:0.25461161 3:0.54890895 4:0.58099252 5:0.077604294 6:-0.19153616 7:0.77621353 8:-0.58965844 9:0.050285526 10:0.1223676 11:-0.1335566 12:-0.37463188 13:-0.57229877 14:0.29053146 15:0.243071 16:-1.5146728 17:0.17341347 18:-0.051576931 19:-0.75127631 20:0.099488236 21:0.12614502 22:0.02699846 23:-0.42990029 24:0.05214756 25:0.89746535 26:-0.13241802 27:0.61707234 28:-0.59294212 29:-0.50265563 30:0.0056370758 31:-0.31794098 32:-0.59845567 33:-0.66273677 34:0.77710605 35:-0.092271179 36:-0.39605904 37:-0.29177997 38:0.15414365 39:-0.34174317 40:-0.48189965 41:0.4402034 42:0.20572118 43:0.41495439 44:0.91060114 45:0.60702634 46:-0.75396937 47:0.062883019 48:-0.093538694 49:-0.097060055 50:0.26190874 51:0.21581976 52:-0.35710126 53:-0.2230777 54:0.5604769 55:0.53661221 56:0.54041225 57:-0.14988539 58:-0.58473974 59:-0.051048875 60:0.086835444  |EV| 
